svm_type nu_svr
kernel_type rbf
gamma 0.111111
nr_class 2
total_sv 7726
rho -0.0468592
SV
-1 0:-0.179159 1:0.496976 2:-0.459909 3:-0.699477 4:0.175224 5:-1 6:-1 7:-1 8:-1 9:-1 
-1 0:-0.191904 1:0.517865 2:-0.452716 3:-0.699477 4:0.131789 5:-1 6:-1 7:-1 8:-1 9:-1 
-1 0:-0.191904 1:0.489481 2:-0.452716 3:-0.700473 4:0.150489 5:-1 6:-1 7:-1 8:-1 9:-1 
-1 0:-0.218917 1:0.489481 2:-0.485949 3:-0.686122 4:0.175224 5:-1 6:-1 7:-1 8:-1 9:-1 
-1 0:-0.179159 1:0.509316 2:-0.485949 3:-0.674464 4:0.178748 5:-1 6:-1 7:-1 8:-1 9:-1 
-1 0:-0.161508 1:0.476644 2:-0.452716 3:-0.659328 4:0.178748 5:-1 6:-1 7:-1 8:-1 9:-1 
-1 0:-0.179159 1:0.496976 2:-0.452716 3:-0.647204 4:0.131789 5:-1 6:-1 7:-1 8:-1 9:-1 
-1 0:-0.164151 1:0.489481 2:-0.485949 3:-0.686122 4:0.109613 5:-1 6:-1 7:-1 8:-1 9:-1 
-1 0:-0.164151 1:0.489481 2:-0.414337 3:-0.706008 4:0.199377 5:-1 6:-1 7:-1 8:-1 9:-1 
-1 0:-0.191904 1:0.517865 2:-0.452716 3:-0.699477 4:0.114255 5:-1 6:-1 7:-1 8:-1 9:-1 
-1 0:-0.164151 1:0.506569 2:-0.452716 3:-0.674464 4:0.123197 5:-1 6:-1 7:-1 8:-1 9:-1 
-1 0:-0.164151 1:0.509316 2:-0.438757 3:-0.661005 4:0.175224 5:-1 6:-1 7:-1 8:-1 9:-1 
-1 0:-0.179159 1:0.538291 2:-0.485949 3:-0.659328 4:0.131789 5:-1 6:-1 7:-1 8:-1 9:-1 
-1 0:-0.164151 1:0.489481 2:-0.438757 3:-0.700473 4:0.131439 5:-1 6:-1 7:-1 8:-1 9:-1 
-1 0:-0.191904 1:0.484225 2:-0.414337 3:-0.706008 4:0.175224 5:-1 6:-1 7:-1 8:-1 9:-1 
-1 0:-0.182334 1:0.484225 2:-0.459909 3:-0.659328 4:0.178748 5:-1 6:-1 7:-1 8:-1 9:-1 
-1 0:-0.164151 1:0.496976 2:-0.438757 3:-0.706008 4:0.175224 5:-1 6:-1 7:-1 8:-1 9:-1 
1 0:-0.167657 1:0.536923 2:-0.408174 3:-0.686391 4:0.221545 5:-1 6:-1 7:-1 8:-1 9:-1 
1 0:-0.13083 1:0.524963 2:-0.434528 3:-0.686391 4:0.0936503 5:-1 6:-1 7:-1 8:-1 9:-1 
1 0:-0.189343 1:0.584102 2:-0.460398 3:-0.642752 4:0.115142 5:-1 6:-1 7:-1 8:-1 9:-1 
1 0:-0.13083 1:0.558532 2:-0.466506 3:-0.686391 4:0.227135 5:-1 6:-1 7:-1 8:-1 9:-1 
-1 0:-0.167657 1:0.512109 2:-0.501864 3:-0.642752 4:0.199377 5:-1 6:-1 7:-1 8:-1 9:-1 
1 0:-0.15087 1:0.498904 2:-0.434528 3:-0.646228 4:0.156585 5:-1 6:-1 7:-1 8:-1 9:-1 
1 0:-0.180748 1:0.517914 2:-0.477547 3:-0.625007 4:0.125291 5:-1 6:-1 7:-1 8:-1 9:-1 
1 0:-0.202968 1:0.525594 2:-0.421705 3:-0.655053 4:0.231312 5:-1 6:-1 7:-1 8:-1 9:-1 
1 0:-0.0853017 1:0.51779 2:-0.421705 3:-0.67588 4:0.157337 5:-1 6:-1 7:-1 8:-1 9:-1 
1 0:-0.153882 1:0.482039 2:-0.441327 3:-0.685208 4:0.231312 5:-1 6:-1 7:-1 8:-1 9:-1 
1 0:-0.0853017 1:0.539161 2:-0.457938 3:-0.695843 4:0.125291 5:-1 6:-1 7:-1 8:-1 9:-1 
1 0:-0.189571 1:0.488648 2:-0.349023 3:-0.655053 4:0.115553 5:-1 6:-1 7:-1 8:-1 9:-1 
1 0:-0.155626 1:0.539161 2:-0.477547 3:-0.655053 4:0.125291 5:-1 6:-1 7:-1 8:-1 9:-1 
1 0:-0.0853017 1:0.505373 2:-0.477547 3:-0.655053 4:0.125291 5:-1 6:-1 7:-1 8:-1 9:-1 
1 0:-0.153882 1:0.539161 2:-0.477547 3:-0.685208 4:0.148027 5:-1 6:-1 7:-1 8:-1 9:-1 
1 0:-0.155626 1:0.539161 2:-0.488843 3:-0.67588 4:0.115553 5:-1 6:-1 7:-1 8:-1 9:-1 
1 0:-0.164251 1:0.517914 2:-0.431155 3:-0.655053 4:0.155771 5:-1 6:-1 7:-1 8:-1 9:-1 
1 0:-0.0853017 1:0.525594 2:-0.413185 3:-0.695843 4:0.132932 5:-1 6:-1 7:-1 8:-1 9:-1 
1 0:-0.0853017 1:0.525594 2:-0.457938 3:-0.665066 4:0.155771 5:-1 6:-1 7:-1 8:-1 9:-1 
1 0:-0.202968 1:0.525594 2:-0.457938 3:-0.689883 4:0.148027 5:-1 6:-1 7:-1 8:-1 9:-1 
1 0:-0.0853017 1:0.524282 2:-0.48009 3:-0.67588 4:0.231312 5:-1 6:-1 7:-1 8:-1 9:-1 
1 0:-0.0853017 1:0.525594 2:-0.48009 3:-0.695843 4:0.132932 5:-1 6:-1 7:-1 8:-1 9:-1 
-1 0:-0.159673 1:0.541525 2:-0.371217 3:-0.700614 4:0.186252 5:-1 6:-1 7:-1 8:-1 9:-1 
-1 0:-0.180219 1:0.544323 2:-0.410054 3:-0.657338 4:0.159686 5:-1 6:-1 7:-1 8:-1 9:-1 
-1 0:-0.159673 1:0.504061 2:-0.421514 3:-0.693961 4:0.186252 5:-1 6:-1 7:-1 8:-1 9:-1 
1 0:-0.128998 1:0.570847 2:-0.474132 3:-0.684781 4:0.136837 5:-1 6:-1 7:-1 8:-1 9:-1 
-1 0:-0.128998 1:0.541525 2:-0.399051 3:-0.700614 4:0.159686 5:-1 6:-1 7:-1 8:-1 9:-1 
-1 0:-0.159673 1:0.541525 2:-0.428547 3:-0.656601 4:0.199377 5:-1 6:-1 7:-1 8:-1 9:-1 
1 0:-0.180219 1:0.544323 2:-0.436928 3:-0.682818 4:0.186252 5:-1 6:-1 7:-1 8:-1 9:-1 
-1 0:-0.180219 1:0.544323 2:-0.486203 3:-0.684781 4:0.186252 5:-1 6:-1 7:-1 8:-1 9:-1 
1 0:-0.159673 1:0.570847 2:-0.459675 3:-0.682818 4:0.186252 5:-1 6:-1 7:-1 8:-1 9:-1 
-1 0:-0.180219 1:0.544323 2:-0.371217 3:-0.693961 4:0.16602 5:-1 6:-1 7:-1 8:-1 9:-1 
1 0:-0.180219 1:0.544323 2:-0.410054 3:-0.682818 4:0.186252 5:-1 6:-1 7:-1 8:-1 9:-1 
1 0:-0.128998 1:0.484033 2:-0.371217 3:-0.682818 4:0.178476 5:-1 6:-1 7:-1 8:-1 9:-1 
1 0:-0.180286 1:0.38789 2:-0.474132 3:-0.682818 4:0.159686 5:-1 6:-1 7:-1 8:-1 9:-1 
-1 0:-0.144971 1:0.516279 2:-0.454161 3:-0.684469 4:0.143409 5:-1 6:-1 7:-1 8:-1 9:-1 
-1 0:-0.166258 1:0.468412 2:-0.454161 3:-0.670037 4:0.126556 5:-1 6:-1 7:-1 8:-1 9:-1 
-1 0:-0.144971 1:0.459885 2:-0.45691 3:-0.718501 4:0.157724 5:-1 6:-1 7:-1 8:-1 9:-1 
-1 0:-0.0452788 1:0.532301 2:-0.454161 3:-0.678797 4:0.0785242 5:-1 6:-1 7:-1 8:-1 9:-1 
-1 0:-0.0452788 1:0.532301 2:-0.506893 3:-0.682953 4:0.126556 5:-1 6:-1 7:-1 8:-1 9:-1 
-1 0:-0.153055 1:0.530717 2:-0.463167 3:-0.66495 4:0.131451 5:-1 6:-1 7:-1 8:-1 9:-1 
-1 0:-0.0867203 1:0.512675 2:-0.463167 3:-0.66495 4:0.131451 5:-1 6:-1 7:-1 8:-1 9:-1 
-1 0:-0.165497 1:0.591476 2:-0.421496 3:-0.668761 4:0.195742 5:-1 6:-1 7:-1 8:-1 9:-1 
-1 0:-0.165497 1:0.591476 2:-0.424369 3:-0.686114 4:0.149137 5:-1 6:-1 7:-1 8:-1 9:-1 
-1 0:-0.173418 1:0.498009 2:-0.469649 3:-0.704393 4:0.105837 5:-1 6:-1 7:-1 8:-1 9:-1 
-1 0:-0.171127 1:0.498009 2:-0.434799 3:-0.675607 4:0.17241 5:-1 6:-1 7:-1 8:-1 9:-1 
-1 0:-0.240438 1:0.498009 2:-0.440831 3:-0.66105 4:0.124728 5:-1 6:-1 7:-1 8:-1 9:-1 
-1 0:-0.179804 1:0.512614 2:-0.467692 3:-0.701788 4:0.124728 5:-1 6:-1 7:-1 8:-1 9:-1 
-1 0:-0.179804 1:0.460445 2:-0.476046 3:-0.704393 4:0.17241 5:-1 6:-1 7:-1 8:-1 9:-1 
-1 0:-0.173418 1:0.460445 2:-0.440831 3:-0.66105 4:0.101579 5:-1 6:-1 7:-1 8:-1 9:-1 
-1 0:-0.171127 1:0.522843 2:-0.488334 3:-0.66105 4:0.122666 5:-1 6:-1 7:-1 8:-1 9:-1 
-1 0:-0.19958 1:0.491701 2:-0.41442 3:-0.701788 4:0.148621 5:-1 6:-1 7:-1 8:-1 9:-1 
-1 0:-0.190532 1:0.518288 2:-0.469649 3:-0.704393 4:0.124728 5:-1 6:-1 7:-1 8:-1 9:-1 
-1 0:-0.190532 1:0.480037 2:-0.434799 3:-0.66105 4:0.148621 5:-1 6:-1 7:-1 8:-1 9:-1 
-1 0:-0.152557 1:0.534473 2:-0.415675 3:-0.657031 4:0.17912 5:-1 6:-1 7:-1 8:-1 9:-1 
-1 0:-0.117941 1:0.537281 2:-0.438061 3:-0.657031 4:0.190014 5:-1 6:-1 7:-1 8:-1 9:-1 
-1 0:-0.0649083 1:0.537281 2:-0.438061 3:-0.657031 4:0.17912 5:-1 6:-1 7:-1 8:-1 9:-1 
-1 0:-0.138355 1:0.535924 2:-0.406969 3:-0.657031 4:0.190014 5:-1 6:-1 7:-1 8:-1 9:-1 
-1 0:-0.117941 1:0.520027 2:-0.441626 3:-0.656944 4:0.199377 5:-1 6:-1 7:-1 8:-1 9:-1 
-1 0:-0.152557 1:0.534473 2:-0.395324 3:-0.661742 4:0.190014 5:-1 6:-1 7:-1 8:-1 9:-1 
-1 0:-0.152557 1:0.592563 2:-0.395324 3:-0.637856 4:0.151117 5:-1 6:-1 7:-1 8:-1 9:-1 
-1 0:-0.140159 1:0.52038 2:-0.407128 3:-0.676045 4:0.190014 5:-1 6:-1 7:-1 8:-1 9:-1 
-1 0:-0.0649083 1:0.570001 2:-0.438061 3:-0.657031 4:0.17912 5:-1 6:-1 7:-1 8:-1 9:-1 
-1 0:-0.117941 1:0.543854 2:-0.438529 3:-0.68285 4:0.178977 5:-1 6:-1 7:-1 8:-1 9:-1 
-1 0:-0.140159 1:0.552986 2:-0.342454 3:-0.68285 4:0.17912 5:-1 6:-1 7:-1 8:-1 9:-1 
-1 0:-0.140159 1:0.552646 2:-0.372337 3:-0.621386 4:0.167929 5:-1 6:-1 7:-1 8:-1 9:-1 
-1 0:-0.0948828 1:0.592563 2:-0.415675 3:-0.676045 4:0.16966 5:-1 6:-1 7:-1 8:-1 9:-1 
-1 0:-0.0948828 1:0.52038 2:-0.407128 3:-0.656944 4:0.199377 5:-1 6:-1 7:-1 8:-1 9:-1 
-1 0:-0.117941 1:0.552986 2:-0.438529 3:-0.676045 4:0.17912 5:-1 6:-1 7:-1 8:-1 9:-1 
-1 0:-0.142086 1:0.552646 2:-0.415675 3:-0.674338 4:0.199377 5:-1 6:-1 7:-1 8:-1 9:-1 
-1 0:-0.140159 1:0.552646 2:-0.372337 3:-0.676045 4:0.237228 5:-1 6:-1 7:-1 8:-1 9:-1 
-1 0:-0.140159 1:0.520027 2:-0.419395 3:-0.676045 4:0.237228 5:-1 6:-1 7:-1 8:-1 9:-1 
-1 0:-0.152557 1:0.592563 2:-0.438061 3:-0.663792 4:0.17912 5:-1 6:-1 7:-1 8:-1 9:-1 
1 0:-0.20823 1:0.54192 2:-0.491397 3:-0.688723 4:0.0943958 5:-1 6:-1 7:-1 8:-1 9:-1 
1 0:-0.169193 1:0.500803 2:-0.464628 3:-0.665434 4:0.0943958 5:-1 6:-1 7:-1 8:-1 9:-1 
1 0:-0.173566 1:0.511301 2:-0.464628 3:-0.659251 4:0.165246 5:-1 6:-1 7:-1 8:-1 9:-1 
1 0:-0.20823 1:0.54192 2:-0.464628 3:-0.665434 4:0.099495 5:-1 6:-1 7:-1 8:-1 9:-1 
1 0:-0.20823 1:0.500322 2:-0.411155 3:-0.665434 4:0.132849 5:-1 6:-1 7:-1 8:-1 9:-1 
1 0:-0.20823 1:0.472834 2:-0.446418 3:-0.681089 4:0.103077 5:-1 6:-1 7:-1 8:-1 9:-1 
1 0:-0.223979 1:0.500803 2:-0.411155 3:-0.680708 4:0.103077 5:-1 6:-1 7:-1 8:-1 9:-1 
1 0:-0.20823 1:0.497927 2:-0.468523 3:-0.705669 4:0.132849 5:-1 6:-1 7:-1 8:-1 9:-1 
1 0:-0.20823 1:0.54192 2:-0.411155 3:-0.680708 4:0.199377 5:-1 6:-1 7:-1 8:-1 9:-1 
1 0:-0.169193 1:0.497927 2:-0.450778 3:-0.688723 4:0.176814 5:-1 6:-1 7:-1 8:-1 9:-1 
1 0:-0.20823 1:0.477108 2:-0.450086 3:-0.665434 4:0.132849 5:-1 6:-1 7:-1 8:-1 9:-1 
1 0:-0.172872 1:0.500803 2:-0.422373 3:-0.705669 4:0.175351 5:-1 6:-1 7:-1 8:-1 9:-1 
1 0:-0.20823 1:0.500322 2:-0.422373 3:-0.680708 4:0.175351 5:-1 6:-1 7:-1 8:-1 9:-1 
-1 0:-0.100207 1:0.529335 2:-0.514975 3:-0.65598 4:0.147001 5:-1 6:-1 7:-1 8:-1 9:-1 
-1 0:-0.201476 1:0.508537 2:-0.44488 3:-0.678029 4:0.1618 5:-1 6:-1 7:-1 8:-1 9:-1 
-1 0:-0.110402 1:0.50861 2:-0.435387 3:-0.716471 4:0.144664 5:-1 6:-1 7:-1 8:-1 9:-1 
-1 0:-0.201476 1:0.565994 2:-0.453651 3:-0.65474 4:0.267668 5:-1 6:-1 7:-1 8:-1 9:-1 
-1 0:-0.100207 1:0.618079 2:-0.453747 3:-0.667543 4:0.147001 5:-1 6:-1 7:-1 8:-1 9:-1 
-1 0:-0.201476 1:0.508537 2:-0.435387 3:-0.676598 4:0.205533 5:-1 6:-1 7:-1 8:-1 9:-1 
-1 0:-0.158127 1:0.565994 2:-0.402971 3:-0.65598 4:0.1618 5:-1 6:-1 7:-1 8:-1 9:-1 
-1 0:-0.176544 1:0.546872 2:-0.44488 3:-0.716471 4:0.1618 5:-1 6:-1 7:-1 8:-1 9:-1 
-1 0:-0.201476 1:0.618079 2:-0.435387 3:-0.677838 4:0.147001 5:-1 6:-1 7:-1 8:-1 9:-1 
-1 0:-0.176544 1:0.50861 2:-0.402971 3:-0.646383 4:0.1618 5:-1 6:-1 7:-1 8:-1 9:-1 
-1 0:-0.201476 1:0.508537 2:-0.308658 3:-0.65474 4:0.1618 5:-1 6:-1 7:-1 8:-1 9:-1 
-1 0:-0.165393 1:0.508537 2:-0.453651 3:-0.672606 4:0.205533 5:-1 6:-1 7:-1 8:-1 9:-1 
-1 0:-0.176544 1:0.618079 2:-0.514975 3:-0.677838 4:0.205533 5:-1 6:-1 7:-1 8:-1 9:-1 
-1 0:-0.100207 1:0.508537 2:-0.387808 3:-0.677838 4:0.0818414 5:-1 6:-1 7:-1 8:-1 9:-1 
1 0:-0.177265 1:0.50102 2:-0.54877 3:-0.663209 4:0.18039 5:-1 6:-1 7:-1 8:-1 9:-1 
1 0:-0.161023 1:0.507994 2:-0.44794 3:-0.622274 4:0.18039 5:-1 6:-1 7:-1 8:-1 9:-1 
1 0:-0.177265 1:0.50102 2:-0.418337 3:-0.674197 4:0.191103 5:-1 6:-1 7:-1 8:-1 9:-1 
-1 0:-0.141025 1:0.436795 2:-0.466193 3:-0.712713 4:0.235776 5:-1 6:-1 7:-1 8:-1 9:-1 
1 0:-0.177265 1:0.553898 2:-0.54877 3:-0.663209 4:0.151401 5:-1 6:-1 7:-1 8:-1 9:-1 
1 0:-0.177265 1:0.50102 2:-0.438274 3:-0.673906 4:0.199377 5:-1 6:-1 7:-1 8:-1 9:-1 
1 0:-0.177265 1:0.553898 2:-0.418337 3:-0.673906 4:0.128021 5:-1 6:-1 7:-1 8:-1 9:-1 
1 0:-0.153411 1:0.547765 2:-0.451797 3:-0.669591 4:0.199377 5:-1 6:-1 7:-1 8:-1 9:-1 
1 0:-0.124425 1:0.529338 2:-0.432202 3:-0.681928 4:0.0885817 5:-1 6:-1 7:-1 8:-1 9:-1 
1 0:-0.124425 1:0.529338 2:-0.432202 3:-0.669591 4:0.151738 5:-1 6:-1 7:-1 8:-1 9:-1 
-1 0:-0.131133 1:0.531168 2:-0.458042 3:-0.647513 4:0.142565 5:-1 6:-1 7:-1 8:-1 9:-1 
1 0:-0.182457 1:0.53799 2:-0.476449 3:-0.669451 4:0.13312 5:-1 6:-1 7:-1 8:-1 9:-1 
1 0:-0.170334 1:0.531168 2:-0.413974 3:-0.648645 4:0.13312 5:-1 6:-1 7:-1 8:-1 9:-1 
1 0:-0.179437 1:0.53799 2:-0.476449 3:-0.647513 4:0.172811 5:-1 6:-1 7:-1 8:-1 9:-1 
1 0:-0.182457 1:0.505295 2:-0.476449 3:-0.669451 4:0.172811 5:-1 6:-1 7:-1 8:-1 9:-1 
1 0:-0.182457 1:0.542716 2:-0.476449 3:-0.669451 4:0.199377 5:-1 6:-1 7:-1 8:-1 9:-1 
1 0:-0.131133 1:0.50636 2:-0.414737 3:-0.648645 4:0.150001 5:-1 6:-1 7:-1 8:-1 9:-1 
1 0:-0.114518 1:0.531168 2:-0.478966 3:-0.660805 4:0.14359 5:-1 6:-1 7:-1 8:-1 9:-1 
1 0:-0.170334 1:0.555222 2:-0.476449 3:-0.647513 4:0.172811 5:-1 6:-1 7:-1 8:-1 9:-1 
1 0:-0.131133 1:0.50636 2:-0.414737 3:-0.660805 4:0.150001 5:-1 6:-1 7:-1 8:-1 9:-1 
1 0:-0.201841 1:0.53799 2:-0.458042 3:-0.648645 4:0.172811 5:-1 6:-1 7:-1 8:-1 9:-1 
1 0:-0.179437 1:0.489497 2:-0.423771 3:-0.648645 4:0.150001 5:-1 6:-1 7:-1 8:-1 9:-1 
1 0:-0.170334 1:0.50636 2:-0.476449 3:-0.669451 4:0.13312 5:-1 6:-1 7:-1 8:-1 9:-1 
1 0:-0.186676 1:0.526315 2:-0.41288 3:-0.648542 4:0.105767 5:-1 6:-1 7:-1 8:-1 9:-1 
1 0:-0.170162 1:0.540112 2:-0.351865 3:-0.660202 4:0.19285 5:-1 6:-1 7:-1 8:-1 9:-1 
1 0:-0.201638 1:0.500911 2:-0.411926 3:-0.660202 4:0.150969 5:-1 6:-1 7:-1 8:-1 9:-1 
1 0:-0.160974 1:0.493127 2:-0.478764 3:-0.660202 4:0.137223 5:-1 6:-1 7:-1 8:-1 9:-1 
1 0:-0.119669 1:0.522942 2:-0.383244 3:-0.651263 4:0.199377 5:-1 6:-1 7:-1 8:-1 9:-1 
1 0:-0.123932 1:0.528622 2:-0.383244 3:-0.644548 4:0.181121 5:-1 6:-1 7:-1 8:-1 9:-1 
1 0:-0.104462 1:0.548137 2:-0.434667 3:-0.65642 4:0.181121 5:-1 6:-1 7:-1 8:-1 9:-1 
1 0:-0.123932 1:0.501772 2:-0.434667 3:-0.65642 4:0.199377 5:-1 6:-1 7:-1 8:-1 9:-1 
1 0:-0.123932 1:0.530638 2:-0.406019 3:-0.651263 4:0.199377 5:-1 6:-1 7:-1 8:-1 9:-1 
1 0:-0.157405 1:0.541452 2:-0.398999 3:-0.65642 4:0.181121 5:-1 6:-1 7:-1 8:-1 9:-1 
1 0:-0.168886 1:0.549871 2:-0.383244 3:-0.651263 4:0.179976 5:-1 6:-1 7:-1 8:-1 9:-1 
1 0:-0.149859 1:0.514301 2:-0.398999 3:-0.644548 4:0.179976 5:-1 6:-1 7:-1 8:-1 9:-1 
1 0:-0.119669 1:0.561766 2:-0.396663 3:-0.644548 4:0.181121 5:-1 6:-1 7:-1 8:-1 9:-1 
1 0:-0.168886 1:0.551345 2:-0.410151 3:-0.643868 4:0.186299 5:-1 6:-1 7:-1 8:-1 9:-1 
1 0:-0.104462 1:0.549871 2:-0.383244 3:-0.65642 4:0.181121 5:-1 6:-1 7:-1 8:-1 9:-1 
1 0:-0.104433 1:0.507463 2:-0.385612 3:-0.681239 4:0.173111 5:-1 6:-1 7:-1 8:-1 9:-1 
1 0:-0.104433 1:0.507034 2:-0.455169 3:-0.665944 4:0.236049 5:-1 6:-1 7:-1 8:-1 9:-1 
1 0:-0.107062 1:0.531525 2:-0.40017 3:-0.660675 4:0.233729 5:-1 6:-1 7:-1 8:-1 9:-1 
1 0:-0.0662219 1:0.56077 2:-0.385612 3:-0.681239 4:0.185245 5:-1 6:-1 7:-1 8:-1 9:-1 
1 0:-0.107062 1:0.507463 2:-0.385612 3:-0.653196 4:0.233729 5:-1 6:-1 7:-1 8:-1 9:-1 
1 0:-0.207405 1:0.531525 2:-0.41374 3:-0.681239 4:0.185245 5:-1 6:-1 7:-1 8:-1 9:-1 
1 0:-0.136315 1:0.531525 2:-0.385612 3:-0.681239 4:0.236049 5:-1 6:-1 7:-1 8:-1 9:-1 
-1 0:-0.107062 1:0.507463 2:-0.346339 3:-0.622108 4:0.199377 5:-1 6:-1 7:-1 8:-1 9:-1 
1 0:-0.107062 1:0.507463 2:-0.423299 3:-0.653196 4:0.198356 5:-1 6:-1 7:-1 8:-1 9:-1 
1 0:-0.107062 1:0.507463 2:-0.423299 3:-0.653196 4:0.233729 5:-1 6:-1 7:-1 8:-1 9:-1 
1 0:-0.104433 1:0.509856 2:-0.484513 3:-0.660675 4:0.173111 5:-1 6:-1 7:-1 8:-1 9:-1 
1 0:-0.107147 1:0.531525 2:-0.385612 3:-0.660675 4:0.173111 5:-1 6:-1 7:-1 8:-1 9:-1 
1 0:-0.178542 1:0.509856 2:-0.423299 3:-0.645173 4:0.199377 5:-1 6:-1 7:-1 8:-1 9:-1 
1 0:-0.107062 1:0.507463 2:-0.452001 3:-0.645173 4:0.185245 5:-1 6:-1 7:-1 8:-1 9:-1 
1 0:-0.178124 1:0.541187 2:-0.330145 3:-0.698021 4:0.170455 5:-1 6:-1 7:-1 8:-1 9:-1 
1 0:-0.178124 1:0.541187 2:-0.384828 3:-0.67714 4:0.248315 5:-1 6:-1 7:-1 8:-1 9:-1 
1 0:-0.178124 1:0.516188 2:-0.441876 3:-0.672465 4:0.155585 5:-1 6:-1 7:-1 8:-1 9:-1 
1 0:-0.107413 1:0.541581 2:-0.43487 3:-0.671346 4:0.248315 5:-1 6:-1 7:-1 8:-1 9:-1 
1 0:-0.178124 1:0.560571 2:-0.493126 3:-0.671346 4:0.170455 5:-1 6:-1 7:-1 8:-1 9:-1 
1 0:-0.166379 1:0.541187 2:-0.40998 3:-0.672465 4:0.155585 5:-1 6:-1 7:-1 8:-1 9:-1 
1 0:-0.107413 1:0.53659 2:-0.441876 3:-0.671346 4:0.171371 5:-1 6:-1 7:-1 8:-1 9:-1 
1 0:-0.139273 1:0.516188 2:-0.415573 3:-0.671346 4:0.248315 5:-1 6:-1 7:-1 8:-1 9:-1 
1 0:-0.132643 1:0.517499 2:-0.50729 3:-0.671346 4:0.170455 5:-1 6:-1 7:-1 8:-1 9:-1 
-1 0:-0.192105 1:0.522158 2:-0.417022 3:-0.679515 4:0.0692798 5:-1 6:-1 7:-1 8:-1 9:-1 
-1 0:-0.192105 1:0.486078 2:-0.472751 3:-0.63815 4:0.0881536 5:-1 6:-1 7:-1 8:-1 9:-1 
1 0:-0.095417 1:0.486078 2:-0.417022 3:-0.679515 4:0.103806 5:-1 6:-1 7:-1 8:-1 9:-1 
-1 0:-0.192105 1:0.486078 2:-0.417022 3:-0.68999 4:0.0881536 5:-1 6:-1 7:-1 8:-1 9:-1 
-1 0:-0.114137 1:0.505525 2:-0.454156 3:-0.668903 4:0.191192 5:-1 6:-1 7:-1 8:-1 9:-1 
-1 0:-0.180546 1:0.508228 2:-0.475995 3:-0.657715 4:0.124137 5:-1 6:-1 7:-1 8:-1 9:-1 
-1 0:-0.180546 1:0.548731 2:-0.468015 3:-0.649557 4:0.159578 5:-1 6:-1 7:-1 8:-1 9:-1 
-1 0:-0.152895 1:0.505525 2:-0.448461 3:-0.638046 4:0.11695 5:-1 6:-1 7:-1 8:-1 9:-1 
-1 0:-0.176954 1:0.553973 2:-0.408368 3:-0.69059 4:0.159578 5:-1 6:-1 7:-1 8:-1 9:-1 
-1 0:-0.149128 1:0.548731 2:-0.446166 3:-0.669422 4:0.17786 5:-1 6:-1 7:-1 8:-1 9:-1 
-1 0:-0.152895 1:0.55551 2:-0.446166 3:-0.638046 4:0.17786 5:-1 6:-1 7:-1 8:-1 9:-1 
-1 0:-0.123142 1:0.569741 2:-0.408368 3:-0.649557 4:0.159578 5:-1 6:-1 7:-1 8:-1 9:-1 
-1 0:-0.114137 1:0.508228 2:-0.446166 3:-0.657715 4:0.11695 5:-1 6:-1 7:-1 8:-1 9:-1 
1 0:-0.114137 1:0.505525 2:-0.454156 3:-0.638046 4:0.199377 5:-1 6:-1 7:-1 8:-1 9:-1 
-1 0:-0.114137 1:0.505525 2:-0.400509 3:-0.657715 4:0.124137 5:-1 6:-1 7:-1 8:-1 9:-1 
1 0:-0.114137 1:0.526337 2:-0.400509 3:-0.69059 4:0.191192 5:-1 6:-1 7:-1 8:-1 9:-1 
-1 0:-0.190688 1:0.517208 2:-0.510217 3:-0.682443 4:0.102685 5:-1 6:-1 7:-1 8:-1 9:-1 
1 0:-0.112841 1:0.520815 2:-0.510217 3:-0.688061 4:0.149039 5:-1 6:-1 7:-1 8:-1 9:-1 
-1 0:-0.163124 1:0.479326 2:-0.39024 3:-0.685198 4:0.102685 5:-1 6:-1 7:-1 8:-1 9:-1 
-1 0:-0.163124 1:0.479326 2:-0.510217 3:-0.688061 4:0.102685 5:-1 6:-1 7:-1 8:-1 9:-1 
-1 0:-0.160232 1:0.479326 2:-0.453234 3:-0.685198 4:0.102685 5:-1 6:-1 7:-1 8:-1 9:-1 
-1 0:-0.160232 1:0.497891 2:-0.453234 3:-0.713849 4:0.177997 5:-1 6:-1 7:-1 8:-1 9:-1 
-1 0:-0.130874 1:0.479782 2:-0.453234 3:-0.658565 4:0.0444276 5:-1 6:-1 7:-1 8:-1 9:-1 
-1 0:-0.160232 1:0.517208 2:-0.556514 3:-0.682443 4:0.102685 5:-1 6:-1 7:-1 8:-1 9:-1 
1 0:-0.112841 1:0.518638 2:-0.510217 3:-0.657632 4:0.128269 5:-1 6:-1 7:-1 8:-1 9:-1 
1 0:-0.188604 1:0.55032 2:-0.450821 3:-0.628993 4:0.198539 5:-1 6:-1 7:-1 8:-1 9:-1 
1 0:-0.188604 1:0.524593 2:-0.465736 3:-0.664152 4:0.199377 5:-1 6:-1 7:-1 8:-1 9:-1 
1 0:-0.188604 1:0.523902 2:-0.450821 3:-0.645061 4:0.224797 5:-1 6:-1 7:-1 8:-1 9:-1 
1 0:-0.15613 1:0.510746 2:-0.420048 3:-0.700389 4:0.185054 5:-1 6:-1 7:-1 8:-1 9:-1 
1 0:-0.142741 1:0.499486 2:-0.434275 3:-0.653313 4:0.198539 5:-1 6:-1 7:-1 8:-1 9:-1 
1 0:-0.0787525 1:0.510746 2:-0.465736 3:-0.671993 4:0.198539 5:-1 6:-1 7:-1 8:-1 9:-1 
1 0:-0.0787525 1:0.55032 2:-0.485796 3:-0.660196 4:0.185054 5:-1 6:-1 7:-1 8:-1 9:-1 
1 0:-0.188604 1:0.524593 2:-0.434275 3:-0.671509 4:0.186834 5:-1 6:-1 7:-1 8:-1 9:-1 
1 0:-0.188604 1:0.523902 2:-0.485796 3:-0.661111 4:0.171851 5:-1 6:-1 7:-1 8:-1 9:-1 
1 0:-0.188604 1:0.55032 2:-0.41453 3:-0.664152 4:0.171851 5:-1 6:-1 7:-1 8:-1 9:-1 
1 0:-0.137206 1:0.499486 2:-0.415041 3:-0.645061 4:0.173806 5:-1 6:-1 7:-1 8:-1 9:-1 
1 0:-0.121032 1:0.48434 2:-0.434275 3:-0.660196 4:0.185054 5:-1 6:-1 7:-1 8:-1 9:-1 
1 0:-0.0787525 1:0.55032 2:-0.450821 3:-0.645061 4:0.156143 5:-1 6:-1 7:-1 8:-1 9:-1 
1 0:-0.155212 1:0.538146 2:-0.465736 3:-0.645061 4:0.185054 5:-1 6:-1 7:-1 8:-1 9:-1 
1 0:-0.15613 1:0.538146 2:-0.465736 3:-0.664152 4:0.198539 5:-1 6:-1 7:-1 8:-1 9:-1 
1 0:-0.188604 1:0.55032 2:-0.485796 3:-0.671993 4:0.171851 5:-1 6:-1 7:-1 8:-1 9:-1 
1 0:-0.188604 1:0.55032 2:-0.41453 3:-0.661392 4:0.185054 5:-1 6:-1 7:-1 8:-1 9:-1 
1 0:-0.132315 1:0.518637 2:-0.378145 3:-0.657795 4:0.199377 5:-1 6:-1 7:-1 8:-1 9:-1 
-1 0:-0.241141 1:0.522887 2:-0.371865 3:-0.687029 4:0.176703 5:-1 6:-1 7:-1 8:-1 9:-1 
1 0:-0.157478 1:0.541827 2:-0.431214 3:-0.687029 4:0.205082 5:-1 6:-1 7:-1 8:-1 9:-1 
1 0:-0.172558 1:0.570358 2:-0.3933 3:-0.671201 4:0.157284 5:-1 6:-1 7:-1 8:-1 9:-1 
1 0:-0.163125 1:0.502642 2:-0.432836 3:-0.643229 4:0.177729 5:-1 6:-1 7:-1 8:-1 9:-1 
-1 0:-0.241141 1:0.511537 2:-0.43474 3:-0.641057 4:0.146772 5:-1 6:-1 7:-1 8:-1 9:-1 
1 0:-0.132315 1:0.570358 2:-0.461555 3:-0.671142 4:0.149038 5:-1 6:-1 7:-1 8:-1 9:-1 
1 0:-0.241141 1:0.522887 2:-0.371865 3:-0.641057 4:0.199377 5:-1 6:-1 7:-1 8:-1 9:-1 
-1 0:-0.148914 1:0.533452 2:-0.4181 3:-0.68138 4:0.121454 5:-1 6:-1 7:-1 8:-1 9:-1 
-1 0:-0.148914 1:0.59612 2:-0.470994 3:-0.662911 4:0.169095 5:-1 6:-1 7:-1 8:-1 9:-1 
-1 0:-0.148914 1:0.533452 2:-0.422596 3:-0.692231 4:0.117613 5:-1 6:-1 7:-1 8:-1 9:-1 
-1 0:-0.174096 1:0.533452 2:-0.422596 3:-0.71142 4:0.169095 5:-1 6:-1 7:-1 8:-1 9:-1 
-1 0:-0.148914 1:0.533452 2:-0.414123 3:-0.71142 4:0.169095 5:-1 6:-1 7:-1 8:-1 9:-1 
-1 0:-0.060182 1:0.538453 2:-0.47261 3:-0.654099 4:0.169095 5:-1 6:-1 7:-1 8:-1 9:-1 
-1 0:-0.143443 1:0.532056 2:-0.47261 3:-0.654099 4:0.169095 5:-1 6:-1 7:-1 8:-1 9:-1 
-1 0:-0.060182 1:0.533452 2:-0.422596 3:-0.660887 4:0.169369 5:-1 6:-1 7:-1 8:-1 9:-1 
-1 0:-0.198123 1:0.538453 2:-0.422596 3:-0.662911 4:0.199377 5:-1 6:-1 7:-1 8:-1 9:-1 
-1 0:-0.060182 1:0.492295 2:-0.422596 3:-0.662911 4:0.199377 5:-1 6:-1 7:-1 8:-1 9:-1 
-1 0:-0.060182 1:0.492295 2:-0.4181 3:-0.693122 4:0.121454 5:-1 6:-1 7:-1 8:-1 9:-1 
-1 0:-0.060182 1:0.492295 2:-0.47261 3:-0.664538 4:0.169095 5:-1 6:-1 7:-1 8:-1 9:-1 
-1 0:-0.060182 1:0.492295 2:-0.414123 3:-0.68138 4:0.169369 5:-1 6:-1 7:-1 8:-1 9:-1 
-1 0:-0.060182 1:0.533452 2:-0.47261 3:-0.656368 4:0.169095 5:-1 6:-1 7:-1 8:-1 9:-1 
-1 0:-0.127175 1:0.480152 2:-0.386304 3:-0.644548 4:0.0990087 5:-1 6:-1 7:-1 8:-1 9:-1 
1 0:-0.270935 1:0.559456 2:-0.488367 3:-0.691144 4:0.0990087 5:-1 6:-1 7:-1 8:-1 9:-1 
1 0:-0.214205 1:0.437491 2:-0.36527 3:-0.685139 4:0.199377 5:-1 6:-1 7:-1 8:-1 9:-1 
1 0:-0.211846 1:0.500683 2:-0.547848 3:-0.701806 4:0.123231 5:-1 6:-1 7:-1 8:-1 9:-1 
-1 0:-0.211846 1:0.545696 2:-0.46415 3:-0.644548 4:0.105807 5:-1 6:-1 7:-1 8:-1 9:-1 
1 0:-0.186979 1:0.437491 2:-0.384479 3:-0.691144 4:0.148181 5:-1 6:-1 7:-1 8:-1 9:-1 
-1 0:-0.127175 1:0.505231 2:-0.386304 3:-0.687772 4:0.0990087 5:-1 6:-1 7:-1 8:-1 9:-1 
1 0:-0.127175 1:0.500683 2:-0.547848 3:-0.701806 4:0.197733 5:-1 6:-1 7:-1 8:-1 9:-1 
1 0:-0.214205 1:0.437491 2:-0.386304 3:-0.644548 4:0.0990087 5:-1 6:-1 7:-1 8:-1 9:-1 
-1 0:-0.211314 1:0.535015 2:-0.439284 3:-0.737062 4:0.172532 5:-1 6:-1 7:-1 8:-1 9:-1 
-1 0:-0.129436 1:0.506878 2:-0.48841 3:-0.703313 4:0.123347 5:-1 6:-1 7:-1 8:-1 9:-1 
-1 0:-0.174559 1:0.535015 2:-0.473797 3:-0.703313 4:0.14516 5:-1 6:-1 7:-1 8:-1 9:-1 
-1 0:-0.174559 1:0.538331 2:-0.481024 3:-0.663396 4:0.123347 5:-1 6:-1 7:-1 8:-1 9:-1 
-1 0:-0.211314 1:0.4934 2:-0.316577 3:-0.737062 4:0.123347 5:-1 6:-1 7:-1 8:-1 9:-1 
-1 0:-0.196655 1:0.508485 2:-0.444675 3:-0.644548 4:0.199377 5:-1 6:-1 7:-1 8:-1 9:-1 
-1 0:-0.214013 1:0.519456 2:-0.552334 3:-0.682763 4:0.14516 5:-1 6:-1 7:-1 8:-1 9:-1 
-1 0:-0.174559 1:0.535015 2:-0.406784 3:-0.607124 4:0.199377 5:-1 6:-1 7:-1 8:-1 9:-1 
-1 0:-0.174559 1:0.535015 2:-0.48841 3:-0.737062 4:0.103344 5:-1 6:-1 7:-1 8:-1 9:-1 
-1 0:-0.174559 1:0.6121 2:-0.552334 3:-0.677725 4:0.123347 5:-1 6:-1 7:-1 8:-1 9:-1 
-1 0:-0.129436 1:0.535015 2:-0.439284 3:-0.677725 4:0.123347 5:-1 6:-1 7:-1 8:-1 9:-1 
-1 0:-0.174559 1:0.4934 2:-0.48841 3:-0.674754 4:0.14516 5:-1 6:-1 7:-1 8:-1 9:-1 
-1 0:-0.174559 1:0.538331 2:-0.439284 3:-0.677725 4:0.260535 5:-1 6:-1 7:-1 8:-1 9:-1 
1 0:-0.192672 1:0.546855 2:-0.41112 3:-0.691049 4:0.109193 5:-1 6:-1 7:-1 8:-1 9:-1 
1 0:-0.104919 1:0.581337 2:-0.508195 3:-0.691049 4:0.109193 5:-1 6:-1 7:-1 8:-1 9:-1 
1 0:-0.104919 1:0.519805 2:-0.442386 3:-0.667754 4:0.109193 5:-1 6:-1 7:-1 8:-1 9:-1 
1 0:-0.194784 1:0.488178 2:-0.402995 3:-0.712735 4:0.147221 5:-1 6:-1 7:-1 8:-1 9:-1 
1 0:-0.161574 1:0.546855 2:-0.480712 3:-0.629581 4:0.109193 5:-1 6:-1 7:-1 8:-1 9:-1 
1 0:-0.192672 1:0.53762 2:-0.480712 3:-0.629581 4:0.199377 5:-1 6:-1 7:-1 8:-1 9:-1 
1 0:-0.192672 1:0.488178 2:-0.426583 3:-0.6745 4:0.109193 5:-1 6:-1 7:-1 8:-1 9:-1 
1 0:-0.137905 1:0.519805 2:-0.41112 3:-0.712735 4:0.201302 5:-1 6:-1 7:-1 8:-1 9:-1 
1 0:-0.192672 1:0.488178 2:-0.41112 3:-0.712735 4:0.15043 5:-1 6:-1 7:-1 8:-1 9:-1 
1 0:-0.213045 1:0.540721 2:-0.426583 3:-0.691049 4:0.109193 5:-1 6:-1 7:-1 8:-1 9:-1 
1 0:-0.192672 1:0.546855 2:-0.484608 3:-0.691049 4:0.147221 5:-1 6:-1 7:-1 8:-1 9:-1 
1 0:-0.194784 1:0.53762 2:-0.438823 3:-0.654753 4:0.147221 5:-1 6:-1 7:-1 8:-1 9:-1 
1 0:-0.192672 1:0.540721 2:-0.402995 3:-0.699734 4:0.147221 5:-1 6:-1 7:-1 8:-1 9:-1 
1 0:-0.192672 1:0.494808 2:-0.402995 3:-0.712735 4:0.123386 5:-1 6:-1 7:-1 8:-1 9:-1 
1 0:-0.192672 1:0.540721 2:-0.426583 3:-0.691049 4:0.109193 5:-1 6:-1 7:-1 8:-1 9:-1 
1 0:-0.194784 1:0.562448 2:-0.480712 3:-0.654753 4:0.109193 5:-1 6:-1 7:-1 8:-1 9:-1 
1 0:-0.161348 1:0.505171 2:-0.467599 3:-0.692995 4:0.104297 5:-1 6:-1 7:-1 8:-1 9:-1 
-1 0:-0.160491 1:0.497296 2:-0.481378 3:-0.685183 4:0.0281333 5:-1 6:-1 7:-1 8:-1 9:-1 
1 0:-0.189254 1:0.481761 2:-0.481378 3:-0.69036 4:0.104297 5:-1 6:-1 7:-1 8:-1 9:-1 
1 0:-0.190438 1:0.52062 2:-0.509916 3:-0.666993 4:0.0281333 5:-1 6:-1 7:-1 8:-1 9:-1 
1 0:-0.147911 1:0.498079 2:-0.466418 3:-0.685183 4:0.104297 5:-1 6:-1 7:-1 8:-1 9:-1 
1 0:-0.161348 1:0.498079 2:-0.490043 3:-0.685183 4:0.0281333 5:-1 6:-1 7:-1 8:-1 9:-1 
1 0:-0.232886 1:0.498079 2:-0.473669 3:-0.690931 4:0.0281333 5:-1 6:-1 7:-1 8:-1 9:-1 
-1 0:-0.151767 1:0.557106 2:-0.424603 3:-0.651006 4:0.197293 5:-1 6:-1 7:-1 8:-1 9:-1 
-1 0:-0.17254 1:0.547121 2:-0.458583 3:-0.651006 4:0.106962 5:-1 6:-1 7:-1 8:-1 9:-1 
-1 0:-0.109383 1:0.557106 2:-0.458583 3:-0.651006 4:0.136702 5:-1 6:-1 7:-1 8:-1 9:-1 
-1 0:-0.112016 1:0.51155 2:-0.421108 3:-0.685391 4:0.183018 5:-1 6:-1 7:-1 8:-1 9:-1 
-1 0:-0.17254 1:0.53318 2:-0.454065 3:-0.701635 4:0.106962 5:-1 6:-1 7:-1 8:-1 9:-1 
-1 0:-0.125282 1:0.530541 2:-0.458583 3:-0.682901 4:0.106962 5:-1 6:-1 7:-1 8:-1 9:-1 
-1 0:-0.210959 1:0.504886 2:-0.396196 3:-0.648499 4:0.138172 5:-1 6:-1 7:-1 8:-1 9:-1 
-1 0:-0.17254 1:0.509529 2:-0.396196 3:-0.648499 4:0.106962 5:-1 6:-1 7:-1 8:-1 9:-1 
-1 0:-0.151767 1:0.53318 2:-0.454065 3:-0.701635 4:0.138172 5:-1 6:-1 7:-1 8:-1 9:-1 
-1 0:-0.109383 1:0.53318 2:-0.424603 3:-0.648499 4:0.159236 5:-1 6:-1 7:-1 8:-1 9:-1 
-1 0:-0.17254 1:0.527186 2:-0.424603 3:-0.682901 4:0.106087 5:-1 6:-1 7:-1 8:-1 9:-1 
-1 0:-0.209984 1:0.53318 2:-0.396196 3:-0.701635 4:0.136702 5:-1 6:-1 7:-1 8:-1 9:-1 
-1 0:-0.17254 1:0.559087 2:-0.391647 3:-0.701635 4:0.138172 5:-1 6:-1 7:-1 8:-1 9:-1 
-1 0:-0.17254 1:0.527186 2:-0.391647 3:-0.701635 4:0.197293 5:-1 6:-1 7:-1 8:-1 9:-1 
-1 0:-0.125282 1:0.559087 2:-0.458583 3:-0.651006 4:0.192921 5:-1 6:-1 7:-1 8:-1 9:-1 
-1 0:-0.156011 1:0.465645 2:-0.41878 3:-0.702456 4:0.139159 5:-1 6:-1 7:-1 8:-1 9:-1 
1 0:-0.116622 1:0.568703 2:-0.510558 3:-0.692223 4:0.125552 5:-1 6:-1 7:-1 8:-1 9:-1 
1 0:-0.116622 1:0.523992 2:-0.449869 3:-0.689724 4:0.168483 5:-1 6:-1 7:-1 8:-1 9:-1 
1 0:-0.156011 1:0.481509 2:-0.483008 3:-0.689724 4:0.190793 5:-1 6:-1 7:-1 8:-1 9:-1 
1 0:-0.116622 1:0.534937 2:-0.418527 3:-0.646015 4:0.191585 5:-1 6:-1 7:-1 8:-1 9:-1 
1 0:-0.174127 1:0.511465 2:-0.418527 3:-0.689724 4:0.190793 5:-1 6:-1 7:-1 8:-1 9:-1 
1 0:-0.0894731 1:0.553639 2:-0.374057 3:-0.663314 4:0.191585 5:-1 6:-1 7:-1 8:-1 9:-1 
1 0:-0.0894731 1:0.553639 2:-0.41878 3:-0.689724 4:0.19698 5:-1 6:-1 7:-1 8:-1 9:-1 
-1 0:-0.129897 1:0.560834 2:-0.406327 3:-0.65573 4:0.199377 5:-1 6:-1 7:-1 8:-1 9:-1 
-1 0:-0.240494 1:0.543647 2:-0.384479 3:-0.658304 4:0.143223 5:-1 6:-1 7:-1 8:-1 9:-1 
-1 0:-0.128978 1:0.510518 2:-0.384479 3:-0.656534 4:0.181104 5:-1 6:-1 7:-1 8:-1 9:-1 
-1 0:-0.240494 1:0.549773 2:-0.409438 3:-0.656534 4:0.149746 5:-1 6:-1 7:-1 8:-1 9:-1 
-1 0:-0.129897 1:0.544339 2:-0.402344 3:-0.658304 4:0.149746 5:-1 6:-1 7:-1 8:-1 9:-1 
-1 0:-0.129897 1:0.544339 2:-0.451123 3:-0.674919 4:0.198005 5:-1 6:-1 7:-1 8:-1 9:-1 
1 0:-0.169601 1:0.560834 2:-0.406327 3:-0.716507 4:0.176184 5:-1 6:-1 7:-1 8:-1 9:-1 
-1 0:-0.240494 1:0.543647 2:-0.446825 3:-0.674919 4:0.199377 5:-1 6:-1 7:-1 8:-1 9:-1 
-1 0:-0.11837 1:0.506056 2:-0.423131 3:-0.704075 4:0.130128 5:-1 6:-1 7:-1 8:-1 9:-1 
-1 0:-0.179841 1:0.490082 2:-0.398814 3:-0.672393 4:0.189224 5:-1 6:-1 7:-1 8:-1 9:-1 
-1 0:-0.184184 1:0.531652 2:-0.497628 3:-0.652449 4:0.173728 5:-1 6:-1 7:-1 8:-1 9:-1 
-1 0:-0.11837 1:0.479291 2:-0.435434 3:-0.659667 4:0.173728 5:-1 6:-1 7:-1 8:-1 9:-1 
-1 0:-0.179841 1:0.531652 2:-0.497628 3:-0.698552 4:0.17467 5:-1 6:-1 7:-1 8:-1 9:-1 
-1 0:-0.179841 1:0.490082 2:-0.435434 3:-0.698552 4:0.189224 5:-1 6:-1 7:-1 8:-1 9:-1 
-1 0:-0.179841 1:0.490082 2:-0.398814 3:-0.676291 4:0.173728 5:-1 6:-1 7:-1 8:-1 9:-1 
-1 0:-0.179841 1:0.493932 2:-0.497628 3:-0.650761 4:0.111126 5:-1 6:-1 7:-1 8:-1 9:-1 
-1 0:-0.179841 1:0.552323 2:-0.482462 3:-0.659667 4:0.173728 5:-1 6:-1 7:-1 8:-1 9:-1 
1 0:-0.174878 1:0.490068 2:-0.398833 3:-0.650791 4:0.180401 5:-1 6:-1 7:-1 8:-1 9:-1 
1 0:-0.201082 1:0.572274 2:-0.515921 3:-0.650791 4:0.199377 5:-1 6:-1 7:-1 8:-1 9:-1 
1 0:-0.174878 1:0.562262 2:-0.47821 3:-0.636197 4:0.204658 5:-1 6:-1 7:-1 8:-1 9:-1 
1 0:-0.12692 1:0.490068 2:-0.369327 3:-0.652459 4:0.164658 5:-1 6:-1 7:-1 8:-1 9:-1 
1 0:-0.101181 1:0.545888 2:-0.398833 3:-0.687138 4:0.180401 5:-1 6:-1 7:-1 8:-1 9:-1 
1 0:-0.184575 1:0.562262 2:-0.47821 3:-0.65616 4:0.189175 5:-1 6:-1 7:-1 8:-1 9:-1 
1 0:-0.174878 1:0.490068 2:-0.378616 3:-0.665794 4:0.180401 5:-1 6:-1 7:-1 8:-1 9:-1 
1 0:-0.162189 1:0.545888 2:-0.423027 3:-0.650791 4:0.0809897 5:-1 6:-1 7:-1 8:-1 9:-1 
1 0:-0.174878 1:0.490068 2:-0.369327 3:-0.665794 4:0.186095 5:-1 6:-1 7:-1 8:-1 9:-1 
1 0:-0.141818 1:0.549701 2:-0.369327 3:-0.652459 4:0.189175 5:-1 6:-1 7:-1 8:-1 9:-1 
-1 0:-0.162189 1:0.562262 2:-0.47821 3:-0.716993 4:0.189175 5:-1 6:-1 7:-1 8:-1 9:-1 
1 0:-0.141818 1:0.549701 2:-0.404276 3:-0.641317 4:0.149878 5:-1 6:-1 7:-1 8:-1 9:-1 
1 0:-0.174878 1:0.545888 2:-0.395807 3:-0.652459 4:0.129778 5:-1 6:-1 7:-1 8:-1 9:-1 
1 0:-0.105165 1:0.544927 2:-0.423027 3:-0.641317 4:0.186449 5:-1 6:-1 7:-1 8:-1 9:-1 
1 0:-0.105165 1:0.552282 2:-0.515921 3:-0.665794 4:0.186449 5:-1 6:-1 7:-1 8:-1 9:-1 
1 0:-0.12692 1:0.531731 2:-0.398833 3:-0.687138 4:0.0809897 5:-1 6:-1 7:-1 8:-1 9:-1 
1 0:-0.141818 1:0.519342 2:-0.405548 3:-0.650791 4:0.186095 5:-1 6:-1 7:-1 8:-1 9:-1 
1 0:-0.162189 1:0.544927 2:-0.369327 3:-0.716993 4:0.138485 5:-1 6:-1 7:-1 8:-1 9:-1 
1 0:-0.162189 1:0.562262 2:-0.404276 3:-0.665794 4:0.186095 5:-1 6:-1 7:-1 8:-1 9:-1 
1 0:-0.142681 1:0.529846 2:-0.469895 3:-0.693227 4:0.199377 5:-1 6:-1 7:-1 8:-1 9:-1 
1 0:-0.1487 1:0.48665 2:-0.569309 3:-0.710119 4:0.119828 5:-1 6:-1 7:-1 8:-1 9:-1 
-1 0:-0.206434 1:0.515556 2:-0.503449 3:-0.698703 4:0.167394 5:-1 6:-1 7:-1 8:-1 9:-1 
1 0:-0.12131 1:0.534025 2:-0.44445 3:-0.698703 4:0.119828 5:-1 6:-1 7:-1 8:-1 9:-1 
1 0:-0.184158 1:0.486039 2:-0.419988 3:-0.689256 4:0.119828 5:-1 6:-1 7:-1 8:-1 9:-1 
1 0:-0.12131 1:0.486039 2:-0.482736 3:-0.67807 4:0.252518 5:-1 6:-1 7:-1 8:-1 9:-1 
-1 0:-0.206434 1:0.529846 2:-0.569309 3:-0.677602 4:0.144597 5:-1 6:-1 7:-1 8:-1 9:-1 
-1 0:-0.114956 1:0.350836 2:-0.410887 3:-0.674057 4:0.199377 5:-1 6:-1 7:-1 8:-1 9:-1 
-1 0:-0.386064 1:0.49984 2:-0.471262 3:-0.695975 4:0.117898 5:-1 6:-1 7:-1 8:-1 9:-1 
-1 0:-0.133552 1:0.553118 2:-0.471262 3:-0.695975 4:0.221294 5:-1 6:-1 7:-1 8:-1 9:-1 
1 0:-0.06953 1:0.566781 2:-0.334601 3:-0.672059 4:0.180158 5:-1 6:-1 7:-1 8:-1 9:-1 
1 0:-0.16204 1:0.593819 2:-0.462291 3:-0.617058 4:0.139464 5:-1 6:-1 7:-1 8:-1 9:-1 
-1 0:-0.19759 1:0.502086 2:-0.43788 3:-0.68121 4:0.187547 5:-1 6:-1 7:-1 8:-1 9:-1 
-1 0:-0.0749918 1:0.570725 2:-0.43788 3:-0.681359 4:0.199377 5:-1 6:-1 7:-1 8:-1 9:-1 
-1 0:-0.0749918 1:0.550917 2:-0.462291 3:-0.637328 4:0.238727 5:-1 6:-1 7:-1 8:-1 9:-1 
1 0:-0.16204 1:0.584973 2:-0.462291 3:-0.68121 4:0.244301 5:-1 6:-1 7:-1 8:-1 9:-1 
-1 0:-0.06953 1:0.502086 2:-0.43788 3:-0.681359 4:0.206471 5:-1 6:-1 7:-1 8:-1 9:-1 
-1 0:-0.185115 1:0.570725 2:-0.43788 3:-0.681359 4:0.206471 5:-1 6:-1 7:-1 8:-1 9:-1 
-1 0:-0.0749918 1:0.589084 2:-0.462291 3:-0.68121 4:0.199377 5:-1 6:-1 7:-1 8:-1 9:-1 
1 0:-0.187041 1:0.490906 2:-0.425662 3:-0.666027 4:0.14465 5:-1 6:-1 7:-1 8:-1 9:-1 
1 0:-0.187041 1:0.489465 2:-0.425662 3:-0.666027 4:0.0908868 5:-1 6:-1 7:-1 8:-1 9:-1 
1 0:-0.146895 1:0.500637 2:-0.42345 3:-0.69864 4:0.128676 5:-1 6:-1 7:-1 8:-1 9:-1 
1 0:-0.146895 1:0.532886 2:-0.425662 3:-0.666027 4:0.175138 5:-1 6:-1 7:-1 8:-1 9:-1 
1 0:-0.146895 1:0.542159 2:-0.425662 3:-0.666027 4:0.139715 5:-1 6:-1 7:-1 8:-1 9:-1 
1 0:-0.173508 1:0.489465 2:-0.42345 3:-0.69864 4:0.128676 5:-1 6:-1 7:-1 8:-1 9:-1 
-1 0:-0.187041 1:0.532886 2:-0.504932 3:-0.69864 4:0.175138 5:-1 6:-1 7:-1 8:-1 9:-1 
1 0:-0.173508 1:0.532886 2:-0.42345 3:-0.692472 4:0.175138 5:-1 6:-1 7:-1 8:-1 9:-1 
1 0:-0.181722 1:0.584993 2:-0.459945 3:-0.670645 4:0.145944 5:-1 6:-1 7:-1 8:-1 9:-1 
1 0:-0.0749655 1:0.503858 2:-0.43002 3:-0.677245 4:0.144055 5:-1 6:-1 7:-1 8:-1 9:-1 
-1 0:-0.0749655 1:0.51288 2:-0.464954 3:-0.659032 4:0.131406 5:-1 6:-1 7:-1 8:-1 9:-1 
1 0:-0.181722 1:0.4927 2:-0.431828 3:-0.677245 4:0.228181 5:-1 6:-1 7:-1 8:-1 9:-1 
1 0:-0.133422 1:0.503858 2:-0.431828 3:-0.694286 4:0.228181 5:-1 6:-1 7:-1 8:-1 9:-1 
1 0:-0.133422 1:0.500076 2:-0.459945 3:-0.677245 4:0.228181 5:-1 6:-1 7:-1 8:-1 9:-1 
1 0:-0.198449 1:0.513357 2:-0.494481 3:-0.697996 4:0.207037 5:-1 6:-1 7:-1 8:-1 9:-1 
1 0:-0.125852 1:0.487618 2:-0.47331 3:-0.672048 4:0.156243 5:-1 6:-1 7:-1 8:-1 9:-1 
1 0:-0.17014 1:0.511448 2:-0.375974 3:-0.670036 4:0.156243 5:-1 6:-1 7:-1 8:-1 9:-1 
1 0:-0.198449 1:0.484372 2:-0.449891 3:-0.672048 4:0.157726 5:-1 6:-1 7:-1 8:-1 9:-1 
1 0:-0.17014 1:0.477783 2:-0.47331 3:-0.670036 4:0.156243 5:-1 6:-1 7:-1 8:-1 9:-1 
1 0:-0.17014 1:0.487618 2:-0.47331 3:-0.672048 4:0.156243 5:-1 6:-1 7:-1 8:-1 9:-1 
1 0:-0.143134 1:0.567255 2:-0.430723 3:-0.672048 4:0.156243 5:-1 6:-1 7:-1 8:-1 9:-1 
1 0:-0.17014 1:0.491674 2:-0.47331 3:-0.670036 4:0.156243 5:-1 6:-1 7:-1 8:-1 9:-1 
1 0:-0.204336 1:0.567255 2:-0.494481 3:-0.695035 4:0.119369 5:-1 6:-1 7:-1 8:-1 9:-1 
1 0:-0.198449 1:0.533684 2:-0.476082 3:-0.693508 4:0.1003 5:-1 6:-1 7:-1 8:-1 9:-1 
1 0:-0.182529 1:0.491674 2:-0.47331 3:-0.670036 4:0.140462 5:-1 6:-1 7:-1 8:-1 9:-1 
1 0:-0.20865 1:0.491674 2:-0.432369 3:-0.672048 4:0.140462 5:-1 6:-1 7:-1 8:-1 9:-1 
1 0:-0.217404 1:0.567255 2:-0.47331 3:-0.664368 4:0.157726 5:-1 6:-1 7:-1 8:-1 9:-1 
1 0:-0.20865 1:0.487618 2:-0.47331 3:-0.672048 4:0.157726 5:-1 6:-1 7:-1 8:-1 9:-1 
1 0:-0.198449 1:0.546692 2:-0.420439 3:-0.695035 4:0.131614 5:-1 6:-1 7:-1 8:-1 9:-1 
1 0:-0.204336 1:0.533684 2:-0.449891 3:-0.672048 4:0.131614 5:-1 6:-1 7:-1 8:-1 9:-1 
1 0:-0.20865 1:0.513357 2:-0.459714 3:-0.672048 4:0.156243 5:-1 6:-1 7:-1 8:-1 9:-1 
1 0:-0.125852 1:0.484372 2:-0.476082 3:-0.639861 4:0.156243 5:-1 6:-1 7:-1 8:-1 9:-1 
1 0:-0.204336 1:0.513357 2:-0.476082 3:-0.693508 4:0.156243 5:-1 6:-1 7:-1 8:-1 9:-1 
-1 0:-0.125398 1:0.513594 2:-0.471418 3:-0.699231 4:0.108539 5:-1 6:-1 7:-1 8:-1 9:-1 
-1 0:-0.125398 1:0.475656 2:-0.471418 3:-0.653902 4:0.121594 5:-1 6:-1 7:-1 8:-1 9:-1 
-1 0:-0.121165 1:0.509966 2:-0.422001 3:-0.692465 4:0.108539 5:-1 6:-1 7:-1 8:-1 9:-1 
-1 0:-0.143243 1:0.550219 2:-0.451855 3:-0.699231 4:0.184092 5:-1 6:-1 7:-1 8:-1 9:-1 
-1 0:-0.121165 1:0.495195 2:-0.483694 3:-0.653902 4:0.138693 5:-1 6:-1 7:-1 8:-1 9:-1 
-1 0:-0.125398 1:0.526062 2:-0.483694 3:-0.653902 4:0.121594 5:-1 6:-1 7:-1 8:-1 9:-1 
-1 0:-0.22023 1:0.526062 2:-0.451855 3:-0.653902 4:0.121072 5:-1 6:-1 7:-1 8:-1 9:-1 
-1 0:-0.22023 1:0.547033 2:-0.451855 3:-0.699231 4:0.184092 5:-1 6:-1 7:-1 8:-1 9:-1 
-1 0:-0.121165 1:0.513594 2:-0.497299 3:-0.653902 4:0.110015 5:-1 6:-1 7:-1 8:-1 9:-1 
-1 0:-0.153261 1:0.509966 2:-0.466779 3:-0.653902 4:0.121594 5:-1 6:-1 7:-1 8:-1 9:-1 
-1 0:-0.143243 1:0.475656 2:-0.451855 3:-0.653902 4:0.108539 5:-1 6:-1 7:-1 8:-1 9:-1 
-1 0:-0.189617 1:0.532505 2:-0.40145 3:-0.692465 4:0.108539 5:-1 6:-1 7:-1 8:-1 9:-1 
-1 0:-0.143243 1:0.550219 2:-0.430536 3:-0.689908 4:0.110015 5:-1 6:-1 7:-1 8:-1 9:-1 
-1 0:-0.121165 1:0.495195 2:-0.40145 3:-0.700134 4:0.199377 5:-1 6:-1 7:-1 8:-1 9:-1 
-1 0:-0.153261 1:0.509966 2:-0.447049 3:-0.692465 4:0.121594 5:-1 6:-1 7:-1 8:-1 9:-1 
-1 0:-0.121165 1:0.526062 2:-0.471418 3:-0.700134 4:0.199377 5:-1 6:-1 7:-1 8:-1 9:-1 
-1 0:-0.125398 1:0.526062 2:-0.451855 3:-0.699231 4:0.121594 5:-1 6:-1 7:-1 8:-1 9:-1 
-1 0:-0.143243 1:0.550219 2:-0.466779 3:-0.665229 4:0.121072 5:-1 6:-1 7:-1 8:-1 9:-1 
1 0:-0.170414 1:0.473768 2:-0.438143 3:-0.695611 4:0.140582 5:-1 6:-1 7:-1 8:-1 9:-1 
1 0:-0.2691 1:0.515445 2:-0.464265 3:-0.695611 4:0.09551 5:-1 6:-1 7:-1 8:-1 9:-1 
1 0:-0.2691 1:0.515691 2:-0.436584 3:-0.695611 4:0.09551 5:-1 6:-1 7:-1 8:-1 9:-1 
-1 0:-0.196305 1:0.508451 2:-0.370998 3:-0.642068 4:0.185601 5:-1 6:-1 7:-1 8:-1 9:-1 
-1 0:-0.138558 1:0.539075 2:-0.418714 3:-0.658193 4:0.152155 5:-1 6:-1 7:-1 8:-1 9:-1 
-1 0:-0.196305 1:0.539075 2:-0.375431 3:-0.637118 4:0.136886 5:-1 6:-1 7:-1 8:-1 9:-1 
-1 0:-0.135972 1:0.537128 2:-0.446106 3:-0.642068 4:0.185601 5:-1 6:-1 7:-1 8:-1 9:-1 
-1 0:-0.217967 1:0.567665 2:-0.370998 3:-0.663417 4:0.136886 5:-1 6:-1 7:-1 8:-1 9:-1 
-1 0:-0.122405 1:0.567665 2:-0.415877 3:-0.673445 4:0.136886 5:-1 6:-1 7:-1 8:-1 9:-1 
-1 0:-0.162611 1:0.426565 2:-0.415877 3:-0.642068 4:0.199377 5:-1 6:-1 7:-1 8:-1 9:-1 
-1 0:-0.162611 1:0.426565 2:-0.409237 3:-0.652978 4:0.136886 5:-1 6:-1 7:-1 8:-1 9:-1 
-1 0:-0.196305 1:0.534987 2:-0.446106 3:-0.642068 4:0.136886 5:-1 6:-1 7:-1 8:-1 9:-1 
-1 0:-0.196305 1:0.519024 2:-0.436908 3:-0.678514 4:0.136886 5:-1 6:-1 7:-1 8:-1 9:-1 
-1 0:-0.217967 1:0.52125 2:-0.446106 3:-0.682788 4:0.199377 5:-1 6:-1 7:-1 8:-1 9:-1 
-1 0:-0.217967 1:0.567665 2:-0.370998 3:-0.742566 4:0.136886 5:-1 6:-1 7:-1 8:-1 9:-1 
1 0:-0.117205 1:0.585621 2:-0.481548 3:-0.651755 4:0.113923 5:-1 6:-1 7:-1 8:-1 9:-1 
1 0:-0.124776 1:0.48456 2:-0.431866 3:-0.675115 4:0.19027 5:-1 6:-1 7:-1 8:-1 9:-1 
1 0:-0.0741315 1:0.487547 2:-0.39678 3:-0.69684 4:0.183471 5:-1 6:-1 7:-1 8:-1 9:-1 
1 0:-0.204431 1:0.525057 2:-0.424401 3:-0.674622 4:0.109485 5:-1 6:-1 7:-1 8:-1 9:-1 
1 0:-0.124776 1:0.48456 2:-0.424848 3:-0.699556 4:0.188298 5:-1 6:-1 7:-1 8:-1 9:-1 
1 0:-0.0741315 1:0.530356 2:-0.439044 3:-0.69684 4:0.183471 5:-1 6:-1 7:-1 8:-1 9:-1 
1 0:-0.0741315 1:0.530693 2:-0.397555 3:-0.646808 4:0.188298 5:-1 6:-1 7:-1 8:-1 9:-1 
1 0:-0.204431 1:0.48456 2:-0.439044 3:-0.651328 4:0.109485 5:-1 6:-1 7:-1 8:-1 9:-1 
1 0:-0.147556 1:0.487547 2:-0.439939 3:-0.674622 4:0.228946 5:-1 6:-1 7:-1 8:-1 9:-1 
-1 0:-0.157853 1:0.539853 2:-0.431203 3:-0.641428 4:0.17901 5:-1 6:-1 7:-1 8:-1 9:-1 
-1 0:-0.143061 1:0.512207 2:-0.435113 3:-0.649413 4:0.127274 5:-1 6:-1 7:-1 8:-1 9:-1 
-1 0:-0.143984 1:0.529735 2:-0.402796 3:-0.641428 4:0.17901 5:-1 6:-1 7:-1 8:-1 9:-1 
-1 0:-0.171668 1:0.52945 2:-0.412269 3:-0.654644 4:0.162277 5:-1 6:-1 7:-1 8:-1 9:-1 
-1 0:-0.157853 1:0.525558 2:-0.402796 3:-0.641428 4:0.162277 5:-1 6:-1 7:-1 8:-1 9:-1 
-1 0:-0.134938 1:0.52945 2:-0.448885 3:-0.672456 4:0.204476 5:-1 6:-1 7:-1 8:-1 9:-1 
-1 0:-0.143984 1:0.539853 2:-0.448885 3:-0.654644 4:0.191427 5:-1 6:-1 7:-1 8:-1 9:-1 
-1 0:-0.138646 1:0.522605 2:-0.393305 3:-0.68867 4:0.17901 5:-1 6:-1 7:-1 8:-1 9:-1 
-1 0:-0.143061 1:0.52945 2:-0.435113 3:-0.654644 4:0.127274 5:-1 6:-1 7:-1 8:-1 9:-1 
-1 0:-0.143984 1:0.522605 2:-0.378818 3:-0.657011 4:0.199377 5:-1 6:-1 7:-1 8:-1 9:-1 
1 0:-0.133781 1:0.533739 2:-0.412269 3:-0.654644 4:0.17901 5:-1 6:-1 7:-1 8:-1 9:-1 
-1 0:-0.133781 1:0.533739 2:-0.415965 3:-0.672456 4:0.191427 5:-1 6:-1 7:-1 8:-1 9:-1 
1 0:-0.133781 1:0.500394 2:-0.412269 3:-0.649413 4:0.204476 5:-1 6:-1 7:-1 8:-1 9:-1 
-1 0:-0.143061 1:0.537062 2:-0.407092 3:-0.641428 4:0.162277 5:-1 6:-1 7:-1 8:-1 9:-1 
1 0:-0.0958419 1:0.517542 2:-0.44245 3:-0.650977 4:0.132077 5:-1 6:-1 7:-1 8:-1 9:-1 
-1 0:-0.104058 1:0.514453 2:-0.459201 3:-0.639715 4:0.147163 5:-1 6:-1 7:-1 8:-1 9:-1 
1 0:-0.120838 1:0.572059 2:-0.465419 3:-0.676151 4:0.147163 5:-1 6:-1 7:-1 8:-1 9:-1 
1 0:-0.120838 1:0.563095 2:-0.363168 3:-0.676151 4:0.207276 5:-1 6:-1 7:-1 8:-1 9:-1 
-1 0:-0.168685 1:0.562343 2:-0.469825 3:-0.638383 4:0.132077 5:-1 6:-1 7:-1 8:-1 9:-1 
1 0:-0.120838 1:0.572059 2:-0.417456 3:-0.676499 4:0.199377 5:-1 6:-1 7:-1 8:-1 9:-1 
1 0:-0.120838 1:0.562343 2:-0.363168 3:-0.691587 4:0.147732 5:-1 6:-1 7:-1 8:-1 9:-1 
1 0:-0.120838 1:0.562343 2:-0.363168 3:-0.676151 4:0.207276 5:-1 6:-1 7:-1 8:-1 9:-1 
1 0:-0.168685 1:0.550466 2:-0.363168 3:-0.639715 4:0.201177 5:-1 6:-1 7:-1 8:-1 9:-1 
1 0:-0.140011 1:0.526161 2:-0.351032 3:-0.680699 4:0.199377 5:-1 6:-1 7:-1 8:-1 9:-1 
1 0:-0.22993 1:0.526161 2:-0.417327 3:-0.656845 4:0.140301 5:-1 6:-1 7:-1 8:-1 9:-1 
-1 0:-0.137549 1:0.560834 2:-0.406539 3:-0.706773 4:0.0657123 5:-1 6:-1 7:-1 8:-1 9:-1 
1 0:-0.130489 1:0.544179 2:-0.45007 3:-0.706773 4:0.147756 5:-1 6:-1 7:-1 8:-1 9:-1 
-1 0:-0.140011 1:0.537888 2:-0.406539 3:-0.647523 4:0.0657123 5:-1 6:-1 7:-1 8:-1 9:-1 
1 0:-0.140011 1:0.586086 2:-0.45007 3:-0.706773 4:0.179282 5:-1 6:-1 7:-1 8:-1 9:-1 
-1 0:-0.22993 1:0.536034 2:-0.389876 3:-0.676137 4:0.0657123 5:-1 6:-1 7:-1 8:-1 9:-1 
1 0:-0.15313 1:0.560834 2:-0.45007 3:-0.647523 4:0.0976911 5:-1 6:-1 7:-1 8:-1 9:-1 
1 0:-0.172855 1:0.560834 2:-0.407834 3:-0.626114 4:0.199377 5:-1 6:-1 7:-1 8:-1 9:-1 
1 0:-0.15313 1:0.586086 2:-0.45007 3:-0.676137 4:0.0976911 5:-1 6:-1 7:-1 8:-1 9:-1 
-1 0:-0.15313 1:0.560834 2:-0.407834 3:-0.706773 4:0.0657123 5:-1 6:-1 7:-1 8:-1 9:-1 
-1 0:-0.179159 1:0.484225 2:-0.459519 3:-0.657172 4:0.199377 5:-1 6:-1 7:-1 8:-1 9:-1 
-1 0:-0.179159 1:0.504179 2:-0.49599 3:-0.696637 4:0.178748 5:-1 6:-1 7:-1 8:-1 9:-1 
-1 0:-0.164151 1:0.496976 2:-0.49599 3:-0.647204 4:0.131789 5:-1 6:-1 7:-1 8:-1 9:-1 
-1 0:-0.191904 1:0.489481 2:-0.49599 3:-0.686122 4:0.178748 5:-1 6:-1 7:-1 8:-1 9:-1 
-1 0:-0.164151 1:0.519854 2:-0.407383 3:-0.699477 4:0.131789 5:-1 6:-1 7:-1 8:-1 9:-1 
-1 0:-0.191904 1:0.509316 2:-0.49599 3:-0.686122 4:0.109613 5:-1 6:-1 7:-1 8:-1 9:-1 
-1 0:-0.164151 1:0.506569 2:-0.414337 3:-0.700473 4:0.109613 5:-1 6:-1 7:-1 8:-1 9:-1 
-1 0:-0.179159 1:0.509316 2:-0.49599 3:-0.661005 4:0.178748 5:-1 6:-1 7:-1 8:-1 9:-1 
-1 0:-0.201862 1:0.538291 2:-0.49599 3:-0.682157 4:0.131789 5:-1 6:-1 7:-1 8:-1 9:-1 
-1 0:-0.164151 1:0.519854 2:-0.49599 3:-0.699477 4:0.131789 5:-1 6:-1 7:-1 8:-1 9:-1 
-1 0:-0.164151 1:0.489481 2:-0.414337 3:-0.659328 4:0.131789 5:-1 6:-1 7:-1 8:-1 9:-1 
-1 0:-0.137013 1:0.489481 2:-0.438757 3:-0.700473 4:0.137917 5:-1 6:-1 7:-1 8:-1 9:-1 
-1 0:-0.201862 1:0.543542 2:-0.459909 3:-0.699477 4:0.131789 5:-1 6:-1 7:-1 8:-1 9:-1 
-1 0:-0.201862 1:0.538291 2:-0.49599 3:-0.686122 4:0.175224 5:-1 6:-1 7:-1 8:-1 9:-1 
-1 0:-0.191904 1:0.517865 2:-0.49599 3:-0.699477 4:0.131789 5:-1 6:-1 7:-1 8:-1 9:-1 
-1 0:-0.17551 1:0.476644 2:-0.459909 3:-0.699477 4:0.131789 5:-1 6:-1 7:-1 8:-1 9:-1 
-1 0:-0.218917 1:0.484225 2:-0.452716 3:-0.674464 4:0.109613 5:-1 6:-1 7:-1 8:-1 9:-1 
-1 0:-0.137013 1:0.484225 2:-0.459909 3:-0.674464 4:0.178748 5:-1 6:-1 7:-1 8:-1 9:-1 
-1 0:-0.179159 1:0.489481 2:-0.414337 3:-0.706008 4:0.175224 5:-1 6:-1 7:-1 8:-1 9:-1 
-1 0:-0.218917 1:0.489481 2:-0.485949 3:-0.699477 4:0.131789 5:-1 6:-1 7:-1 8:-1 9:-1 
-1 0:-0.191904 1:0.519854 2:-0.485949 3:-0.659328 4:0.131789 5:-1 6:-1 7:-1 8:-1 9:-1 
-1 0:-0.191904 1:0.489481 2:-0.438757 3:-0.675916 4:0.137917 5:-1 6:-1 7:-1 8:-1 9:-1 
-1 0:-0.179159 1:0.517865 2:-0.49599 3:-0.699477 4:0.178748 5:-1 6:-1 7:-1 8:-1 9:-1 
-1 0:-0.179159 1:0.489481 2:-0.438757 3:-0.700473 4:0.175224 5:-1 6:-1 7:-1 8:-1 9:-1 
-1 0:-0.201862 1:0.519854 2:-0.407383 3:-0.661005 4:0.131789 5:-1 6:-1 7:-1 8:-1 9:-1 
-1 0:-0.164151 1:0.496976 2:-0.414337 3:-0.700473 4:0.109613 5:-1 6:-1 7:-1 8:-1 9:-1 
-1 0:-0.191904 1:0.489481 2:-0.438757 3:-0.699477 4:0.131789 5:-1 6:-1 7:-1 8:-1 9:-1 
-1 0:-0.137013 1:0.484225 2:-0.459909 3:-0.682157 4:0.175224 5:-1 6:-1 7:-1 8:-1 9:-1 
-1 0:-0.164151 1:0.489481 2:-0.49599 3:-0.686122 4:0.199377 5:-1 6:-1 7:-1 8:-1 9:-1 
-1 0:-0.161508 1:0.484225 2:-0.459909 3:-0.659328 4:0.131789 5:-1 6:-1 7:-1 8:-1 9:-1 
-1 0:-0.191904 1:0.489481 2:-0.438757 3:-0.659328 4:0.178748 5:-1 6:-1 7:-1 8:-1 9:-1 
-1 0:-0.191904 1:0.476644 2:-0.459909 3:-0.699477 4:0.131789 5:-1 6:-1 7:-1 8:-1 9:-1 
-1 0:-0.182334 1:0.484225 2:-0.484141 3:-0.657172 4:0.199377 5:-1 6:-1 7:-1 8:-1 9:-1 
-1 0:-0.164151 1:0.509316 2:-0.459909 3:-0.661005 4:0.175224 5:-1 6:-1 7:-1 8:-1 9:-1 
-1 0:-0.218917 1:0.489481 2:-0.485949 3:-0.699477 4:0.131789 5:-1 6:-1 7:-1 8:-1 9:-1 
-1 0:-0.164151 1:0.519854 2:-0.459519 3:-0.699477 4:0.178748 5:-1 6:-1 7:-1 8:-1 9:-1 
-1 0:-0.179159 1:0.517865 2:-0.452716 3:-0.699477 4:0.175224 5:-1 6:-1 7:-1 8:-1 9:-1 
-1 0:-0.218917 1:0.517865 2:-0.485949 3:-0.686122 4:0.131789 5:-1 6:-1 7:-1 8:-1 9:-1 
-1 0:-0.179159 1:0.489481 2:-0.414337 3:-0.659328 4:0.199377 5:-1 6:-1 7:-1 8:-1 9:-1 
-1 0:-0.191904 1:0.489481 2:-0.438757 3:-0.686122 4:0.131789 5:-1 6:-1 7:-1 8:-1 9:-1 
-1 0:-0.191904 1:0.509316 2:-0.485949 3:-0.686122 4:0.131789 5:-1 6:-1 7:-1 8:-1 9:-1 
-1 0:-0.191904 1:0.519854 2:-0.484141 3:-0.659328 4:0.178748 5:-1 6:-1 7:-1 8:-1 9:-1 
-1 0:-0.218917 1:0.489481 2:-0.414337 3:-0.700473 4:0.137917 5:-1 6:-1 7:-1 8:-1 9:-1 
-1 0:-0.164151 1:0.506569 2:-0.452716 3:-0.686122 4:0.114255 5:-1 6:-1 7:-1 8:-1 9:-1 
-1 0:-0.201862 1:0.484225 2:-0.484141 3:-0.659328 4:0.131789 5:-1 6:-1 7:-1 8:-1 9:-1 
-1 0:-0.201862 1:0.519854 2:-0.49599 3:-0.659328 4:0.178748 5:-1 6:-1 7:-1 8:-1 9:-1 
-1 0:-0.208845 1:0.543542 2:-0.49599 3:-0.686122 4:0.131789 5:-1 6:-1 7:-1 8:-1 9:-1 
-1 0:-0.179159 1:0.496976 2:-0.452716 3:-0.659328 4:0.199377 5:-1 6:-1 7:-1 8:-1 9:-1 
-1 0:-0.164151 1:0.519854 2:-0.49599 3:-0.699477 4:0.131789 5:-1 6:-1 7:-1 8:-1 9:-1 
-1 0:-0.179159 1:0.517865 2:-0.438757 3:-0.706008 4:0.137917 5:-1 6:-1 7:-1 8:-1 9:-1 
-1 0:-0.137013 1:0.543542 2:-0.484141 3:-0.685907 4:0.199377 5:-1 6:-1 7:-1 8:-1 9:-1 
-1 0:-0.164151 1:0.489481 2:-0.485949 3:-0.686122 4:0.178748 5:-1 6:-1 7:-1 8:-1 9:-1 
-1 0:-0.179159 1:0.489481 2:-0.414337 3:-0.674464 4:0.131789 5:-1 6:-1 7:-1 8:-1 9:-1 
-1 0:-0.161508 1:0.484225 2:-0.459909 3:-0.699477 4:0.131789 5:-1 6:-1 7:-1 8:-1 9:-1 
-1 0:-0.179159 1:0.489481 2:-0.485949 3:-0.659328 4:0.131789 5:-1 6:-1 7:-1 8:-1 9:-1 
-1 0:-0.179159 1:0.519854 2:-0.485949 3:-0.686122 4:0.172484 5:-1 6:-1 7:-1 8:-1 9:-1 
-1 0:-0.179159 1:0.538291 2:-0.485949 3:-0.699477 4:0.175224 5:-1 6:-1 7:-1 8:-1 9:-1 
-1 0:-0.191904 1:0.519854 2:-0.485949 3:-0.661005 4:0.175224 5:-1 6:-1 7:-1 8:-1 9:-1 
-1 0:-0.191904 1:0.506569 2:-0.452716 3:-0.661005 4:0.109613 5:-1 6:-1 7:-1 8:-1 9:-1 
-1 0:-0.179159 1:0.489481 2:-0.452716 3:-0.700473 4:0.195037 5:-1 6:-1 7:-1 8:-1 9:-1 
-1 0:-0.179159 1:0.517865 2:-0.459909 3:-0.659328 4:0.131789 5:-1 6:-1 7:-1 8:-1 9:-1 
-1 0:-0.208845 1:0.519854 2:-0.49599 3:-0.659328 4:0.131789 5:-1 6:-1 7:-1 8:-1 9:-1 
-1 0:-0.191904 1:0.509316 2:-0.49599 3:-0.659328 4:0.199377 5:-1 6:-1 7:-1 8:-1 9:-1 
-1 0:-0.191904 1:0.517865 2:-0.49599 3:-0.657172 4:0.199377 5:-1 6:-1 7:-1 8:-1 9:-1 
-1 0:-0.201862 1:0.484225 2:-0.459519 3:-0.659328 4:0.178748 5:-1 6:-1 7:-1 8:-1 9:-1 
-1 0:-0.191904 1:0.506569 2:-0.459909 3:-0.699477 4:0.178748 5:-1 6:-1 7:-1 8:-1 9:-1 
-1 0:-0.17551 1:0.504179 2:-0.484141 3:-0.659328 4:0.178748 5:-1 6:-1 7:-1 8:-1 9:-1 
-1 0:-0.164151 1:0.519854 2:-0.485949 3:-0.659328 4:0.178748 5:-1 6:-1 7:-1 8:-1 9:-1 
-1 0:-0.201862 1:0.538291 2:-0.438757 3:-0.699477 4:0.195037 5:-1 6:-1 7:-1 8:-1 9:-1 
-1 0:-0.164151 1:0.509316 2:-0.484141 3:-0.659328 4:0.178748 5:-1 6:-1 7:-1 8:-1 9:-1 
-1 0:-0.164151 1:0.506569 2:-0.452716 3:-0.699477 4:0.175224 5:-1 6:-1 7:-1 8:-1 9:-1 
-1 0:-0.179159 1:0.509316 2:-0.485949 3:-0.706008 4:0.131789 5:-1 6:-1 7:-1 8:-1 9:-1 
-1 0:-0.179159 1:0.484225 2:-0.49599 3:-0.686122 4:0.131789 5:-1 6:-1 7:-1 8:-1 9:-1 
-1 0:-0.191904 1:0.519854 2:-0.49599 3:-0.699477 4:0.131789 5:-1 6:-1 7:-1 8:-1 9:-1 
-1 0:-0.191904 1:0.489481 2:-0.441392 3:-0.659328 4:0.13464 5:-1 6:-1 7:-1 8:-1 9:-1 
-1 0:-0.17551 1:0.484225 2:-0.484141 3:-0.659328 4:0.131789 5:-1 6:-1 7:-1 8:-1 9:-1 
-1 0:-0.179159 1:0.484225 2:-0.484141 3:-0.659328 4:0.195037 5:-1 6:-1 7:-1 8:-1 9:-1 
-1 0:-0.179159 1:0.519854 2:-0.452716 3:-0.699477 4:0.178748 5:-1 6:-1 7:-1 8:-1 9:-1 
-1 0:-0.179159 1:0.489481 2:-0.452716 3:-0.686122 4:0.175224 5:-1 6:-1 7:-1 8:-1 9:-1 
-1 0:-0.179159 1:0.476644 2:-0.459909 3:-0.699477 4:0.178748 5:-1 6:-1 7:-1 8:-1 9:-1 
-1 0:-0.164151 1:0.519854 2:-0.485949 3:-0.699477 4:0.178748 5:-1 6:-1 7:-1 8:-1 9:-1 
-1 0:-0.164151 1:0.538291 2:-0.459909 3:-0.674464 4:0.178748 5:-1 6:-1 7:-1 8:-1 9:-1 
-1 0:-0.179159 1:0.484225 2:-0.407383 3:-0.686122 4:0.131789 5:-1 6:-1 7:-1 8:-1 9:-1 
-1 0:-0.201862 1:0.538291 2:-0.484141 3:-0.659328 4:0.178748 5:-1 6:-1 7:-1 8:-1 9:-1 
-1 0:-0.164151 1:0.489481 2:-0.438757 3:-0.706008 4:0.131439 5:-1 6:-1 7:-1 8:-1 9:-1 
-1 0:-0.179159 1:0.489481 2:-0.414337 3:-0.686122 4:0.195037 5:-1 6:-1 7:-1 8:-1 9:-1 
-1 0:-0.191904 1:0.538291 2:-0.485949 3:-0.699477 4:0.178748 5:-1 6:-1 7:-1 8:-1 9:-1 
-1 0:-0.201862 1:0.538291 2:-0.438757 3:-0.659328 4:0.131789 5:-1 6:-1 7:-1 8:-1 9:-1 
-1 0:-0.164151 1:0.484225 2:-0.452716 3:-0.647204 4:0.131789 5:-1 6:-1 7:-1 8:-1 9:-1 
-1 0:-0.164151 1:0.509316 2:-0.485949 3:-0.686122 4:0.0989407 5:-1 6:-1 7:-1 8:-1 9:-1 
-1 0:-0.179159 1:0.496976 2:-0.414337 3:-0.682157 4:0.109613 5:-1 6:-1 7:-1 8:-1 9:-1 
-1 0:-0.179159 1:0.509316 2:-0.459909 3:-0.699477 4:0.175224 5:-1 6:-1 7:-1 8:-1 9:-1 
-1 0:-0.179159 1:0.517865 2:-0.459909 3:-0.659328 4:0.114255 5:-1 6:-1 7:-1 8:-1 9:-1 
-1 0:-0.201862 1:0.509316 2:-0.459909 3:-0.699477 4:0.178748 5:-1 6:-1 7:-1 8:-1 9:-1 
-1 0:-0.164151 1:0.484225 2:-0.452716 3:-0.674464 4:0.109613 5:-1 6:-1 7:-1 8:-1 9:-1 
-1 0:-0.164151 1:0.504179 2:-0.485949 3:-0.657172 4:0.199377 5:-1 6:-1 7:-1 8:-1 9:-1 
-1 0:-0.164151 1:0.538291 2:-0.407383 3:-0.686122 4:0.131789 5:-1 6:-1 7:-1 8:-1 9:-1 
-1 0:-0.179159 1:0.489481 2:-0.411296 3:-0.691165 4:0.178748 5:-1 6:-1 7:-1 8:-1 9:-1 
-1 0:-0.191904 1:0.489481 2:-0.438757 3:-0.700473 4:0.178748 5:-1 6:-1 7:-1 8:-1 9:-1 
-1 0:-0.218917 1:0.519854 2:-0.485949 3:-0.682157 4:0.178748 5:-1 6:-1 7:-1 8:-1 9:-1 
-1 0:-0.218917 1:0.538291 2:-0.452716 3:-0.699477 4:0.178748 5:-1 6:-1 7:-1 8:-1 9:-1 
-1 0:-0.191904 1:0.517865 2:-0.484141 3:-0.659328 4:0.178748 5:-1 6:-1 7:-1 8:-1 9:-1 
-1 0:-0.179159 1:0.517865 2:-0.438757 3:-0.699477 4:0.131789 5:-1 6:-1 7:-1 8:-1 9:-1 
-1 0:-0.191904 1:0.519854 2:-0.389298 3:-0.661005 4:0.109613 5:-1 6:-1 7:-1 8:-1 9:-1 
-1 0:-0.164151 1:0.506569 2:-0.452716 3:-0.685907 4:0.199377 5:-1 6:-1 7:-1 8:-1 9:-1 
-0.9795619069752567 0:-0.164151 1:0.543542 2:-0.389298 3:-0.661005 4:0.131789 5:-1 6:-1 7:-1 8:-1 9:-1 
-1 0:-0.201862 1:0.519854 2:-0.484141 3:-0.659328 4:0.178748 5:-1 6:-1 7:-1 8:-1 9:-1 
-1 0:-0.179159 1:0.496976 2:-0.438757 3:-0.706008 4:0.109613 5:-1 6:-1 7:-1 8:-1 9:-1 
-1 0:-0.218917 1:0.484225 2:-0.459519 3:-0.699477 4:0.178748 5:-1 6:-1 7:-1 8:-1 9:-1 
-1 0:-0.191904 1:0.489481 2:-0.49599 3:-0.684162 4:0.131789 5:-1 6:-1 7:-1 8:-1 9:-1 
-1 0:-0.164151 1:0.506569 2:-0.438757 3:-0.682157 4:0.178748 5:-1 6:-1 7:-1 8:-1 9:-1 
-1 0:-0.179159 1:0.489481 2:-0.485949 3:-0.659328 4:0.178748 5:-1 6:-1 7:-1 8:-1 9:-1 
-1 0:-0.179159 1:0.509316 2:-0.485949 3:-0.699477 4:0.175224 5:-1 6:-1 7:-1 8:-1 9:-1 
-1 0:-0.201862 1:0.519854 2:-0.485949 3:-0.699477 4:0.175224 5:-1 6:-1 7:-1 8:-1 9:-1 
-1 0:-0.164151 1:0.538291 2:-0.49599 3:-0.659328 4:0.131789 5:-1 6:-1 7:-1 8:-1 9:-1 
-1 0:-0.208845 1:0.538291 2:-0.49599 3:-0.659328 4:0.131789 5:-1 6:-1 7:-1 8:-1 9:-1 
-1 0:-0.164151 1:0.506569 2:-0.438757 3:-0.706008 4:0.114255 5:-1 6:-1 7:-1 8:-1 9:-1 
-1 0:-0.191904 1:0.489481 2:-0.414337 3:-0.686122 4:0.109613 5:-1 6:-1 7:-1 8:-1 9:-1 
-1 0:-0.164151 1:0.509316 2:-0.485949 3:-0.686122 4:0.178748 5:-1 6:-1 7:-1 8:-1 9:-1 
-1 0:-0.201862 1:0.503885 2:-0.484141 3:-0.685907 4:0.199377 5:-1 6:-1 7:-1 8:-1 9:-1 
-1 0:-0.191904 1:0.517865 2:-0.49599 3:-0.700473 4:0.199377 5:-1 6:-1 7:-1 8:-1 9:-1 
-1 0:-0.201862 1:0.519854 2:-0.485949 3:-0.686122 4:0.172484 5:-1 6:-1 7:-1 8:-1 9:-1 
-1 0:-0.191904 1:0.517865 2:-0.438757 3:-0.700473 4:0.175224 5:-1 6:-1 7:-1 8:-1 9:-1 
-1 0:-0.191904 1:0.489481 2:-0.485949 3:-0.686122 4:0.178748 5:-1 6:-1 7:-1 8:-1 9:-1 
-1 0:-0.191904 1:0.484225 2:-0.459909 3:-0.659328 4:0.131789 5:-1 6:-1 7:-1 8:-1 9:-1 
-1 0:-0.191904 1:0.509316 2:-0.49599 3:-0.661005 4:0.131789 5:-1 6:-1 7:-1 8:-1 9:-1 
-1 0:-0.179159 1:0.489481 2:-0.452716 3:-0.686122 4:0.178748 5:-1 6:-1 7:-1 8:-1 9:-1 
-1 0:-0.179159 1:0.504179 2:-0.438757 3:-0.700473 4:0.178748 5:-1 6:-1 7:-1 8:-1 9:-1 
-1 0:-0.164151 1:0.484225 2:-0.49599 3:-0.647204 4:0.178748 5:-1 6:-1 7:-1 8:-1 9:-1 
-1 0:-0.218917 1:0.484225 2:-0.407383 3:-0.699477 4:0.131789 5:-1 6:-1 7:-1 8:-1 9:-1 
-1 0:-0.164151 1:0.519854 2:-0.452716 3:-0.699477 4:0.175224 5:-1 6:-1 7:-1 8:-1 9:-1 
-1 0:-0.179159 1:0.509316 2:-0.414337 3:-0.674464 4:0.109613 5:-1 6:-1 7:-1 8:-1 9:-1 
-1 0:-0.191904 1:0.489481 2:-0.441392 3:-0.699477 4:0.13464 5:-1 6:-1 7:-1 8:-1 9:-1 
-1 0:-0.179159 1:0.489481 2:-0.414337 3:-0.700473 4:0.131789 5:-1 6:-1 7:-1 8:-1 9:-1 
-1 0:-0.164151 1:0.509316 2:-0.485949 3:-0.674464 4:0.175224 5:-1 6:-1 7:-1 8:-1 9:-1 
-1 0:-0.164151 1:0.509316 2:-0.49599 3:-0.674464 4:0.175224 5:-1 6:-1 7:-1 8:-1 9:-1 
-1 0:-0.17551 1:0.484225 2:-0.438757 3:-0.644548 4:0.199377 5:-1 6:-1 7:-1 8:-1 9:-1 
-1 0:-0.201862 1:0.509316 2:-0.459909 3:-0.699477 4:0.131789 5:-1 6:-1 7:-1 8:-1 9:-1 
-1 0:-0.161508 1:0.504179 2:-0.459909 3:-0.659328 4:0.178748 5:-1 6:-1 7:-1 8:-1 9:-1 
-1 0:-0.164151 1:0.538291 2:-0.459909 3:-0.674464 4:0.175224 5:-1 6:-1 7:-1 8:-1 9:-1 
-1 0:-0.17551 1:0.503885 2:-0.484141 3:-0.659328 4:0.131789 5:-1 6:-1 7:-1 8:-1 9:-1 
-1 0:-0.164151 1:0.489481 2:-0.452716 3:-0.699477 4:0.131789 5:-1 6:-1 7:-1 8:-1 9:-1 
-1 0:-0.137013 1:0.476644 2:-0.459909 3:-0.659328 4:0.178748 5:-1 6:-1 7:-1 8:-1 9:-1 
-1 0:-0.179159 1:0.484225 2:-0.452716 3:-0.706008 4:0.109613 5:-1 6:-1 7:-1 8:-1 9:-1 
-1 0:-0.179159 1:0.519854 2:-0.485949 3:-0.699477 4:0.195037 5:-1 6:-1 7:-1 8:-1 9:-1 
-1 0:-0.179159 1:0.538291 2:-0.484141 3:-0.659328 4:0.131789 5:-1 6:-1 7:-1 8:-1 9:-1 
-1 0:-0.191904 1:0.509316 2:-0.485949 3:-0.647204 4:0.131789 5:-1 6:-1 7:-1 8:-1 9:-1 
-1 0:-0.179159 1:0.489481 2:-0.452716 3:-0.699477 4:0.131789 5:-1 6:-1 7:-1 8:-1 9:-1 
-1 0:-0.179159 1:0.517865 2:-0.485949 3:-0.706008 4:0.131789 5:-1 6:-1 7:-1 8:-1 9:-1 
-1 0:-0.137013 1:0.476644 2:-0.459909 3:-0.699477 4:0.150489 5:-1 6:-1 7:-1 8:-1 9:-1 
-1 0:-0.164151 1:0.538291 2:-0.49599 3:-0.674464 4:0.109613 5:-1 6:-1 7:-1 8:-1 9:-1 
-1 0:-0.191904 1:0.506569 2:-0.414337 3:-0.659328 4:0.199377 5:-1 6:-1 7:-1 8:-1 9:-1 
-1 0:-0.164151 1:0.476644 2:-0.484141 3:-0.647204 4:0.131789 5:-1 6:-1 7:-1 8:-1 9:-1 
-1 0:-0.164151 1:0.489481 2:-0.459909 3:-0.699477 4:0.175224 5:-1 6:-1 7:-1 8:-1 9:-1 
-1 0:-0.201862 1:0.509316 2:-0.459909 3:-0.674464 4:0.199377 5:-1 6:-1 7:-1 8:-1 9:-1 
-1 0:-0.161508 1:0.504179 2:-0.484141 3:-0.659328 4:0.178748 5:-1 6:-1 7:-1 8:-1 9:-1 
-1 0:-0.164151 1:0.489481 2:-0.414337 3:-0.682157 4:0.178748 5:-1 6:-1 7:-1 8:-1 9:-1 
-1 0:-0.179159 1:0.509316 2:-0.414337 3:-0.699477 4:0.175224 5:-1 6:-1 7:-1 8:-1 9:-1 
-1 0:-0.164151 1:0.509316 2:-0.49599 3:-0.686122 4:0.109613 5:-1 6:-1 7:-1 8:-1 9:-1 
-1 0:-0.179159 1:0.519854 2:-0.49599 3:-0.661005 4:0.178748 5:-1 6:-1 7:-1 8:-1 9:-1 
-1 0:-0.17551 1:0.476644 2:-0.414337 3:-0.659328 4:0.109613 5:-1 6:-1 7:-1 8:-1 9:-1 
-1 0:-0.191904 1:0.489481 2:-0.438757 3:-0.706008 4:0.172484 5:-1 6:-1 7:-1 8:-1 9:-1 
-1 0:-0.191904 1:0.489481 2:-0.414337 3:-0.706008 4:0.178748 5:-1 6:-1 7:-1 8:-1 9:-1 
-1 0:-0.218917 1:0.496976 2:-0.438757 3:-0.700473 4:0.131789 5:-1 6:-1 7:-1 8:-1 9:-1 
-1 0:-0.191904 1:0.506569 2:-0.414337 3:-0.647204 4:0.114255 5:-1 6:-1 7:-1 8:-1 9:-1 
-1 0:-0.191904 1:0.509316 2:-0.485949 3:-0.686122 4:0.175224 5:-1 6:-1 7:-1 8:-1 9:-1 
-1 0:-0.191904 1:0.538291 2:-0.485949 3:-0.699477 4:0.131789 5:-1 6:-1 7:-1 8:-1 9:-1 
-1 0:-0.164151 1:0.509316 2:-0.485949 3:-0.674464 4:0.175224 5:-1 6:-1 7:-1 8:-1 9:-1 
-1 0:-0.191904 1:0.489481 2:-0.438757 3:-0.659328 4:0.178748 5:-1 6:-1 7:-1 8:-1 9:-1 
1 0:-0.167657 1:0.503515 2:-0.501864 3:-0.670734 4:0.115142 5:-1 6:-1 7:-1 8:-1 9:-1 
1 0:-0.189343 1:0.558532 2:-0.434528 3:-0.670734 4:0.227135 5:-1 6:-1 7:-1 8:-1 9:-1 
1 0:-0.138831 1:0.498904 2:-0.434528 3:-0.686391 4:0.202312 5:-1 6:-1 7:-1 8:-1 9:-1 
-1 0:-0.167657 1:0.512109 2:-0.387527 3:-0.672133 4:0.156585 5:-1 6:-1 7:-1 8:-1 9:-1 
1 0:-0.171798 1:0.527861 2:-0.460398 3:-0.642752 4:0.227135 5:-1 6:-1 7:-1 8:-1 9:-1 
1 0:-0.138831 1:0.515226 2:-0.387527 3:-0.657608 4:0.125496 5:-1 6:-1 7:-1 8:-1 9:-1 
1 0:-0.138831 1:0.512109 2:-0.466506 3:-0.670734 4:0.199377 5:-1 6:-1 7:-1 8:-1 9:-1 
1 0:-0.167657 1:0.558532 2:-0.460398 3:-0.709245 4:0.227135 5:-1 6:-1 7:-1 8:-1 9:-1 
1 0:-0.224809 1:0.523047 2:-0.460398 3:-0.630983 4:0.115142 5:-1 6:-1 7:-1 8:-1 9:-1 
1 0:-0.189343 1:0.490224 2:-0.460398 3:-0.642752 4:0.227135 5:-1 6:-1 7:-1 8:-1 9:-1 
1 0:-0.13083 1:0.472209 2:-0.460398 3:-0.630983 4:0.227135 5:-1 6:-1 7:-1 8:-1 9:-1 
-1 0:-0.167657 1:0.512109 2:-0.359867 3:-0.686391 4:0.0936503 5:-1 6:-1 7:-1 8:-1 9:-1 
1 0:-0.15087 1:0.472209 2:-0.460398 3:-0.642752 4:0.115142 5:-1 6:-1 7:-1 8:-1 9:-1 
1 0:-0.167657 1:0.512109 2:-0.381221 3:-0.686391 4:0.221545 5:-1 6:-1 7:-1 8:-1 9:-1 
-1 0:-0.171798 1:0.558532 2:-0.501864 3:-0.696094 4:0.199377 5:-1 6:-1 7:-1 8:-1 9:-1 
1 0:-0.13083 1:0.527861 2:-0.460398 3:-0.630983 4:0.14125 5:-1 6:-1 7:-1 8:-1 9:-1 
1 0:-0.15087 1:0.503515 2:-0.359867 3:-0.709245 4:0.14125 5:-1 6:-1 7:-1 8:-1 9:-1 
-1 0:-0.167657 1:0.512109 2:-0.353661 3:-0.642752 4:0.115142 5:-1 6:-1 7:-1 8:-1 9:-1 
-1 0:-0.167657 1:0.512109 2:-0.434528 3:-0.630983 4:0.0936503 5:-1 6:-1 7:-1 8:-1 9:-1 
1 0:-0.167657 1:0.527861 2:-0.460398 3:-0.670734 4:0.227135 5:-1 6:-1 7:-1 8:-1 9:-1 
-1 0:-0.167657 1:0.523047 2:-0.501864 3:-0.642752 4:0.130998 5:-1 6:-1 7:-1 8:-1 9:-1 
1 0:-0.189343 1:0.512109 2:-0.387527 3:-0.642752 4:0.170851 5:-1 6:-1 7:-1 8:-1 9:-1 
1 0:-0.13083 1:0.527861 2:-0.387527 3:-0.686391 4:0.115142 5:-1 6:-1 7:-1 8:-1 9:-1 
1 0:-0.0761491 1:0.527861 2:-0.387527 3:-0.686391 4:0.14125 5:-1 6:-1 7:-1 8:-1 9:-1 
1 0:-0.200874 1:0.579416 2:-0.460398 3:-0.642752 4:0.227135 5:-1 6:-1 7:-1 8:-1 9:-1 
1 0:-0.189343 1:0.558532 2:-0.434528 3:-0.670734 4:0.227135 5:-1 6:-1 7:-1 8:-1 9:-1 
1 0:-0.138831 1:0.527861 2:-0.460398 3:-0.630983 4:0.227135 5:-1 6:-1 7:-1 8:-1 9:-1 
1 0:-0.224809 1:0.498904 2:-0.434528 3:-0.686391 4:0.202312 5:-1 6:-1 7:-1 8:-1 9:-1 
1 0:-0.11012 1:0.498904 2:-0.501864 3:-0.642752 4:0.160042 5:-1 6:-1 7:-1 8:-1 9:-1 
-1 0:-0.13083 1:0.527861 2:-0.353661 3:-0.642752 4:0.115142 5:-1 6:-1 7:-1 8:-1 9:-1 
1 0:-0.138831 1:0.527861 2:-0.466506 3:-0.672133 4:0.130998 5:-1 6:-1 7:-1 8:-1 9:-1 
-1 0:-0.167657 1:0.512109 2:-0.434528 3:-0.630983 4:0.0936503 5:-1 6:-1 7:-1 8:-1 9:-1 
1 0:-0.167657 1:0.472209 2:-0.387527 3:-0.686391 4:0.221545 5:-1 6:-1 7:-1 8:-1 9:-1 
1 0:-0.138831 1:0.503515 2:-0.501864 3:-0.630983 4:0.227135 5:-1 6:-1 7:-1 8:-1 9:-1 
1 0:-0.189343 1:0.527861 2:-0.387527 3:-0.686391 4:0.221545 5:-1 6:-1 7:-1 8:-1 9:-1 
-1 0:-0.13083 1:0.527861 2:-0.501864 3:-0.642752 4:0.199377 5:-1 6:-1 7:-1 8:-1 9:-1 
1 0:-0.171798 1:0.584102 2:-0.460398 3:-0.670734 4:0.115142 5:-1 6:-1 7:-1 8:-1 9:-1 
1 0:-0.189343 1:0.523047 2:-0.43199 3:-0.696094 4:0.199377 5:-1 6:-1 7:-1 8:-1 9:-1 
-1 0:-0.167657 1:0.512109 2:-0.466506 3:-0.630983 4:0.202312 5:-1 6:-1 7:-1 8:-1 9:-1 
1 0:-0.189343 1:0.527861 2:-0.387527 3:-0.680118 4:0.227135 5:-1 6:-1 7:-1 8:-1 9:-1 
-1 0:-0.167657 1:0.512109 2:-0.41615 3:-0.709245 4:0.199377 5:-1 6:-1 7:-1 8:-1 9:-1 
1 0:-0.167657 1:0.527861 2:-0.460398 3:-0.709245 4:0.14125 5:-1 6:-1 7:-1 8:-1 9:-1 
-1 0:-0.13083 1:0.558532 2:-0.434528 3:-0.642752 4:0.0936503 5:-1 6:-1 7:-1 8:-1 9:-1 
-1 0:-0.167657 1:0.512109 2:-0.501864 3:-0.630983 4:0.227135 5:-1 6:-1 7:-1 8:-1 9:-1 
1 0:-0.15472 1:0.498904 2:-0.381221 3:-0.709245 4:0.227135 5:-1 6:-1 7:-1 8:-1 9:-1 
1 0:-0.0761491 1:0.558532 2:-0.466506 3:-0.686391 4:0.115142 5:-1 6:-1 7:-1 8:-1 9:-1 
1 0:-0.171798 1:0.498904 2:-0.460398 3:-0.630983 4:0.227135 5:-1 6:-1 7:-1 8:-1 9:-1 
1 0:-0.13083 1:0.515226 2:-0.387527 3:-0.686391 4:0.0936503 5:-1 6:-1 7:-1 8:-1 9:-1 
1 0:-0.13083 1:0.536923 2:-0.381221 3:-0.686391 4:0.221545 5:-1 6:-1 7:-1 8:-1 9:-1 
-1 0:-0.167657 1:0.512109 2:-0.434528 3:-0.709245 4:0.115142 5:-1 6:-1 7:-1 8:-1 9:-1 
1 0:-0.167657 1:0.558532 2:-0.460398 3:-0.670734 4:0.115142 5:-1 6:-1 7:-1 8:-1 9:-1 
1 0:-0.15087 1:0.498904 2:-0.43199 3:-0.642752 4:0.199377 5:-1 6:-1 7:-1 8:-1 9:-1 
1 0:-0.138831 1:0.515226 2:-0.434528 3:-0.686391 4:0.221545 5:-1 6:-1 7:-1 8:-1 9:-1 
1 0:-0.167657 1:0.512109 2:-0.434528 3:-0.686391 4:0.227135 5:-1 6:-1 7:-1 8:-1 9:-1 
1 0:-0.11012 1:0.498904 2:-0.434528 3:-0.686391 4:0.202312 5:-1 6:-1 7:-1 8:-1 9:-1 
1 0:-0.167657 1:0.512109 2:-0.466506 3:-0.686391 4:0.196631 5:-1 6:-1 7:-1 8:-1 9:-1 
1 0:-0.11012 1:0.472209 2:-0.466506 3:-0.630983 4:0.156585 5:-1 6:-1 7:-1 8:-1 9:-1 
1 0:-0.15087 1:0.503515 2:-0.359867 3:-0.642752 4:0.227135 5:-1 6:-1 7:-1 8:-1 9:-1 
1 0:-0.13083 1:0.472209 2:-0.466506 3:-0.670734 4:0.221545 5:-1 6:-1 7:-1 8:-1 9:-1 
1 0:-0.167657 1:0.527861 2:-0.359867 3:-0.686391 4:0.0936503 5:-1 6:-1 7:-1 8:-1 9:-1 
1 0:-0.138831 1:0.558532 2:-0.466506 3:-0.672133 4:0.227135 5:-1 6:-1 7:-1 8:-1 9:-1 
1 0:-0.138831 1:0.527861 2:-0.466506 3:-0.686391 4:0.156585 5:-1 6:-1 7:-1 8:-1 9:-1 
1 0:-0.13083 1:0.512109 2:-0.460398 3:-0.709245 4:0.199377 5:-1 6:-1 7:-1 8:-1 9:-1 
1 0:-0.167657 1:0.527861 2:-0.460398 3:-0.630983 4:0.115142 5:-1 6:-1 7:-1 8:-1 9:-1 
1 0:-0.11012 1:0.498904 2:-0.43199 3:-0.630983 4:0.160042 5:-1 6:-1 7:-1 8:-1 9:-1 
1 0:-0.167657 1:0.542945 2:-0.460398 3:-0.630983 4:0.227135 5:-1 6:-1 7:-1 8:-1 9:-1 
1 0:-0.13083 1:0.512109 2:-0.434528 3:-0.686391 4:0.227135 5:-1 6:-1 7:-1 8:-1 9:-1 
1 0:-0.138831 1:0.523047 2:-0.460398 3:-0.670734 4:0.115142 5:-1 6:-1 7:-1 8:-1 9:-1 
1 0:-0.13083 1:0.524963 2:-0.460398 3:-0.709245 4:0.227135 5:-1 6:-1 7:-1 8:-1 9:-1 
1 0:-0.15087 1:0.498904 2:-0.501864 3:-0.642752 4:0.130998 5:-1 6:-1 7:-1 8:-1 9:-1 
1 0:-0.138831 1:0.527861 2:-0.408174 3:-0.686391 4:0.221545 5:-1 6:-1 7:-1 8:-1 9:-1 
1 0:-0.13083 1:0.579416 2:-0.460398 3:-0.670734 4:0.115142 5:-1 6:-1 7:-1 8:-1 9:-1 
1 0:-0.171798 1:0.498904 2:-0.460398 3:-0.630983 4:0.160042 5:-1 6:-1 7:-1 8:-1 9:-1 
1 0:-0.138831 1:0.527861 2:-0.460398 3:-0.630983 4:0.115142 5:-1 6:-1 7:-1 8:-1 9:-1 
1 0:-0.138831 1:0.527861 2:-0.387527 3:-0.686391 4:0.14125 5:-1 6:-1 7:-1 8:-1 9:-1 
1 0:-0.0853017 1:0.524282 2:-0.48009 3:-0.685208 4:0.125291 5:-1 6:-1 7:-1 8:-1 9:-1 
1 0:-0.0853017 1:0.51779 2:-0.413185 3:-0.685208 4:0.125291 5:-1 6:-1 7:-1 8:-1 9:-1 
1 0:-0.0853017 1:0.51779 2:-0.421705 3:-0.697244 4:0.231312 5:-1 6:-1 7:-1 8:-1 9:-1 
1 0:-0.164251 1:0.539161 2:-0.477547 3:-0.685208 4:0.155771 5:-1 6:-1 7:-1 8:-1 9:-1 
1 0:-0.0853017 1:0.524282 2:-0.488843 3:-0.697244 4:0.18221 5:-1 6:-1 7:-1 8:-1 9:-1 
1 0:-0.164251 1:0.488648 2:-0.421705 3:-0.625007 4:0.125291 5:-1 6:-1 7:-1 8:-1 9:-1 
-1 0:-0.164251 1:0.532728 2:-0.441327 3:-0.625007 4:0.132932 5:-1 6:-1 7:-1 8:-1 9:-1 
1 0:-0.155626 1:0.505373 2:-0.441327 3:-0.625007 4:0.148027 5:-1 6:-1 7:-1 8:-1 9:-1 
1 0:-0.153882 1:0.488648 2:-0.441327 3:-0.695843 4:0.148027 5:-1 6:-1 7:-1 8:-1 9:-1 
1 0:-0.164251 1:0.505137 2:-0.349023 3:-0.655053 4:0.199377 5:-1 6:-1 7:-1 8:-1 9:-1 
1 0:-0.164251 1:0.532728 2:-0.349023 3:-0.655053 4:0.125291 5:-1 6:-1 7:-1 8:-1 9:-1 
1 0:-0.0853017 1:0.524282 2:-0.457938 3:-0.67588 4:0.132932 5:-1 6:-1 7:-1 8:-1 9:-1 
1 0:-0.164251 1:0.498732 2:-0.477547 3:-0.625007 4:0.157337 5:-1 6:-1 7:-1 8:-1 9:-1 
1 0:-0.155626 1:0.539161 2:-0.403539 3:-0.695843 4:0.231312 5:-1 6:-1 7:-1 8:-1 9:-1 
1 0:-0.153882 1:0.539161 2:-0.421705 3:-0.655053 4:0.231312 5:-1 6:-1 7:-1 8:-1 9:-1 
1 0:-0.153882 1:0.539161 2:-0.48009 3:-0.695843 4:0.132932 5:-1 6:-1 7:-1 8:-1 9:-1 
1 0:-0.202968 1:0.517914 2:-0.349023 3:-0.644548 4:0.199377 5:-1 6:-1 7:-1 8:-1 9:-1 
1 0:-0.211749 1:0.51779 2:-0.421705 3:-0.632592 4:0.125291 5:-1 6:-1 7:-1 8:-1 9:-1 
1 0:-0.153882 1:0.517914 2:-0.349023 3:-0.655053 4:0.125291 5:-1 6:-1 7:-1 8:-1 9:-1 
1 0:-0.0853017 1:0.525594 2:-0.457938 3:-0.625007 4:0.125291 5:-1 6:-1 7:-1 8:-1 9:-1 
1 0:-0.0853017 1:0.51779 2:-0.488843 3:-0.625007 4:0.18221 5:-1 6:-1 7:-1 8:-1 9:-1 
1 0:-0.0853017 1:0.532728 2:-0.441327 3:-0.695843 4:0.18221 5:-1 6:-1 7:-1 8:-1 9:-1 
1 0:-0.144404 1:0.488648 2:-0.431155 3:-0.625007 4:0.125291 5:-1 6:-1 7:-1 8:-1 9:-1 
1 0:-0.211749 1:0.524282 2:-0.421705 3:-0.685208 4:0.231312 5:-1 6:-1 7:-1 8:-1 9:-1 
-1 0:-0.144404 1:0.488648 2:-0.349023 3:-0.655053 4:0.148027 5:-1 6:-1 7:-1 8:-1 9:-1 
1 0:-0.0853017 1:0.524282 2:-0.488843 3:-0.67588 4:0.231312 5:-1 6:-1 7:-1 8:-1 9:-1 
1 0:-0.155626 1:0.488648 2:-0.421705 3:-0.625007 4:0.148027 5:-1 6:-1 7:-1 8:-1 9:-1 
1 0:-0.0853017 1:0.525594 2:-0.457938 3:-0.67588 4:0.199377 5:-1 6:-1 7:-1 8:-1 9:-1 
1 0:-0.155626 1:0.539161 2:-0.403539 3:-0.695843 4:0.132932 5:-1 6:-1 7:-1 8:-1 9:-1 
1 0:-0.0853017 1:0.532728 2:-0.48009 3:-0.655053 4:0.231312 5:-1 6:-1 7:-1 8:-1 9:-1 
1 0:-0.0853017 1:0.539161 2:-0.477547 3:-0.625007 4:0.125291 5:-1 6:-1 7:-1 8:-1 9:-1 
1 0:-0.0853017 1:0.482039 2:-0.457938 3:-0.697244 4:0.231312 5:-1 6:-1 7:-1 8:-1 9:-1 
1 0:-0.0853017 1:0.51779 2:-0.413185 3:-0.702069 4:0.157337 5:-1 6:-1 7:-1 8:-1 9:-1 
1 0:-0.0853017 1:0.51779 2:-0.488843 3:-0.670274 4:0.155771 5:-1 6:-1 7:-1 8:-1 9:-1 
-1 0:-0.180748 1:0.488648 2:-0.441327 3:-0.66037 4:0.132932 5:-1 6:-1 7:-1 8:-1 9:-1 
1 0:-0.202968 1:0.505373 2:-0.488843 3:-0.685208 4:0.231312 5:-1 6:-1 7:-1 8:-1 9:-1 
1 0:-0.155626 1:0.539161 2:-0.441327 3:-0.695843 4:0.132932 5:-1 6:-1 7:-1 8:-1 9:-1 
1 0:-0.155626 1:0.505137 2:-0.421705 3:-0.655053 4:0.231312 5:-1 6:-1 7:-1 8:-1 9:-1 
1 0:-0.153882 1:0.505373 2:-0.403539 3:-0.675971 4:0.199377 5:-1 6:-1 7:-1 8:-1 9:-1 
1 0:-0.180748 1:0.532728 2:-0.458251 3:-0.625007 4:0.125291 5:-1 6:-1 7:-1 8:-1 9:-1 
1 0:-0.155626 1:0.488648 2:-0.477547 3:-0.655053 4:0.125291 5:-1 6:-1 7:-1 8:-1 9:-1 
1 0:-0.0853017 1:0.525594 2:-0.457938 3:-0.67588 4:0.199377 5:-1 6:-1 7:-1 8:-1 9:-1 
1 0:-0.0853017 1:0.505373 2:-0.349023 3:-0.685208 4:0.173522 5:-1 6:-1 7:-1 8:-1 9:-1 
1 0:-0.211749 1:0.525594 2:-0.48009 3:-0.695843 4:0.132932 5:-1 6:-1 7:-1 8:-1 9:-1 
-1 0:-0.164251 1:0.539161 2:-0.421705 3:-0.655053 4:0.199377 5:-1 6:-1 7:-1 8:-1 9:-1 
1 0:-0.0853017 1:0.524282 2:-0.413185 3:-0.685035 4:0.125291 5:-1 6:-1 7:-1 8:-1 9:-1 
1 0:-0.155626 1:0.488648 2:-0.441327 3:-0.625007 4:0.148027 5:-1 6:-1 7:-1 8:-1 9:-1 
1 0:-0.0853017 1:0.51779 2:-0.457938 3:-0.697244 4:0.231312 5:-1 6:-1 7:-1 8:-1 9:-1 
1 0:-0.0853017 1:0.482039 2:-0.48009 3:-0.685208 4:0.125291 5:-1 6:-1 7:-1 8:-1 9:-1 
1 0:-0.0853017 1:0.524282 2:-0.421705 3:-0.67588 4:0.231312 5:-1 6:-1 7:-1 8:-1 9:-1 
1 0:-0.0853017 1:0.524282 2:-0.488843 3:-0.665066 4:0.157337 5:-1 6:-1 7:-1 8:-1 9:-1 
1 0:-0.0853017 1:0.524282 2:-0.413185 3:-0.625007 4:0.157337 5:-1 6:-1 7:-1 8:-1 9:-1 
1 0:-0.180748 1:0.587603 2:-0.403539 3:-0.689883 4:0.199377 5:-1 6:-1 7:-1 8:-1 9:-1 
1 0:-0.153882 1:0.505373 2:-0.477547 3:-0.625007 4:0.125291 5:-1 6:-1 7:-1 8:-1 9:-1 
1 0:-0.144404 1:0.539161 2:-0.48009 3:-0.695843 4:0.231312 5:-1 6:-1 7:-1 8:-1 9:-1 
1 0:-0.0853017 1:0.525594 2:-0.457938 3:-0.702069 4:0.199377 5:-1 6:-1 7:-1 8:-1 9:-1 
1 0:-0.0853017 1:0.51779 2:-0.457938 3:-0.655053 4:0.132932 5:-1 6:-1 7:-1 8:-1 9:-1 
1 0:-0.155626 1:0.505373 2:-0.441327 3:-0.625007 4:0.157337 5:-1 6:-1 7:-1 8:-1 9:-1 
1 0:-0.164251 1:0.505373 2:-0.488843 3:-0.665066 4:0.157337 5:-1 6:-1 7:-1 8:-1 9:-1 
1 0:-0.0853017 1:0.524282 2:-0.441492 3:-0.625007 4:0.125291 5:-1 6:-1 7:-1 8:-1 9:-1 
1 0:-0.0853017 1:0.51779 2:-0.457938 3:-0.702069 4:0.157337 5:-1 6:-1 7:-1 8:-1 9:-1 
1 0:-0.180748 1:0.488648 2:-0.349023 3:-0.689883 4:0.199377 5:-1 6:-1 7:-1 8:-1 9:-1 
1 0:-0.202968 1:0.524282 2:-0.421705 3:-0.67588 4:0.231312 5:-1 6:-1 7:-1 8:-1 9:-1 
1 0:-0.0853017 1:0.51779 2:-0.441327 3:-0.625007 4:0.125291 5:-1 6:-1 7:-1 8:-1 9:-1 
1 0:-0.202968 1:0.51779 2:-0.421705 3:-0.67588 4:0.231312 5:-1 6:-1 7:-1 8:-1 9:-1 
1 0:-0.0853017 1:0.505373 2:-0.488843 3:-0.67588 4:0.115553 5:-1 6:-1 7:-1 8:-1 9:-1 
1 0:-0.202968 1:0.532728 2:-0.441327 3:-0.655053 4:0.231312 5:-1 6:-1 7:-1 8:-1 9:-1 
1 0:-0.180748 1:0.488648 2:-0.441327 3:-0.695843 4:0.231312 5:-1 6:-1 7:-1 8:-1 9:-1 
1 0:-0.0853017 1:0.525594 2:-0.413185 3:-0.685208 4:0.18221 5:-1 6:-1 7:-1 8:-1 9:-1 
-1 0:-0.0714974 1:0.532728 2:-0.441327 3:-0.655053 4:0.132932 5:-1 6:-1 7:-1 8:-1 9:-1 
-1 0:-0.164251 1:0.505373 2:-0.421705 3:-0.695843 4:0.18221 5:-1 6:-1 7:-1 8:-1 9:-1 
1 0:-0.155626 1:0.539161 2:-0.441327 3:-0.625007 4:0.18221 5:-1 6:-1 7:-1 8:-1 9:-1 
-1 0:-0.155626 1:0.505373 2:-0.421705 3:-0.655053 4:0.199377 5:-1 6:-1 7:-1 8:-1 9:-1 
1 0:-0.153882 1:0.505373 2:-0.477547 3:-0.655053 4:0.125291 5:-1 6:-1 7:-1 8:-1 9:-1 
1 0:-0.153882 1:0.498732 2:-0.441492 3:-0.665066 4:0.155771 5:-1 6:-1 7:-1 8:-1 9:-1 
1 0:-0.155626 1:0.539161 2:-0.477547 3:-0.625007 4:0.125291 5:-1 6:-1 7:-1 8:-1 9:-1 
1 0:-0.164251 1:0.505373 2:-0.458251 3:-0.625007 4:0.115553 5:-1 6:-1 7:-1 8:-1 9:-1 
1 0:-0.0853017 1:0.524282 2:-0.413185 3:-0.697244 4:0.18221 5:-1 6:-1 7:-1 8:-1 9:-1 
1 0:-0.202968 1:0.505373 2:-0.488843 3:-0.625007 4:0.18221 5:-1 6:-1 7:-1 8:-1 9:-1 
1 0:-0.153882 1:0.505373 2:-0.466734 3:-0.625007 4:0.148027 5:-1 6:-1 7:-1 8:-1 9:-1 
1 0:-0.0853017 1:0.482039 2:-0.48009 3:-0.695843 4:0.199377 5:-1 6:-1 7:-1 8:-1 9:-1 
1 0:-0.153882 1:0.539161 2:-0.441327 3:-0.625007 4:0.148027 5:-1 6:-1 7:-1 8:-1 9:-1 
1 0:-0.0853017 1:0.524282 2:-0.48009 3:-0.67588 4:0.199377 5:-1 6:-1 7:-1 8:-1 9:-1 
1 0:-0.0853017 1:0.524282 2:-0.413185 3:-0.697244 4:0.231312 5:-1 6:-1 7:-1 8:-1 9:-1 
1 0:-0.0853017 1:0.488648 2:-0.457938 3:-0.702069 4:0.132932 5:-1 6:-1 7:-1 8:-1 9:-1 
1 0:-0.0853017 1:0.524282 2:-0.457938 3:-0.625007 4:0.157337 5:-1 6:-1 7:-1 8:-1 9:-1 
1 0:-0.153882 1:0.488648 2:-0.477547 3:-0.625007 4:0.125291 5:-1 6:-1 7:-1 8:-1 9:-1 
1 0:-0.153882 1:0.587603 2:-0.477547 3:-0.685208 4:0.148027 5:-1 6:-1 7:-1 8:-1 9:-1 
1 0:-0.0853017 1:0.524282 2:-0.413185 3:-0.665066 4:0.148175 5:-1 6:-1 7:-1 8:-1 9:-1 
1 0:-0.0853017 1:0.524282 2:-0.413185 3:-0.695843 4:0.199377 5:-1 6:-1 7:-1 8:-1 9:-1 
1 0:-0.181062 1:0.488648 2:-0.441327 3:-0.695843 4:0.231312 5:-1 6:-1 7:-1 8:-1 9:-1 
1 0:-0.0853017 1:0.524282 2:-0.413185 3:-0.655053 4:0.199377 5:-1 6:-1 7:-1 8:-1 9:-1 
-1 0:-0.164251 1:0.505373 2:-0.421705 3:-0.695843 4:0.18221 5:-1 6:-1 7:-1 8:-1 9:-1 
1 0:-0.0853017 1:0.525594 2:-0.457938 3:-0.665066 4:0.231312 5:-1 6:-1 7:-1 8:-1 9:-1 
1 0:-0.153882 1:0.505373 2:-0.48009 3:-0.695843 4:0.148027 5:-1 6:-1 7:-1 8:-1 9:-1 
1 0:-0.211749 1:0.505373 2:-0.48009 3:-0.655053 4:0.231312 5:-1 6:-1 7:-1 8:-1 9:-1 
1 0:-0.202968 1:0.577213 2:-0.413185 3:-0.665066 4:0.231312 5:-1 6:-1 7:-1 8:-1 9:-1 
1 0:-0.0853017 1:0.51779 2:-0.488843 3:-0.685208 4:0.199377 5:-1 6:-1 7:-1 8:-1 9:-1 
1 0:-0.0853017 1:0.505373 2:-0.48009 3:-0.67588 4:0.125291 5:-1 6:-1 7:-1 8:-1 9:-1 
1 0:-0.144404 1:0.539161 2:-0.48009 3:-0.67588 4:0.231312 5:-1 6:-1 7:-1 8:-1 9:-1 
1 0:-0.0853017 1:0.51779 2:-0.477547 3:-0.625007 4:0.125291 5:-1 6:-1 7:-1 8:-1 9:-1 
-1 0:-0.164251 1:0.532728 2:-0.403539 3:-0.670274 4:0.199377 5:-1 6:-1 7:-1 8:-1 9:-1 
1 0:-0.155626 1:0.505373 2:-0.488843 3:-0.695843 4:0.132932 5:-1 6:-1 7:-1 8:-1 9:-1 
1 0:-0.202968 1:0.525594 2:-0.421705 3:-0.67588 4:0.18221 5:-1 6:-1 7:-1 8:-1 9:-1 
1 0:-0.0853017 1:0.505373 2:-0.48009 3:-0.67588 4:0.132932 5:-1 6:-1 7:-1 8:-1 9:-1 
1 0:-0.155626 1:0.505373 2:-0.48009 3:-0.625007 4:0.132932 5:-1 6:-1 7:-1 8:-1 9:-1 
1 0:-0.0853017 1:0.525594 2:-0.413185 3:-0.67588 4:0.115553 5:-1 6:-1 7:-1 8:-1 9:-1 
1 0:-0.135857 1:0.488648 2:-0.441327 3:-0.695843 4:0.231312 5:-1 6:-1 7:-1 8:-1 9:-1 
1 0:-0.0853017 1:0.525594 2:-0.457938 3:-0.697244 4:0.148175 5:-1 6:-1 7:-1 8:-1 9:-1 
1 0:-0.180748 1:0.488648 2:-0.441327 3:-0.695843 4:0.231312 5:-1 6:-1 7:-1 8:-1 9:-1 
1 0:-0.0853017 1:0.525594 2:-0.441327 3:-0.655053 4:0.132932 5:-1 6:-1 7:-1 8:-1 9:-1 
1 0:-0.0853017 1:0.525594 2:-0.488843 3:-0.695843 4:0.125291 5:-1 6:-1 7:-1 8:-1 9:-1 
1 0:-0.155626 1:0.539161 2:-0.477547 3:-0.625007 4:0.199377 5:-1 6:-1 7:-1 8:-1 9:-1 
1 0:-0.155626 1:0.532728 2:-0.403539 3:-0.625007 4:0.115553 5:-1 6:-1 7:-1 8:-1 9:-1 
1 0:-0.164251 1:0.488648 2:-0.441327 3:-0.625007 4:0.18221 5:-1 6:-1 7:-1 8:-1 9:-1 
1 0:-0.164251 1:0.505137 2:-0.421705 3:-0.695843 4:0.231312 5:-1 6:-1 7:-1 8:-1 9:-1 
1 0:-0.153882 1:0.505373 2:-0.48009 3:-0.665066 4:0.18221 5:-1 6:-1 7:-1 8:-1 9:-1 
1 0:-0.0853017 1:0.525594 2:-0.403539 3:-0.625007 4:0.115553 5:-1 6:-1 7:-1 8:-1 9:-1 
1 0:-0.0853017 1:0.51779 2:-0.457938 3:-0.685208 4:0.125291 5:-1 6:-1 7:-1 8:-1 9:-1 
1 0:-0.153882 1:0.539161 2:-0.48009 3:-0.685035 4:0.231312 5:-1 6:-1 7:-1 8:-1 9:-1 
1 0:-0.153882 1:0.488648 2:-0.349023 3:-0.655053 4:0.125291 5:-1 6:-1 7:-1 8:-1 9:-1 
1 0:-0.135857 1:0.488648 2:-0.349023 3:-0.689883 4:0.199377 5:-1 6:-1 7:-1 8:-1 9:-1 
1 0:-0.153882 1:0.505373 2:-0.403539 3:-0.685208 4:0.173522 5:-1 6:-1 7:-1 8:-1 9:-1 
1 0:-0.180748 1:0.488648 2:-0.477547 3:-0.625007 4:0.173522 5:-1 6:-1 7:-1 8:-1 9:-1 
1 0:-0.153882 1:0.539161 2:-0.441327 3:-0.655053 4:0.155771 5:-1 6:-1 7:-1 8:-1 9:-1 
1 0:-0.0853017 1:0.524282 2:-0.421705 3:-0.695843 4:0.157337 5:-1 6:-1 7:-1 8:-1 9:-1 
-1 0:-0.135857 1:0.532728 2:-0.441327 3:-0.655053 4:0.132932 5:-1 6:-1 7:-1 8:-1 9:-1 
1 0:-0.0853017 1:0.524282 2:-0.488843 3:-0.665066 4:0.157337 5:-1 6:-1 7:-1 8:-1 9:-1 
1 0:-0.0853017 1:0.525594 2:-0.413185 3:-0.655053 4:0.231312 5:-1 6:-1 7:-1 8:-1 9:-1 
1 0:-0.155626 1:0.482039 2:-0.441327 3:-0.695843 4:0.165848 5:-1 6:-1 7:-1 8:-1 9:-1 
1 0:-0.0853017 1:0.524282 2:-0.421705 3:-0.67588 4:0.18221 5:-1 6:-1 7:-1 8:-1 9:-1 
1 0:-0.0853017 1:0.525594 2:-0.413185 3:-0.697244 4:0.231312 5:-1 6:-1 7:-1 8:-1 9:-1 
1 0:-0.155626 1:0.532728 2:-0.441327 3:-0.695843 4:0.231312 5:-1 6:-1 7:-1 8:-1 9:-1 
1 0:-0.0853017 1:0.539161 2:-0.488843 3:-0.67588 4:0.115553 5:-1 6:-1 7:-1 8:-1 9:-1 
1 0:-0.135857 1:0.517914 2:-0.403539 3:-0.625007 4:0.125291 5:-1 6:-1 7:-1 8:-1 9:-1 
1 0:-0.211749 1:0.525594 2:-0.457938 3:-0.697244 4:0.115553 5:-1 6:-1 7:-1 8:-1 9:-1 
1 0:-0.164251 1:0.587603 2:-0.421705 3:-0.685208 4:0.18221 5:-1 6:-1 7:-1 8:-1 9:-1 
1 0:-0.155626 1:0.490568 2:-0.349023 3:-0.685208 4:0.148027 5:-1 6:-1 7:-1 8:-1 9:-1 
1 0:-0.0853017 1:0.525594 2:-0.413185 3:-0.625007 4:0.155771 5:-1 6:-1 7:-1 8:-1 9:-1 
1 0:-0.0853017 1:0.532728 2:-0.413185 3:-0.702069 4:0.18221 5:-1 6:-1 7:-1 8:-1 9:-1 
1 0:-0.153882 1:0.587603 2:-0.48009 3:-0.655053 4:0.165848 5:-1 6:-1 7:-1 8:-1 9:-1 
1 0:-0.0853017 1:0.524282 2:-0.413185 3:-0.702069 4:0.115553 5:-1 6:-1 7:-1 8:-1 9:-1 
1 0:-0.155626 1:0.505373 2:-0.488843 3:-0.685208 4:0.231312 5:-1 6:-1 7:-1 8:-1 9:-1 
1 0:-0.0853017 1:0.524282 2:-0.477547 3:-0.685208 4:0.125291 5:-1 6:-1 7:-1 8:-1 9:-1 
1 0:-0.155626 1:0.539161 2:-0.48009 3:-0.695843 4:0.231312 5:-1 6:-1 7:-1 8:-1 9:-1 
-1 0:-0.164251 1:0.539161 2:-0.48009 3:-0.67588 4:0.199377 5:-1 6:-1 7:-1 8:-1 9:-1 
1 0:-0.155626 1:0.539161 2:-0.441327 3:-0.695843 4:0.125291 5:-1 6:-1 7:-1 8:-1 9:-1 
1 0:-0.164251 1:0.505373 2:-0.48009 3:-0.625007 4:0.155771 5:-1 6:-1 7:-1 8:-1 9:-1 
1 0:-0.0853017 1:0.525594 2:-0.488843 3:-0.697244 4:0.231312 5:-1 6:-1 7:-1 8:-1 9:-1 
1 0:-0.180748 1:0.488648 2:-0.349023 3:-0.689883 4:0.199377 5:-1 6:-1 7:-1 8:-1 9:-1 
1 0:-0.155626 1:0.539161 2:-0.457938 3:-0.625007 4:0.199377 5:-1 6:-1 7:-1 8:-1 9:-1 
1 0:-0.0853017 1:0.525594 2:-0.488843 3:-0.625007 4:0.132932 5:-1 6:-1 7:-1 8:-1 9:-1 
1 0:-0.0853017 1:0.524282 2:-0.413185 3:-0.67588 4:0.115553 5:-1 6:-1 7:-1 8:-1 9:-1 
1 0:-0.0853017 1:0.524282 2:-0.457938 3:-0.695843 4:0.18221 5:-1 6:-1 7:-1 8:-1 9:-1 
-1 0:-0.180219 1:0.549832 2:-0.371217 3:-0.668836 4:0.199377 5:-1 6:-1 7:-1 8:-1 9:-1 
1 0:-0.180219 1:0.544323 2:-0.371217 3:-0.682818 4:0.16602 5:-1 6:-1 7:-1 8:-1 9:-1 
1 0:-0.128998 1:0.484033 2:-0.371217 3:-0.682818 4:0.152137 5:-1 6:-1 7:-1 8:-1 9:-1 
1 0:-0.130339 1:0.484033 2:-0.613545 3:-0.682818 4:0.133629 5:-1 6:-1 7:-1 8:-1 9:-1 
1 0:-0.159673 1:0.544323 2:-0.459675 3:-0.682818 4:0.133629 5:-1 6:-1 7:-1 8:-1 9:-1 
1 0:-0.132716 1:0.527563 2:-0.613545 3:-0.682818 4:0.186252 5:-1 6:-1 7:-1 8:-1 9:-1 
1 0:-0.209101 1:0.570847 2:-0.613545 3:-0.682818 4:0.133629 5:-1 6:-1 7:-1 8:-1 9:-1 
-1 0:-0.159673 1:0.541525 2:-0.421514 3:-0.657338 4:0.159686 5:-1 6:-1 7:-1 8:-1 9:-1 
1 0:-0.159673 1:0.541525 2:-0.421514 3:-0.682818 4:0.133629 5:-1 6:-1 7:-1 8:-1 9:-1 
1 0:-0.180219 1:0.504061 2:-0.371217 3:-0.693961 4:0.136837 5:-1 6:-1 7:-1 8:-1 9:-1 
1 0:-0.180219 1:0.544323 2:-0.613545 3:-0.682818 4:0.16602 5:-1 6:-1 7:-1 8:-1 9:-1 
1 0:-0.130339 1:0.570847 2:-0.474132 3:-0.682818 4:0.16602 5:-1 6:-1 7:-1 8:-1 9:-1 
1 0:-0.130339 1:0.484033 2:-0.457477 3:-0.682818 4:0.186252 5:-1 6:-1 7:-1 8:-1 9:-1 
1 0:-0.130339 1:0.541525 2:-0.371217 3:-0.770799 4:0.136837 5:-1 6:-1 7:-1 8:-1 9:-1 
-1 0:-0.336835 1:0.484033 2:-0.474132 3:-0.682818 4:0.17968 5:-1 6:-1 7:-1 8:-1 9:-1 
1 0:-0.180219 1:0.521235 2:-0.371217 3:-0.682818 4:0.17968 5:-1 6:-1 7:-1 8:-1 9:-1 
-1 0:-0.180219 1:0.544323 2:-0.486203 3:-0.637239 4:0.16602 5:-1 6:-1 7:-1 8:-1 9:-1 
-1 0:-0.128998 1:0.541525 2:-0.459675 3:-0.682818 4:0.159686 5:-1 6:-1 7:-1 8:-1 9:-1 
1 0:-0.130339 1:0.541525 2:-0.613545 3:-0.682818 4:0.186252 5:-1 6:-1 7:-1 8:-1 9:-1 
1 0:-0.128998 1:0.484033 2:-0.459675 3:-0.682818 4:0.16602 5:-1 6:-1 7:-1 8:-1 9:-1 
-1 0:-0.159673 1:0.484033 2:-0.613545 3:-0.656601 4:0.159686 5:-1 6:-1 7:-1 8:-1 9:-1 
1 0:-0.180286 1:0.543314 2:-0.474132 3:-0.682818 4:0.152137 5:-1 6:-1 7:-1 8:-1 9:-1 
1 0:-0.159673 1:0.493147 2:-0.613545 3:-0.682818 4:0.186252 5:-1 6:-1 7:-1 8:-1 9:-1 
-1 0:-0.159673 1:0.541525 2:-0.459675 3:-0.656601 4:0.159686 5:-1 6:-1 7:-1 8:-1 9:-1 
-1 0:-0.159673 1:0.484033 2:-0.421514 3:-0.658644 4:0.159686 5:-1 6:-1 7:-1 8:-1 9:-1 
-1 0:-0.180219 1:0.504061 2:-0.371217 3:-0.656601 4:0.186252 5:-1 6:-1 7:-1 8:-1 9:-1 
-1 0:-0.128998 1:0.541525 2:-0.613545 3:-0.700614 4:0.136837 5:-1 6:-1 7:-1 8:-1 9:-1 
1 0:-0.128998 1:0.484033 2:-0.459675 3:-0.682818 4:0.16602 5:-1 6:-1 7:-1 8:-1 9:-1 
1 0:-0.182491 1:0.484033 2:-0.410054 3:-0.682818 4:0.133629 5:-1 6:-1 7:-1 8:-1 9:-1 
-1 0:-0.128998 1:0.541525 2:-0.371217 3:-0.685993 4:0.152137 5:-1 6:-1 7:-1 8:-1 9:-1 
-1 0:-0.180219 1:0.544323 2:-0.459675 3:-0.693961 4:0.211322 5:-1 6:-1 7:-1 8:-1 9:-1 
1 0:-0.180219 1:0.504061 2:-0.371217 3:-0.693961 4:0.136837 5:-1 6:-1 7:-1 8:-1 9:-1 
1 0:-0.128998 1:0.504061 2:-0.613545 3:-0.682818 4:0.133629 5:-1 6:-1 7:-1 8:-1 9:-1 
-1 0:-0.180219 1:0.544323 2:-0.410054 3:-0.693961 4:0.186252 5:-1 6:-1 7:-1 8:-1 9:-1 
-1 0:-0.159673 1:0.541525 2:-0.371217 3:-0.700614 4:0.159686 5:-1 6:-1 7:-1 8:-1 9:-1 
-1 0:-0.209101 1:0.570847 2:-0.474132 3:-0.682818 4:0.186252 5:-1 6:-1 7:-1 8:-1 9:-1 
-1 0:-0.180219 1:0.484033 2:-0.459675 3:-0.693961 4:0.133629 5:-1 6:-1 7:-1 8:-1 9:-1 
-1 0:-0.180219 1:0.544323 2:-0.421514 3:-0.693961 4:0.159686 5:-1 6:-1 7:-1 8:-1 9:-1 
1 0:-0.209101 1:0.570847 2:-0.474132 3:-0.682818 4:0.186252 5:-1 6:-1 7:-1 8:-1 9:-1 
1 0:-0.209101 1:0.570847 2:-0.457477 3:-0.682818 4:0.16602 5:-1 6:-1 7:-1 8:-1 9:-1 
-1 0:-0.128998 1:0.504061 2:-0.371217 3:-0.693961 4:0.159686 5:-1 6:-1 7:-1 8:-1 9:-1 
1 0:-0.180219 1:0.504061 2:-0.371217 3:-0.693961 4:0.136837 5:-1 6:-1 7:-1 8:-1 9:-1 
1 0:-0.180219 1:0.544323 2:-0.410054 3:-0.637239 4:0.136837 5:-1 6:-1 7:-1 8:-1 9:-1 
1 0:-0.0937596 1:0.504061 2:-0.613545 3:-0.682818 4:0.16602 5:-1 6:-1 7:-1 8:-1 9:-1 
-1 0:-0.180219 1:0.484033 2:-0.459675 3:-0.65258 4:0.199377 5:-1 6:-1 7:-1 8:-1 9:-1 
1 0:-0.209101 1:0.570847 2:-0.474132 3:-0.682818 4:0.16602 5:-1 6:-1 7:-1 8:-1 9:-1 
1 0:-0.209101 1:0.570847 2:-0.613545 3:-0.682818 4:0.159686 5:-1 6:-1 7:-1 8:-1 9:-1 
1 0:-0.180286 1:0.484033 2:-0.474132 3:-0.682818 4:0.159686 5:-1 6:-1 7:-1 8:-1 9:-1 
1 0:-0.130339 1:0.484033 2:-0.459675 3:-0.770799 4:0.136837 5:-1 6:-1 7:-1 8:-1 9:-1 
-1 0:-0.336835 1:0.504061 2:-0.474132 3:-0.682818 4:0.186252 5:-1 6:-1 7:-1 8:-1 9:-1 
-1 0:-0.180219 1:0.544323 2:-0.486203 3:-0.684781 4:0.186252 5:-1 6:-1 7:-1 8:-1 9:-1 
1 0:-0.130339 1:0.521235 2:-0.474132 3:-0.682818 4:0.133629 5:-1 6:-1 7:-1 8:-1 9:-1 
-1 0:-0.180219 1:0.541525 2:-0.613545 3:-0.700614 4:0.159686 5:-1 6:-1 7:-1 8:-1 9:-1 
-1 0:-0.128998 1:0.504061 2:-0.474132 3:-0.673456 4:0.199377 5:-1 6:-1 7:-1 8:-1 9:-1 
-1 0:-0.128998 1:0.570847 2:-0.613545 3:-0.682818 4:0.118628 5:-1 6:-1 7:-1 8:-1 9:-1 
1 0:-0.180219 1:0.521235 2:-0.428547 3:-0.682818 4:0.186252 5:-1 6:-1 7:-1 8:-1 9:-1 
1 0:-0.130339 1:0.541525 2:-0.371217 3:-0.685993 4:0.136837 5:-1 6:-1 7:-1 8:-1 9:-1 
1 0:-0.180219 1:0.570847 2:-0.453915 3:-0.684781 4:0.199377 5:-1 6:-1 7:-1 8:-1 9:-1 
-1 0:-0.180219 1:0.544323 2:-0.410054 3:-0.700614 4:0.186252 5:-1 6:-1 7:-1 8:-1 9:-1 
-1 0:-0.180219 1:0.521235 2:-0.486203 3:-0.637239 4:0.199377 5:-1 6:-1 7:-1 8:-1 9:-1 
1 0:-0.159673 1:0.504061 2:-0.371217 3:-0.693961 4:0.136837 5:-1 6:-1 7:-1 8:-1 9:-1 
-1 0:-0.180219 1:0.544323 2:-0.613545 3:-0.682818 4:0.159686 5:-1 6:-1 7:-1 8:-1 9:-1 
1 0:-0.209101 1:0.521235 2:-0.406347 3:-0.682818 4:0.133629 5:-1 6:-1 7:-1 8:-1 9:-1 
1 0:-0.128998 1:0.521235 2:-0.613545 3:-0.682818 4:0.186252 5:-1 6:-1 7:-1 8:-1 9:-1 
1 0:-0.12168 1:0.521235 2:-0.421514 3:-0.682818 4:0.17968 5:-1 6:-1 7:-1 8:-1 9:-1 
-1 0:-0.128998 1:0.541525 2:-0.371217 3:-0.693961 4:0.16602 5:-1 6:-1 7:-1 8:-1 9:-1 
1 0:-0.159673 1:0.504061 2:-0.407684 3:-0.682818 4:0.159686 5:-1 6:-1 7:-1 8:-1 9:-1 
1 0:-0.180286 1:0.484033 2:-0.613545 3:-0.682818 4:0.16602 5:-1 6:-1 7:-1 8:-1 9:-1 
1 0:-0.159673 1:0.532873 2:-0.457477 3:-0.682818 4:0.186252 5:-1 6:-1 7:-1 8:-1 9:-1 
1 0:-0.130339 1:0.521235 2:-0.613545 3:-0.682818 4:0.186252 5:-1 6:-1 7:-1 8:-1 9:-1 
1 0:-0.180219 1:0.549832 2:-0.474132 3:-0.682818 4:0.16602 5:-1 6:-1 7:-1 8:-1 9:-1 
-1 0:-0.180219 1:0.484033 2:-0.371217 3:-0.65258 4:0.199377 5:-1 6:-1 7:-1 8:-1 9:-1 
1 0:-0.180286 1:0.493147 2:-0.613545 3:-0.682818 4:0.16602 5:-1 6:-1 7:-1 8:-1 9:-1 
-1 0:-0.180219 1:0.541525 2:-0.371217 3:-0.693961 4:0.199377 5:-1 6:-1 7:-1 8:-1 9:-1 
1 0:-0.159673 1:0.541525 2:-0.453915 3:-0.668836 4:0.199377 5:-1 6:-1 7:-1 8:-1 9:-1 
-1 0:-0.336835 1:0.484033 2:-0.459675 3:-0.693961 4:0.152137 5:-1 6:-1 7:-1 8:-1 9:-1 
1 0:-0.336835 1:0.484033 2:-0.474132 3:-0.682818 4:0.133629 5:-1 6:-1 7:-1 8:-1 9:-1 
-1 0:-0.128998 1:0.484033 2:-0.371217 3:-0.658644 4:0.159686 5:-1 6:-1 7:-1 8:-1 9:-1 
-1 0:-0.159673 1:0.504061 2:-0.613545 3:-0.656601 4:0.186252 5:-1 6:-1 7:-1 8:-1 9:-1 
-1 0:-0.180219 1:0.521235 2:-0.486203 3:-0.65258 4:0.159686 5:-1 6:-1 7:-1 8:-1 9:-1 
-1 0:-0.209101 1:0.527563 2:-0.613545 3:-0.658644 4:0.186252 5:-1 6:-1 7:-1 8:-1 9:-1 
1 0:-0.159673 1:0.541525 2:-0.474132 3:-0.682818 4:0.159686 5:-1 6:-1 7:-1 8:-1 9:-1 
-1 0:-0.180219 1:0.570847 2:-0.474132 3:-0.682818 4:0.186252 5:-1 6:-1 7:-1 8:-1 9:-1 
1 0:-0.180219 1:0.544323 2:-0.459675 3:-0.682818 4:0.133629 5:-1 6:-1 7:-1 8:-1 9:-1 
-1 0:-0.180219 1:0.544323 2:-0.486203 3:-0.637239 4:0.118628 5:-1 6:-1 7:-1 8:-1 9:-1 
-1 0:-0.128998 1:0.541525 2:-0.436928 3:-0.668836 4:0.199377 5:-1 6:-1 7:-1 8:-1 9:-1 
1 0:-0.132716 1:0.549832 2:-0.474132 3:-0.682818 4:0.133629 5:-1 6:-1 7:-1 8:-1 9:-1 
-1 0:-0.130339 1:0.541525 2:-0.371217 3:-0.700614 4:0.159686 5:-1 6:-1 7:-1 8:-1 9:-1 
1 0:-0.144211 1:0.521235 2:-0.428547 3:-0.682818 4:0.186252 5:-1 6:-1 7:-1 8:-1 9:-1 
-1 0:-0.180219 1:0.521235 2:-0.428547 3:-0.693961 4:0.186252 5:-1 6:-1 7:-1 8:-1 9:-1 
-1 0:-0.180219 1:0.532873 2:-0.371217 3:-0.693961 4:0.186252 5:-1 6:-1 7:-1 8:-1 9:-1 
1 0:-0.159673 1:0.484033 2:-0.371217 3:-0.682818 4:0.133629 5:-1 6:-1 7:-1 8:-1 9:-1 
-1 0:-0.159673 1:0.541525 2:-0.459675 3:-0.656601 4:0.159686 5:-1 6:-1 7:-1 8:-1 9:-1 
1 0:-0.336835 1:0.541525 2:-0.457477 3:-0.682818 4:0.16602 5:-1 6:-1 7:-1 8:-1 9:-1 
-1 0:-0.151266 1:0.484033 2:-0.459675 3:-0.658644 4:0.186252 5:-1 6:-1 7:-1 8:-1 9:-1 
-1 0:-0.180219 1:0.521235 2:-0.410054 3:-0.668836 4:0.186252 5:-1 6:-1 7:-1 8:-1 9:-1 
-1 0:-0.180219 1:0.521235 2:-0.474132 3:-0.684781 4:0.159686 5:-1 6:-1 7:-1 8:-1 9:-1 
-1 0:-0.159673 1:0.504061 2:-0.474132 3:-0.656601 4:0.186252 5:-1 6:-1 7:-1 8:-1 9:-1 
-1 0:-0.180219 1:0.504061 2:-0.371217 3:-0.693961 4:0.178476 5:-1 6:-1 7:-1 8:-1 9:-1 
-1 0:-0.166258 1:0.468412 2:-0.518658 3:-0.670037 4:0.0789482 5:-1 6:-1 7:-1 8:-1 9:-1 
1 0:-0.163953 1:0.520563 2:-0.443493 3:-0.718501 4:0.126556 5:-1 6:-1 7:-1 8:-1 9:-1 
-1 0:-0.0452788 1:0.532301 2:-0.443493 3:-0.682953 4:0.10035 5:-1 6:-1 7:-1 8:-1 9:-1 
-1 0:-0.0452788 1:0.468412 2:-0.430725 3:-0.718501 4:0.10035 5:-1 6:-1 7:-1 8:-1 9:-1 
1 0:-0.163953 1:0.516279 2:-0.46533 3:-0.684469 4:0.0789482 5:-1 6:-1 7:-1 8:-1 9:-1 
-1 0:-0.144971 1:0.468412 2:-0.454161 3:-0.670037 4:0.0789482 5:-1 6:-1 7:-1 8:-1 9:-1 
-1 0:-0.168724 1:0.516279 2:-0.518658 3:-0.670037 4:0.10035 5:-1 6:-1 7:-1 8:-1 9:-1 
1 0:-0.217348 1:0.520563 2:-0.46533 3:-0.675807 4:0.0789482 5:-1 6:-1 7:-1 8:-1 9:-1 
1 0:-0.163953 1:0.468412 2:-0.437818 3:-0.684469 4:0.126556 5:-1 6:-1 7:-1 8:-1 9:-1 
1 0:-0.168724 1:0.459885 2:-0.454161 3:-0.678797 4:0.126556 5:-1 6:-1 7:-1 8:-1 9:-1 
-1 0:-0.188163 1:0.516279 2:-0.45691 3:-0.670037 4:0.10035 5:-1 6:-1 7:-1 8:-1 9:-1 
-1 0:-0.0452788 1:0.532301 2:-0.506893 3:-0.682953 4:0.10035 5:-1 6:-1 7:-1 8:-1 9:-1 
1 0:-0.188163 1:0.468412 2:-0.494425 3:-0.718501 4:0.0789482 5:-1 6:-1 7:-1 8:-1 9:-1 
1 0:-0.241183 1:0.520563 2:-0.454161 3:-0.718501 4:0.10035 5:-1 6:-1 7:-1 8:-1 9:-1 
-1 0:-0.0452788 1:0.532301 2:-0.443493 3:-0.682953 4:0.157724 5:-1 6:-1 7:-1 8:-1 9:-1 
1 0:-0.188163 1:0.514423 2:-0.443493 3:-0.673946 4:0.0789482 5:-1 6:-1 7:-1 8:-1 9:-1 
-1 0:-0.0452788 1:0.532301 2:-0.454161 3:-0.678797 4:0.10035 5:-1 6:-1 7:-1 8:-1 9:-1 
-1 0:-0.217348 1:0.468412 2:-0.45691 3:-0.718501 4:0.157724 5:-1 6:-1 7:-1 8:-1 9:-1 
-1 0:-0.168724 1:0.468412 2:-0.45691 3:-0.68911 4:0.199377 5:-1 6:-1 7:-1 8:-1 9:-1 
1 0:-0.163953 1:0.607337 2:-0.437818 3:-0.684469 4:0.126556 5:-1 6:-1 7:-1 8:-1 9:-1 
-1 0:-0.166258 1:0.468412 2:-0.454161 3:-0.684469 4:0.157724 5:-1 6:-1 7:-1 8:-1 9:-1 
-1 0:-0.144971 1:0.468412 2:-0.45691 3:-0.678797 4:0.126556 5:-1 6:-1 7:-1 8:-1 9:-1 
-1 0:-0.188163 1:0.516279 2:-0.506893 3:-0.682953 4:0.10035 5:-1 6:-1 7:-1 8:-1 9:-1 
1 0:-0.188163 1:0.607337 2:-0.443493 3:-0.712017 4:0.0789482 5:-1 6:-1 7:-1 8:-1 9:-1 
-1 0:-0.144971 1:0.516279 2:-0.454161 3:-0.678797 4:0.126556 5:-1 6:-1 7:-1 8:-1 9:-1 
1 0:-0.188163 1:0.607337 2:-0.437818 3:-0.670037 4:0.10035 5:-1 6:-1 7:-1 8:-1 9:-1 
-1 0:-0.163953 1:0.532301 2:-0.454161 3:-0.678797 4:0.157724 5:-1 6:-1 7:-1 8:-1 9:-1 
1 0:-0.166258 1:0.468412 2:-0.437818 3:-0.68911 4:0.199377 5:-1 6:-1 7:-1 8:-1 9:-1 
1 0:-0.160566 1:0.499792 2:-0.45691 3:-0.678797 4:0.0789482 5:-1 6:-1 7:-1 8:-1 9:-1 
-1 0:-0.0452788 1:0.459529 2:-0.430725 3:-0.678797 4:0.10035 5:-1 6:-1 7:-1 8:-1 9:-1 
-1 0:-0.0452788 1:0.532301 2:-0.443493 3:-0.684469 4:0.157724 5:-1 6:-1 7:-1 8:-1 9:-1 
-1 0:-0.168724 1:0.532301 2:-0.443493 3:-0.684469 4:0.0789482 5:-1 6:-1 7:-1 8:-1 9:-1 
1 0:-0.0452788 1:0.520563 2:-0.446618 3:-0.718501 4:0.126556 5:-1 6:-1 7:-1 8:-1 9:-1 
1 0:-0.0452788 1:0.532301 2:-0.46533 3:-0.682953 4:0.0789482 5:-1 6:-1 7:-1 8:-1 9:-1 
-1 0:-0.0452788 1:0.514423 2:-0.506893 3:-0.682953 4:0.10035 5:-1 6:-1 7:-1 8:-1 9:-1 
-1 0:-0.163953 1:0.514423 2:-0.506893 3:-0.718501 4:0.254854 5:-1 6:-1 7:-1 8:-1 9:-1 
-1 0:-0.0452788 1:0.532301 2:-0.45691 3:-0.678797 4:0.0789482 5:-1 6:-1 7:-1 8:-1 9:-1 
-1 0:-0.241183 1:0.508225 2:-0.518658 3:-0.670037 4:0.10035 5:-1 6:-1 7:-1 8:-1 9:-1 
1 0:-0.166258 1:0.532301 2:-0.437818 3:-0.684469 4:0.126556 5:-1 6:-1 7:-1 8:-1 9:-1 
-1 0:-0.0452788 1:0.516279 2:-0.518658 3:-0.678797 4:0.144011 5:-1 6:-1 7:-1 8:-1 9:-1 
-1 0:-0.168724 1:0.532301 2:-0.518658 3:-0.684469 4:0.157724 5:-1 6:-1 7:-1 8:-1 9:-1 
1 0:-0.188163 1:0.516279 2:-0.506893 3:-0.675807 4:0.0789482 5:-1 6:-1 7:-1 8:-1 9:-1 
-1 0:-0.169393 1:0.506149 2:-0.518658 3:-0.718242 4:0.199377 5:-1 6:-1 7:-1 8:-1 9:-1 
-1 0:-0.0452788 1:0.516279 2:-0.454161 3:-0.670037 4:0.10035 5:-1 6:-1 7:-1 8:-1 9:-1 
-1 0:-0.144971 1:0.468412 2:-0.454161 3:-0.684469 4:0.157724 5:-1 6:-1 7:-1 8:-1 9:-1 
-1 0:-0.163953 1:0.607337 2:-0.422271 3:-0.677074 4:0.143409 5:-1 6:-1 7:-1 8:-1 9:-1 
-1 0:-0.0452788 1:0.468412 2:-0.443493 3:-0.718501 4:0.143409 5:-1 6:-1 7:-1 8:-1 9:-1 
1 0:-0.166258 1:0.607337 2:-0.437818 3:-0.718242 4:0.126556 5:-1 6:-1 7:-1 8:-1 9:-1 
-1 0:-0.166258 1:0.499792 2:-0.422271 3:-0.712017 4:0.10035 5:-1 6:-1 7:-1 8:-1 9:-1 
1 0:-0.229854 1:0.520563 2:-0.45691 3:-0.718242 4:0.126556 5:-1 6:-1 7:-1 8:-1 9:-1 
-1 0:-0.0452788 1:0.516279 2:-0.454161 3:-0.718501 4:0.143409 5:-1 6:-1 7:-1 8:-1 9:-1 
-1 0:-0.144971 1:0.516279 2:-0.454161 3:-0.670037 4:0.0785242 5:-1 6:-1 7:-1 8:-1 9:-1 
-1 0:-0.0452788 1:0.532301 2:-0.443493 3:-0.682953 4:0.126556 5:-1 6:-1 7:-1 8:-1 9:-1 
-1 0:-0.168724 1:0.532301 2:-0.443493 3:-0.684469 4:0.157724 5:-1 6:-1 7:-1 8:-1 9:-1 
-1 0:-0.0663525 1:0.530717 2:-0.448266 3:-0.673411 4:0.131451 5:-1 6:-1 7:-1 8:-1 9:-1 
-1 0:-0.165497 1:0.526217 2:-0.388515 3:-0.686114 4:0.199377 5:-1 6:-1 7:-1 8:-1 9:-1 
-1 0:-0.0867203 1:0.512675 2:-0.388515 3:-0.673411 4:0.149137 5:-1 6:-1 7:-1 8:-1 9:-1 
-1 0:-0.165497 1:0.526217 2:-0.424369 3:-0.646773 4:0.199377 5:-1 6:-1 7:-1 8:-1 9:-1 
-1 0:-0.0663525 1:0.530717 2:-0.448266 3:-0.673411 4:0.149137 5:-1 6:-1 7:-1 8:-1 9:-1 
-1 0:-0.0663525 1:0.530717 2:-0.448266 3:-0.668761 4:0.199377 5:-1 6:-1 7:-1 8:-1 9:-1 
-1 0:-0.0663525 1:0.530717 2:-0.440258 3:-0.668761 4:0.17106 5:-1 6:-1 7:-1 8:-1 9:-1 
-1 0:-0.180902 1:0.521297 2:-0.421496 3:-0.668761 4:0.131451 5:-1 6:-1 7:-1 8:-1 9:-1 
-1 0:-0.165497 1:0.530717 2:-0.459895 3:-0.668761 4:0.17106 5:-1 6:-1 7:-1 8:-1 9:-1 
-1 0:-0.153055 1:0.518721 2:-0.463167 3:-0.646773 4:0.17106 5:-1 6:-1 7:-1 8:-1 9:-1 
-1 0:-0.165497 1:0.526217 2:-0.459895 3:-0.646773 4:0.166037 5:-1 6:-1 7:-1 8:-1 9:-1 
-1 0:-0.153055 1:0.518721 2:-0.421496 3:-0.668761 4:0.131451 5:-1 6:-1 7:-1 8:-1 9:-1 
-1 0:-0.153055 1:0.530717 2:-0.448266 3:-0.668761 4:0.131451 5:-1 6:-1 7:-1 8:-1 9:-1 
-1 0:-0.165497 1:0.530717 2:-0.448266 3:-0.633371 4:0.133076 5:-1 6:-1 7:-1 8:-1 9:-1 
-1 0:-0.147076 1:0.512675 2:-0.388515 3:-0.686114 4:0.199377 5:-1 6:-1 7:-1 8:-1 9:-1 
-1 0:-0.171046 1:0.530717 2:-0.415919 3:-0.669819 4:0.149137 5:-1 6:-1 7:-1 8:-1 9:-1 
-1 0:-0.153055 1:0.512675 2:-0.388515 3:-0.668761 4:0.149137 5:-1 6:-1 7:-1 8:-1 9:-1 
-1 0:-0.147076 1:0.532887 2:-0.388515 3:-0.668761 4:0.131451 5:-1 6:-1 7:-1 8:-1 9:-1 
-1 0:-0.138599 1:0.530717 2:-0.448266 3:-0.66495 4:0.131451 5:-1 6:-1 7:-1 8:-1 9:-1 
-1 0:-0.165497 1:0.591476 2:-0.459895 3:-0.646773 4:0.149137 5:-1 6:-1 7:-1 8:-1 9:-1 
-1 0:-0.147076 1:0.537097 2:-0.436846 3:-0.686114 4:0.199377 5:-1 6:-1 7:-1 8:-1 9:-1 
-1 0:-0.165497 1:0.512675 2:-0.388515 3:-0.673411 4:0.131451 5:-1 6:-1 7:-1 8:-1 9:-1 
-1 0:-0.0663525 1:0.503895 2:-0.388515 3:-0.668761 4:0.149137 5:-1 6:-1 7:-1 8:-1 9:-1 
-1 0:-0.165497 1:0.526217 2:-0.424369 3:-0.66495 4:0.152211 5:-1 6:-1 7:-1 8:-1 9:-1 
-1 0:-0.138599 1:0.557787 2:-0.421496 3:-0.668761 4:0.149137 5:-1 6:-1 7:-1 8:-1 9:-1 
-1 0:-0.159591 1:0.512675 2:-0.421496 3:-0.668761 4:0.131451 5:-1 6:-1 7:-1 8:-1 9:-1 
-1 0:-0.165497 1:0.591476 2:-0.424369 3:-0.669819 4:0.149137 5:-1 6:-1 7:-1 8:-1 9:-1 
-1 0:-0.0663525 1:0.537097 2:-0.421496 3:-0.675291 4:0.199377 5:-1 6:-1 7:-1 8:-1 9:-1 
-1 0:-0.0663525 1:0.530717 2:-0.440258 3:-0.669819 4:0.17106 5:-1 6:-1 7:-1 8:-1 9:-1 
-1 0:-0.0663525 1:0.530717 2:-0.448266 3:-0.669819 4:0.17106 5:-1 6:-1 7:-1 8:-1 9:-1 
-1 0:-0.165497 1:0.526217 2:-0.421496 3:-0.668761 4:0.17106 5:-1 6:-1 7:-1 8:-1 9:-1 
-1 0:-0.165497 1:0.530717 2:-0.415919 3:-0.66495 4:0.131451 5:-1 6:-1 7:-1 8:-1 9:-1 
-1 0:-0.153055 1:0.530717 2:-0.448266 3:-0.687917 4:0.131451 5:-1 6:-1 7:-1 8:-1 9:-1 
-1 0:-0.153055 1:0.530717 2:-0.448266 3:-0.646773 4:0.131451 5:-1 6:-1 7:-1 8:-1 9:-1 
-1 0:-0.165497 1:0.526217 2:-0.424369 3:-0.679705 4:0.133076 5:-1 6:-1 7:-1 8:-1 9:-1 
-1 0:-0.165497 1:0.591476 2:-0.388515 3:-0.668761 4:0.149137 5:-1 6:-1 7:-1 8:-1 9:-1 
-1 0:-0.165497 1:0.530717 2:-0.459895 3:-0.668761 4:0.17106 5:-1 6:-1 7:-1 8:-1 9:-1 
-1 0:-0.0663525 1:0.530717 2:-0.459895 3:-0.66495 4:0.149137 5:-1 6:-1 7:-1 8:-1 9:-1 
-1 0:-0.153055 1:0.512675 2:-0.421496 3:-0.646773 4:0.149137 5:-1 6:-1 7:-1 8:-1 9:-1 
-1 0:-0.0663525 1:0.530717 2:-0.415919 3:-0.686114 4:0.199377 5:-1 6:-1 7:-1 8:-1 9:-1 
-1 0:-0.153055 1:0.530717 2:-0.448266 3:-0.646773 4:0.149137 5:-1 6:-1 7:-1 8:-1 9:-1 
-1 0:-0.180902 1:0.530717 2:-0.448266 3:-0.66495 4:0.152211 5:-1 6:-1 7:-1 8:-1 9:-1 
-1 0:-0.0867203 1:0.512675 2:-0.463167 3:-0.646773 4:0.149137 5:-1 6:-1 7:-1 8:-1 9:-1 
-1 0:-0.151129 1:0.512675 2:-0.388515 3:-0.673411 4:0.131451 5:-1 6:-1 7:-1 8:-1 9:-1 
-1 0:-0.165497 1:0.526217 2:-0.459895 3:-0.646773 4:0.166037 5:-1 6:-1 7:-1 8:-1 9:-1 
-1 0:-0.165497 1:0.521297 2:-0.448266 3:-0.66495 4:0.159809 5:-1 6:-1 7:-1 8:-1 9:-1 
-1 0:-0.153055 1:0.530717 2:-0.388515 3:-0.668761 4:0.131451 5:-1 6:-1 7:-1 8:-1 9:-1 
-1 0:-0.165497 1:0.591476 2:-0.424369 3:-0.646773 4:0.17106 5:-1 6:-1 7:-1 8:-1 9:-1 
-1 0:-0.165497 1:0.526217 2:-0.448266 3:-0.66495 4:0.17106 5:-1 6:-1 7:-1 8:-1 9:-1 
-1 0:-0.165497 1:0.526217 2:-0.424369 3:-0.679705 4:0.235931 5:-1 6:-1 7:-1 8:-1 9:-1 
-1 0:-0.165497 1:0.526217 2:-0.448266 3:-0.66495 4:0.131451 5:-1 6:-1 7:-1 8:-1 9:-1 
-1 0:-0.147076 1:0.512675 2:-0.421496 3:-0.668761 4:0.195742 5:-1 6:-1 7:-1 8:-1 9:-1 
-1 0:-0.165497 1:0.591476 2:-0.440258 3:-0.661876 4:0.131451 5:-1 6:-1 7:-1 8:-1 9:-1 
-1 0:-0.165497 1:0.526217 2:-0.415919 3:-0.62218 4:0.149137 5:-1 6:-1 7:-1 8:-1 9:-1 
-1 0:-0.0663525 1:0.530717 2:-0.463167 3:-0.646773 4:0.166037 5:-1 6:-1 7:-1 8:-1 9:-1 
-1 0:-0.163014 1:0.512675 2:-0.421496 3:-0.668761 4:0.17106 5:-1 6:-1 7:-1 8:-1 9:-1 
-1 0:-0.0663525 1:0.512675 2:-0.388515 3:-0.673411 4:0.17106 5:-1 6:-1 7:-1 8:-1 9:-1 
-1 0:-0.180902 1:0.530717 2:-0.436846 3:-0.668761 4:0.195742 5:-1 6:-1 7:-1 8:-1 9:-1 
-1 0:-0.165497 1:0.591476 2:-0.388515 3:-0.668761 4:0.199377 5:-1 6:-1 7:-1 8:-1 9:-1 
-1 0:-0.171046 1:0.503895 2:-0.43033 3:-0.668761 4:0.149137 5:-1 6:-1 7:-1 8:-1 9:-1 
-1 0:-0.171046 1:0.503895 2:-0.388515 3:-0.668761 4:0.149137 5:-1 6:-1 7:-1 8:-1 9:-1 
-1 0:-0.165497 1:0.512675 2:-0.463167 3:-0.646773 4:0.17106 5:-1 6:-1 7:-1 8:-1 9:-1 
-1 0:-0.138599 1:0.576145 2:-0.448266 3:-0.66495 4:0.131451 5:-1 6:-1 7:-1 8:-1 9:-1 
-1 0:-0.147076 1:0.512675 2:-0.463167 3:-0.646773 4:0.149137 5:-1 6:-1 7:-1 8:-1 9:-1 
-1 0:-0.165497 1:0.591476 2:-0.388515 3:-0.668761 4:0.17106 5:-1 6:-1 7:-1 8:-1 9:-1 
-1 0:-0.165497 1:0.526217 2:-0.463167 3:-0.62218 4:0.149137 5:-1 6:-1 7:-1 8:-1 9:-1 
-1 0:-0.0663525 1:0.537097 2:-0.388515 3:-0.668761 4:0.149137 5:-1 6:-1 7:-1 8:-1 9:-1 
-1 0:-0.240438 1:0.498009 2:-0.440831 3:-0.69149 4:0.101579 5:-1 6:-1 7:-1 8:-1 9:-1 
-1 0:-0.240438 1:0.491701 2:-0.488334 3:-0.675607 4:0.122666 5:-1 6:-1 7:-1 8:-1 9:-1 
-1 0:-0.157538 1:0.460445 2:-0.476712 3:-0.675607 4:0.124728 5:-1 6:-1 7:-1 8:-1 9:-1 
-1 0:-0.163589 1:0.491198 2:-0.469649 3:-0.704393 4:0.105837 5:-1 6:-1 7:-1 8:-1 9:-1 
-1 0:-0.240438 1:0.518288 2:-0.434799 3:-0.69149 4:0.17241 5:-1 6:-1 7:-1 8:-1 9:-1 
-1 0:-0.240438 1:0.498009 2:-0.488334 3:-0.66105 4:0.124728 5:-1 6:-1 7:-1 8:-1 9:-1 
-1 0:-0.179804 1:0.518288 2:-0.434799 3:-0.701788 4:0.101579 5:-1 6:-1 7:-1 8:-1 9:-1 
-1 0:-0.190532 1:0.518288 2:-0.476712 3:-0.701788 4:0.17241 5:-1 6:-1 7:-1 8:-1 9:-1 
-1 0:-0.240438 1:0.498009 2:-0.476046 3:-0.66105 4:0.124728 5:-1 6:-1 7:-1 8:-1 9:-1 
-1 0:-0.198912 1:0.522843 2:-0.41442 3:-0.704393 4:0.124728 5:-1 6:-1 7:-1 8:-1 9:-1 
-1 0:-0.198912 1:0.518288 2:-0.469649 3:-0.66105 4:0.105837 5:-1 6:-1 7:-1 8:-1 9:-1 
-1 0:-0.19958 1:0.522843 2:-0.469649 3:-0.675607 4:0.124728 5:-1 6:-1 7:-1 8:-1 9:-1 
-1 0:-0.190532 1:0.480037 2:-0.476046 3:-0.704393 4:0.124728 5:-1 6:-1 7:-1 8:-1 9:-1 
-1 0:-0.171127 1:0.496531 2:-0.493061 3:-0.701788 4:0.199377 5:-1 6:-1 7:-1 8:-1 9:-1 
-1 0:-0.171127 1:0.518288 2:-0.41442 3:-0.690228 4:0.199377 5:-1 6:-1 7:-1 8:-1 9:-1 
-1 0:-0.179804 1:0.478855 2:-0.434799 3:-0.701788 4:0.17241 5:-1 6:-1 7:-1 8:-1 9:-1 
-1 0:-0.171127 1:0.498009 2:-0.491496 3:-0.675607 4:0.101579 5:-1 6:-1 7:-1 8:-1 9:-1 
-1 0:-0.171127 1:0.506083 2:-0.469649 3:-0.66105 4:0.124728 5:-1 6:-1 7:-1 8:-1 9:-1 
-1 0:-0.157538 1:0.491701 2:-0.476712 3:-0.675607 4:0.124728 5:-1 6:-1 7:-1 8:-1 9:-1 
-1 0:-0.171127 1:0.538229 2:-0.493061 3:-0.675607 4:0.105837 5:-1 6:-1 7:-1 8:-1 9:-1 
-1 0:-0.171127 1:0.460445 2:-0.491496 3:-0.66105 4:0.124728 5:-1 6:-1 7:-1 8:-1 9:-1 
-1 0:-0.179804 1:0.460445 2:-0.469649 3:-0.675607 4:0.124728 5:-1 6:-1 7:-1 8:-1 9:-1 
-1 0:-0.215979 1:0.522843 2:-0.488334 3:-0.675607 4:0.122666 5:-1 6:-1 7:-1 8:-1 9:-1 
-1 0:-0.171127 1:0.480037 2:-0.476712 3:-0.66105 4:0.101579 5:-1 6:-1 7:-1 8:-1 9:-1 
-1 0:-0.240438 1:0.498009 2:-0.476046 3:-0.66105 4:0.122666 5:-1 6:-1 7:-1 8:-1 9:-1 
-1 0:-0.171127 1:0.460445 2:-0.467692 3:-0.695383 4:0.124728 5:-1 6:-1 7:-1 8:-1 9:-1 
-1 0:-0.179804 1:0.491701 2:-0.467692 3:-0.704393 4:0.122666 5:-1 6:-1 7:-1 8:-1 9:-1 
-1 0:-0.171127 1:0.51089 2:-0.476046 3:-0.701788 4:0.122666 5:-1 6:-1 7:-1 8:-1 9:-1 
-1 0:-0.179804 1:0.460445 2:-0.476046 3:-0.69149 4:0.102989 5:-1 6:-1 7:-1 8:-1 9:-1 
-1 0:-0.179804 1:0.512614 2:-0.41442 3:-0.69149 4:0.101579 5:-1 6:-1 7:-1 8:-1 9:-1 
-1 0:-0.179804 1:0.498009 2:-0.434799 3:-0.703531 4:0.17241 5:-1 6:-1 7:-1 8:-1 9:-1 
-1 0:-0.215979 1:0.522843 2:-0.469649 3:-0.675607 4:0.124728 5:-1 6:-1 7:-1 8:-1 9:-1 
-1 0:-0.190532 1:0.480037 2:-0.434799 3:-0.701788 4:0.17241 5:-1 6:-1 7:-1 8:-1 9:-1 
-1 0:-0.179804 1:0.51089 2:-0.467692 3:-0.701788 4:0.124728 5:-1 6:-1 7:-1 8:-1 9:-1 
-1 0:-0.179804 1:0.460445 2:-0.467692 3:-0.69149 4:0.141853 5:-1 6:-1 7:-1 8:-1 9:-1 
-1 0:-0.179804 1:0.518288 2:-0.469649 3:-0.66105 4:0.102989 5:-1 6:-1 7:-1 8:-1 9:-1 
-1 0:-0.179804 1:0.498009 2:-0.434799 3:-0.701788 4:0.199377 5:-1 6:-1 7:-1 8:-1 9:-1 
-1 0:-0.179804 1:0.498009 2:-0.434799 3:-0.675607 4:0.17241 5:-1 6:-1 7:-1 8:-1 9:-1 
-1 0:-0.179804 1:0.460445 2:-0.434799 3:-0.701788 4:0.199377 5:-1 6:-1 7:-1 8:-1 9:-1 
-1 0:-0.198912 1:0.522843 2:-0.488334 3:-0.675607 4:0.124728 5:-1 6:-1 7:-1 8:-1 9:-1 
-1 0:-0.240438 1:0.491701 2:-0.491496 3:-0.690411 4:0.17241 5:-1 6:-1 7:-1 8:-1 9:-1 
-1 0:-0.179804 1:0.478855 2:-0.41442 3:-0.69149 4:0.148621 5:-1 6:-1 7:-1 8:-1 9:-1 
-1 0:-0.179804 1:0.512614 2:-0.517445 3:-0.66105 4:0.124728 5:-1 6:-1 7:-1 8:-1 9:-1 
-1 0:-0.190532 1:0.480037 2:-0.434799 3:-0.701788 4:0.101579 5:-1 6:-1 7:-1 8:-1 9:-1 
-1 0:-0.240438 1:0.491701 2:-0.491496 3:-0.701788 4:0.17241 5:-1 6:-1 7:-1 8:-1 9:-1 
-1 0:-0.190532 1:0.522843 2:-0.488334 3:-0.704393 4:0.124728 5:-1 6:-1 7:-1 8:-1 9:-1 
-1 0:-0.173418 1:0.491701 2:-0.440831 3:-0.690411 4:0.17241 5:-1 6:-1 7:-1 8:-1 9:-1 
-1 0:-0.240438 1:0.491701 2:-0.467692 3:-0.69149 4:0.17241 5:-1 6:-1 7:-1 8:-1 9:-1 
-1 0:-0.179804 1:0.498009 2:-0.434799 3:-0.69149 4:0.101579 5:-1 6:-1 7:-1 8:-1 9:-1 
-1 0:-0.240438 1:0.498009 2:-0.488334 3:-0.675607 4:0.124728 5:-1 6:-1 7:-1 8:-1 9:-1 
-1 0:-0.163589 1:0.522843 2:-0.493061 3:-0.66105 4:0.105837 5:-1 6:-1 7:-1 8:-1 9:-1 
-1 0:-0.179804 1:0.491198 2:-0.467692 3:-0.672282 4:0.105837 5:-1 6:-1 7:-1 8:-1 9:-1 
-1 0:-0.179804 1:0.460445 2:-0.467692 3:-0.69149 4:0.141853 5:-1 6:-1 7:-1 8:-1 9:-1 
-1 0:-0.173418 1:0.498009 2:-0.491496 3:-0.66105 4:0.101579 5:-1 6:-1 7:-1 8:-1 9:-1 
-1 0:-0.179804 1:0.491701 2:-0.434799 3:-0.701788 4:0.148621 5:-1 6:-1 7:-1 8:-1 9:-1 
-1 0:-0.240438 1:0.498009 2:-0.434799 3:-0.701788 4:0.148621 5:-1 6:-1 7:-1 8:-1 9:-1 
-1 0:-0.240438 1:0.491701 2:-0.440831 3:-0.690228 4:0.199377 5:-1 6:-1 7:-1 8:-1 9:-1 
-1 0:-0.171127 1:0.460445 2:-0.467692 3:-0.69149 4:0.105837 5:-1 6:-1 7:-1 8:-1 9:-1 
-1 0:-0.198912 1:0.491198 2:-0.440831 3:-0.704393 4:0.124728 5:-1 6:-1 7:-1 8:-1 9:-1 
-1 0:-0.171127 1:0.460445 2:-0.467692 3:-0.701788 4:0.122666 5:-1 6:-1 7:-1 8:-1 9:-1 
-1 0:-0.171127 1:0.491198 2:-0.469649 3:-0.675607 4:0.199377 5:-1 6:-1 7:-1 8:-1 9:-1 
-1 0:-0.190532 1:0.538229 2:-0.488334 3:-0.675607 4:0.124728 5:-1 6:-1 7:-1 8:-1 9:-1 
-1 0:-0.179804 1:0.460445 2:-0.467692 3:-0.695383 4:0.105837 5:-1 6:-1 7:-1 8:-1 9:-1 
-1 0:-0.240438 1:0.498009 2:-0.476046 3:-0.675607 4:0.17241 5:-1 6:-1 7:-1 8:-1 9:-1 
-1 0:-0.240438 1:0.498009 2:-0.476046 3:-0.675607 4:0.105837 5:-1 6:-1 7:-1 8:-1 9:-1 
-1 0:-0.19958 1:0.460445 2:-0.467692 3:-0.672282 4:0.139796 5:-1 6:-1 7:-1 8:-1 9:-1 
