svm_type nu_svr
kernel_type rbf
gamma 0.111111
nr_class 2
total_sv 149
rho -0.00300474
SV
-0.807344127296148 0:0.0751463 1:-0.241725 2:-0.241725 3:-0.340855 4:-0.241725 5:-0.469388 1:-0.241725 2:-0.241725 3:-0.340855 4:-0.241725 5:-1 6:-0.870968 2:-0.241725 3:-0.340855 4:-0.241725 5:-1 6:-1 7:-0.347826 3:-0.709887 4:-0.241725 5:-1 6:-1 7:-1 8:-0.707865 4:-0.241725 5:-1 6:-1 7:-1 8:-1 9:-0.157895 
0.6109302427317506 0:-0.608781 1:-0.241725 2:-0.241725 3:-0.340855 4:-0.241725 5:-0.959184 1:-0.57041 2:-0.241725 3:-0.340855 4:-0.241725 5:-1 6:-0.268817 2:-0.241725 3:-0.340855 4:-0.241725 5:-1 6:-1 7:-0.130435 3:-0.340855 4:-0.241725 5:-1 6:-1 7:-1 8:-0.820225 4:-0.389547 5:-1 6:-1 7:-1 8:-1 9:-0.747368 
-0.430873569163557 0:0.0751463 1:-0.241725 2:-0.241725 3:-0.340855 4:-0.241725 5:0.0816327 1:-0.241725 2:-0.241725 3:-0.340855 4:-0.241725 5:-1 6:-0.505376 2:-0.328695 3:-0.340855 4:-0.241725 5:-1 6:-1 7:-0.608696 3:-0.641315 4:-0.241725 5:-1 6:-1 7:-1 8:-0.438202 4:-0.241725 5:-1 6:-1 7:-1 8:-1 9:-0.642105 
0.0459077710303268 0:0.0751463 1:-0.241725 2:-0.241725 3:-0.340855 4:-0.241725 5:-0.469388 1:1 2:-0.241725 3:-0.340855 4:-0.241725 5:-1 6:-0.677419 2:-0.241725 3:-0.340855 4:-0.241725 5:-1 6:-1 7:-0.673913 3:-0.340855 4:-0.241725 5:-1 6:-1 7:-1 8:-0.235955 9:-1 
-0.009872546825635523 0:0.0751463 1:-0.241725 2:-0.241725 3:-0.340855 4:-0.241725 5:-0.469388 1:-0.829729 2:-0.241725 3:-0.340855 4:-0.241725 5:-1 6:0.505376 2:-0.241725 3:-0.340855 4:-0.241725 5:-1 6:-1 7:-0.673913 3:-0.340855 4:-0.241725 5:-1 6:-1 7:-1 8:-0.932584 4:-0.583475 5:-1 6:-1 7:-1 8:-1 9:-0.726316 
-1 0:0.0751463 1:-0.241725 2:-0.241725 3:-0.340855 4:-0.241725 5:-0.653061 1:-0.241725 2:-0.241725 3:-0.340855 4:-0.241725 5:-1 6:-0.827957 2:-0.241725 3:-0.340855 4:-0.241725 5:-1 6:-1 7:-0.521739 3:-0.340855 4:-0.241725 5:-1 6:-1 7:-1 8:-0.213483 4:-0.241725 5:-1 6:-1 7:-1 8:-1 9:-0.642105 
1 0:0.0751463 1:-0.241725 2:-0.241725 3:-0.340855 4:-0.241725 5:-0.857143 1:-0.241725 2:-0.241725 3:-0.340855 4:-0.241725 5:-1 6:0.913978 2:-0.241725 3:-0.340855 4:-0.241725 5:-1 6:-1 7:-0.5 3:-0.340855 4:-0.241725 5:-1 6:-1 7:-1 8:-0.595506 4:-0.241725 5:-1 6:-1 7:-1 8:-1 9:-0.305263 
1 0:-0.486145 1:-0.241725 2:-0.241725 3:-0.340855 4:-0.241725 5:-0.428571 1:-0.241725 2:-0.241725 3:-0.340855 4:-0.241725 5:-1 6:-1 2:-0.241725 3:-0.340855 4:-0.241725 5:-1 6:-1 7:0.0217391 3:-0.340855 4:-0.241725 5:-1 6:-1 7:-1 8:-0.52809 4:-0.648958 5:-1 6:-1 7:-1 8:-1 9:-0.831579 
-0.2373212133151953 0:0.0751463 1:-0.241725 2:-0.241725 3:-0.340855 4:-0.241725 5:0.897959 1:-0.241725 2:-0.241725 3:-0.340855 4:-0.241725 5:-1 6:-0.741935 2:-0.241725 3:-0.340855 4:-0.241725 5:-1 6:-1 7:-0.913043 3:-0.340855 4:-0.241725 5:-1 6:-1 7:-1 8:0.258427 4:-0.241725 5:-1 6:-1 7:-1 8:-1 9:-0.115789 
1 0:0.0751463 1:-0.241725 2:-0.241725 3:-0.340855 4:-0.241725 5:-0.918367 1:-0.241725 2:-0.241725 3:-0.340855 4:-0.241725 5:-1 6:0.397849 2:-0.207395 3:-0.340855 4:-0.241725 5:-1 6:-1 7:-0.173913 3:-0.340855 4:-0.241725 5:-1 6:-1 7:-1 8:0.325843 4:-0.241725 5:-1 6:-1 7:-1 8:-1 9:-1 
1 0:0.0751463 1:-0.241725 2:-0.241725 3:-0.340855 4:-0.241725 5:0.469388 1:-0.241725 2:-0.241725 3:-0.340855 4:-0.241725 5:-1 6:-0.462366 2:-0.241725 3:-0.340855 4:-0.241725 5:-1 6:-1 7:-0.413043 3:-0.674387 4:-0.241725 5:-1 6:-1 7:-1 8:-0.303371 4:-0.241725 5:-1 6:-1 7:-1 8:-1 9:-0.663158 
1 0:0.0751463 1:-0.241725 2:-0.241725 3:-0.340855 4:-0.241725 5:-0.591837 1:-0.241725 2:-0.241725 3:-0.340855 4:-0.241725 5:-1 6:-0.763441 2:-0.241725 3:-0.340855 4:-0.241725 5:-1 6:-1 7:-0.934783 3:-0.603452 4:-0.241725 5:-1 6:-1 7:-1 8:-0.0337079 4:-0.648958 5:-1 6:-1 7:-1 8:-1 9:-0.831579 
-0.6963555714440515 0:0.0751463 1:-0.241725 2:-0.241725 3:-0.340855 4:-0.241725 5:-0.857143 1:-0.241725 2:-0.241725 3:-0.340855 4:-0.241725 5:-1 6:-0.913978 2:-0.16925 3:-0.340855 4:-0.241725 5:-1 6:-1 7:0.5 3:-0.340855 4:-0.241725 5:-1 6:-1 7:-1 8:-0.617978 4:-0.241725 5:-1 6:-1 7:-1 8:-1 9:-0.894737 
-0.4827186114618746 0:0.0751463 1:-0.241725 2:-0.241725 3:-0.340855 4:-0.241725 5:-0.938776 1:-0.241725 2:-0.241725 3:-0.340855 4:-0.241725 5:-1 6:-0.849462 2:-0.519972 3:-0.340855 4:-0.241725 5:-1 6:-1 7:-0.456522 3:-0.340855 4:-0.241725 5:-1 6:-1 7:-1 8:1 4:-0.241725 5:-1 6:-1 7:-1 8:-1 9:-0.536842 
-0.1797820722553277 0:-0.9346 1:-0.241725 2:-0.241725 3:-0.340855 4:-0.241725 5:-0.0204082 1:-0.241725 2:-0.241725 3:-0.340855 4:-0.241725 5:-1 6:-0.935484 2:-0.241725 3:-0.340855 4:-0.241725 5:-1 6:-1 7:-0.717391 3:-0.340855 4:-0.241725 5:-1 6:-1 7:-1 8:-0.865169 4:-0.241725 5:-1 6:-1 7:-1 8:-1 9:-0.642105 
-1 0:-0.263348 1:-0.241725 2:-0.241725 3:-0.340855 4:-0.241725 5:0.0408163 1:-0.241725 2:-0.241725 3:-0.340855 4:-0.241725 5:-1 6:-0.806452 2:-0.241725 3:-0.340855 4:-0.241725 5:-1 6:-1 7:-0.565217 3:-0.340855 4:-0.241725 5:-1 6:-1 7:-1 8:-0.573034 4:-0.241725 5:-1 6:-1 7:-1 8:-1 9:-0.326316 
-0.7767956584833051 0:0.0751463 1:-0.241725 2:-0.241725 3:-0.340855 4:-0.241725 5:-0.510204 1:-0.270923 2:-0.241725 3:-0.340855 4:-0.241725 5:-1 6:-0.634409 2:-0.241725 3:-0.340855 4:-0.241725 5:-1 6:-1 7:-0.173913 3:-0.340855 4:-0.241725 5:-1 6:-1 7:-1 8:0.0337079 4:-0.241725 5:-1 6:-1 7:-1 8:-1 9:-0.410526 
1 0:-0.571869 1:-0.241725 2:-0.241725 3:-0.340855 4:-0.241725 5:0.489796 1:-0.241725 2:-0.241725 3:-0.340855 4:-0.241725 5:-1 6:-0.806452 2:-0.205488 3:-0.340855 4:-0.241725 5:-1 6:-1 7:0.152174 3:-0.340855 4:-0.241725 5:-1 6:-1 7:-1 8:-0.146067 4:-0.241725 5:-1 6:-1 7:-1 8:-1 9:0.0736842 
1 0:0.0751463 1:-0.241725 2:-0.241725 3:-0.340855 4:-0.241725 5:-1 1:-0.5978 2:-0.241725 3:-0.340855 4:-0.241725 5:-1 6:0.0967742 2:-0.766508 3:-0.340855 4:-0.241725 5:-1 6:-1 7:-0.630435 3:-0.340855 4:-0.241725 5:-1 6:-1 7:-1 8:-0.011236 4:-0.207395 5:-1 6:-1 7:-1 8:-1 9:-0.578947 
1 0:0.0751463 1:-0.241725 2:-0.241725 3:-0.340855 4:-0.241725 5:-1 1:-0.241725 2:-0.241725 3:-0.340855 4:-0.241725 5:-1 6:0.397849 2:-0.241725 3:-0.340855 4:-0.241725 5:-1 6:-1 7:-0.565217 3:-0.340855 4:-0.241725 5:-1 6:-1 7:-1 8:-0.303371 4:-0.241725 5:-1 6:-1 7:-1 8:-1 9:-0.642105 
0.05394449759978365 0:-0.494332 1:-0.241725 2:-0.241725 3:-0.340855 4:-0.241725 5:-0.795918 1:-0.241725 2:-0.241725 3:-0.340855 4:-0.241725 5:-1 6:1 2:-0.241725 3:-0.340855 4:-0.241725 5:-1 6:-1 7:-0.5 3:-0.340855 4:-0.241725 5:-1 6:-1 7:-1 8:-0.820225 4:-0.241725 5:-1 6:-1 7:-1 8:-1 9:-0.347368 
-0.1050354124862946 0:-0.302383 1:-0.241725 2:-0.241725 3:-0.340855 4:-0.241725 5:-0.877551 1:-0.241725 2:-0.241725 3:-0.340855 4:-0.241725 5:-1 6:-0.44086 2:-0.766508 3:-0.340855 4:-0.241725 5:-1 6:-1 7:-0.630435 3:-0.490795 4:-0.241725 5:-1 6:-1 7:-1 8:0.348315 4:-0.241725 5:-1 6:-1 7:-1 8:-1 9:-1 
1 0:0.0751463 1:-0.241725 2:-0.241725 3:-0.340855 4:-0.241725 5:-0.734694 1:-0.241725 2:-0.241725 3:-0.340855 4:-0.241725 5:-1 6:-0.268817 2:-0.241725 3:-0.340855 4:-0.241725 5:-1 6:-1 7:-0.978261 3:-0.340855 4:-0.241725 5:-1 6:-1 7:-1 8:-0.797753 4:-0.367937 5:-1 6:-1 7:-1 8:-1 9:-0.768421 
1 0:0.126527 1:-0.241725 2:-0.241725 3:-0.340855 4:-0.241725 5:0.0816327 1:-0.241725 2:-0.241725 3:-0.340855 4:-0.241725 5:-1 6:-0.204301 2:-0.241725 3:-0.340855 4:-0.241725 5:-1 6:-1 7:-0.543478 3:-0.340855 4:-0.241725 5:-1 6:-1 7:-1 8:-0.662921 4:-0.241725 5:-1 6:-1 7:-1 8:-1 9:-0.831579 
-0.3032016178828136 0:-0.484031 1:-0.241725 2:-0.241725 3:-0.340855 4:-0.241725 5:-0.530612 1:-0.380754 2:-0.241725 3:-0.340855 4:-0.241725 5:-1 6:-0.268817 2:-0.526928 3:-0.340855 4:-0.241725 5:-1 6:-1 7:-0.434783 3:-0.340855 4:-0.241725 5:-1 6:-1 7:-1 8:-0.303371 4:-0.241725 5:-1 6:-1 7:-1 8:-1 9:-0.389474 
-1 0:0.0751463 1:-0.241725 2:-0.241725 3:-0.340855 4:-0.241725 5:-0.285714 1:-0.241725 2:-0.241725 3:-0.340855 4:-0.241725 5:-1 6:-0.204301 2:-0.496612 3:-0.340855 4:-0.241725 5:-1 6:-1 7:-0.695652 3:-0.340855 4:-0.241725 5:-1 6:-1 7:-1 8:-0.595506 4:-0.241725 5:-1 6:-1 7:-1 8:-1 9:-0.431579 
-1 0:0.0751463 1:-0.241725 2:-0.241725 3:-0.340855 4:-0.241725 5:-0.77551 1:-0.241725 2:-0.241725 3:-0.340855 4:-0.241725 5:-1 6:-0.612903 2:-0.241725 3:-0.340855 4:-0.241725 5:-1 6:-1 7:-0.826087 3:-0.340855 4:-0.241725 5:-1 6:-1 7:-1 8:-0.865169 4:-0.241725 5:-1 6:-1 7:-1 8:-1 9:-0.0526316 
-0.01832313935669543 0:1 1:-0.241725 2:-0.241725 3:-0.340855 4:-0.241725 1:-0.371363 2:-0.241725 3:-0.340855 4:-0.241725 5:-1 6:0.0752688 2:-0.241725 3:-0.340855 4:-0.241725 5:-1 6:-1 7:0.0217391 3:-0.286674 4:-0.241725 5:-1 6:-1 7:-1 8:0.258427 4:-0.241725 5:-1 6:-1 7:-1 8:-1 9:-0.410526 
-0.3199601099195067 0:0.0751463 1:-0.241725 2:-0.241725 3:-0.340855 4:-0.241725 5:-0.857143 1:-0.241725 2:-0.241725 3:-0.340855 4:-0.241725 5:-1 6:-0.225806 2:-0.379411 3:-0.340855 4:-0.241725 5:-1 6:-1 7:-0.304348 3:-0.340855 4:-0.241725 5:-1 6:-1 7:-1 8:-1 4:1 5:-1 6:-1 7:-1 8:-1 9:-0.894737 
-0.1331133167721849 0:-0.1176 1:-0.241725 2:-0.241725 3:-0.340855 4:-0.241725 5:-0.326531 1:-0.719707 2:-0.241725 3:-0.340855 4:-0.241725 5:-1 6:-0.419355 2:0.0496598 3:-0.340855 4:-0.241725 5:-1 6:-1 7:-0.586957 3:-0.340855 4:-0.241725 5:-1 6:-1 7:-1 8:-0.483146 4:-0.241725 5:-1 6:-1 7:-1 8:-1 9:-0.663158 
-1 0:0.0751463 1:-0.241725 2:-0.241725 3:-0.340855 4:-0.241725 5:0.346939 1:-0.241725 2:-0.241725 3:-0.340855 4:-0.241725 5:-1 6:-0.290323 2:-0.241725 3:-0.340855 4:-0.241725 5:-1 6:-1 7:-0.826087 3:-0.340855 4:-0.241725 5:-1 6:-1 7:-1 8:-0.191011 4:-0.241725 5:-1 6:-1 7:-1 8:-1 9:-0.852632 
-0.2059009732818504 0:0.0751463 1:-0.241725 2:-0.241725 3:-0.340855 4:-0.241725 5:-0.897959 1:-0.241725 2:-0.241725 3:-0.340855 4:-0.241725 5:-1 6:-0.268817 2:-0.379411 3:-0.340855 4:-0.241725 5:-1 6:-1 7:-0.304348 3:-0.340855 4:-0.241725 5:-1 6:-1 7:-1 8:-0.752809 4:-0.241725 5:-1 6:-1 7:-1 8:-1 9:-0.410526 
-0.01665124743848104 0:0.0751463 1:-0.241725 2:-0.241725 3:-0.340855 4:-0.241725 5:-0.55102 1:-0.241725 2:-0.241725 3:-0.340855 4:-0.241725 5:-1 6:-0.526882 2:-0.241725 3:-0.340855 4:-0.241725 5:-1 6:-1 7:0.826087 3:-0.340855 4:-0.241725 5:-1 6:-1 7:-1 8:-0.977528 4:-0.19155 5:-1 6:-1 7:-1 8:-1 9:0.178947 
-1 0:-0.111639 1:-0.241725 2:-0.241725 3:-0.340855 4:-0.241725 5:-1 1:-0.480457 2:-0.241725 3:-0.340855 4:-0.241725 5:-1 6:0.0967742 2:-0.241725 3:-0.340855 4:-0.241725 5:-1 6:-1 7:0.478261 3:-0.340855 4:-0.241725 5:-1 6:-1 7:-1 8:-0.438202 4:-0.353703 5:-1 6:-1 7:-1 8:-1 9:-0.136842 
-0.7493566442212938 0:0.0751463 1:-0.241725 2:-0.241725 3:-0.340855 4:-0.241725 5:0.142857 1:-0.241725 2:-0.241725 3:-0.340855 4:-0.241725 5:-1 6:-0.784946 2:-0.241725 3:-0.340855 4:-0.241725 5:-1 6:-1 7:-0.652174 3:-0.340855 4:-0.241725 5:-1 6:-1 7:-1 8:0.0786517 4:-0.241725 5:-1 6:-1 7:-1 8:-1 9:-0.915789 
0.1736146248738746 0:0.0751463 1:-0.241725 2:-0.241725 3:-0.340855 4:-0.241725 5:-0.653061 1:-0.241725 2:-0.241725 3:-0.340855 4:-0.241725 5:-1 6:-0.677419 2:-0.793979 3:-0.340855 4:-0.241725 5:-1 6:-1 7:-0.73913 3:-0.340855 4:-0.241725 5:-1 6:-1 7:-1 8:-0.977528 4:-1 5:-1 6:-1 7:-1 8:-1 9:-0.642105 
-0.7401297713590759 0:0.0751463 1:-0.241725 2:-0.241725 3:-0.340855 4:-0.241725 5:-0.857143 1:-0.241725 2:-0.241725 3:-0.340855 4:-0.241725 5:-1 6:-0.935484 2:-0.241725 3:-0.340855 4:-0.241725 5:-1 6:-1 7:-0.891304 3:-0.956057 4:-0.241725 5:-1 6:-1 7:-1 8:0.235955 4:-0.583557 5:-1 6:-1 7:-1 8:-1 9:-0.705263 
1 0:0.0751463 1:-0.241725 2:-0.241725 3:-0.340855 4:-0.241725 5:-0.877551 1:-0.241725 2:-0.241725 3:-0.340855 4:-0.241725 5:-1 6:-0.913978 2:-0.241725 3:-0.340855 4:-0.241725 5:-1 6:-1 7:-0.673913 3:-0.642842 4:-0.241725 5:-1 6:-1 7:-1 8:-0.191011 4:-0.241725 5:-1 6:-1 7:-1 8:-1 9:0.2 
1 0:0.0751463 1:-0.241725 2:-0.241725 3:-0.340855 4:-0.241725 5:-0.795918 1:-0.241725 2:-0.241725 3:-0.340855 4:-0.241725 5:-1 6:-0.462366 2:-0.241725 3:-0.340855 4:-0.241725 5:-1 6:-1 7:0.956522 3:-0.340855 4:-0.241725 5:-1 6:-1 7:-1 8:-0.325843 4:-0.241725 5:-1 6:-1 7:-1 8:-1 9:-0.326316 
1 0:-0.00488205 1:-0.241725 2:-0.241725 3:-0.340855 4:-0.241725 5:0.44898 1:-0.241725 2:-0.241725 3:-0.340855 4:-0.241725 5:-1 6:-0.526882 2:-0.241725 3:-0.340855 4:-0.241725 5:-1 6:-1 7:-0.804348 3:-0.340855 4:-0.241725 5:-1 6:-1 7:-1 8:0.0561798 4:-0.241725 5:-1 6:-1 7:-1 8:-1 9:-1 
0.06869595136595176 0:0.0966545 1:-0.241725 2:-0.241725 3:-0.340855 4:-0.241725 5:-0.816327 1:-0.241725 2:-0.241725 3:-0.340855 4:-0.241725 5:-1 6:-0.419355 2:-0.241725 3:-0.340855 4:-0.241725 5:-1 6:-1 3:-0.340855 4:-0.241725 5:-1 6:-1 7:-1 8:-0.775281 4:-0.241725 5:-1 6:-1 7:-1 8:-1 9:-0.705263 
1 0:0.0751463 1:-0.241725 2:-0.241725 3:-0.340855 4:-0.241725 5:0.755102 1:-0.33571 2:-0.241725 3:-0.340855 4:-0.241725 5:-1 6:-0.956989 2:-0.241725 3:-0.340855 4:-0.241725 5:-1 6:-1 7:-0.23913 3:-0.38279 4:-0.241725 5:-1 6:-1 7:-1 8:-0.550562 4:-0.241725 5:-1 6:-1 7:-1 8:-1 9:-0.578947 
-0.5858804094469843 0:0.0751463 1:-0.241725 2:-0.241725 3:-0.340855 4:-0.241725 5:-0.897959 1:-0.241725 2:-0.241725 3:-0.340855 4:-0.241725 5:-1 6:-0.677419 2:-0.241725 3:-0.340855 4:-0.241725 5:-1 6:-1 7:-0.956522 3:-0.340855 4:-0.241725 5:-1 6:-1 7:-1 8:-0.101124 4:-0.16925 5:-1 6:-1 7:-1 8:-1 9:0.452632 
-1 0:0.0751463 1:-0.241725 2:-0.241725 3:-0.340855 4:-0.241725 5:0.326531 1:-0.241725 2:-0.241725 3:-0.340855 4:-0.241725 5:-1 6:-0.612903 2:-0.241725 3:-0.340855 4:-0.241725 5:-1 6:-1 7:-0.282609 3:-0.340855 4:-0.241725 5:-1 6:-1 7:-1 8:-0.640449 4:-0.594855 5:-1 6:-1 7:-1 8:-1 9:0.242105 
-0.06317890161041412 0:-0.00154814 1:-0.241725 2:-0.241725 3:-0.340855 4:-0.241725 5:-0.734694 1:-0.241725 2:-0.241725 3:-0.340855 4:-0.241725 5:-1 6:-0.741935 2:-0.241725 3:-0.340855 4:-0.241725 5:-1 6:-1 7:0.0869565 3:-0.956057 4:-0.241725 5:-1 6:-1 7:-1 8:0.235955 9:-1 
0.004204685199985295 0:0.0751463 1:-0.241725 2:-0.241725 3:-0.340855 4:-0.241725 5:0.734694 1:-0.241725 2:-0.241725 3:-0.340855 4:-0.241725 5:-1 6:-0.0752688 2:-0.241725 3:-0.340855 4:-0.241725 5:-1 6:-1 7:-0.130435 3:-0.956057 4:-0.241725 5:-1 6:-1 7:-1 8:0.235955 4:-0.648958 5:-1 6:-1 7:-1 8:-1 9:-0.831579 
-1 0:0.0751463 1:-0.241725 2:-0.241725 3:-0.340855 4:-0.241725 5:-0.795918 1:-0.241725 2:-0.241725 3:-0.340855 4:-0.241725 5:-1 6:0.935484 2:-0.241725 3:-0.340855 4:-0.241725 5:-1 6:-1 7:0.391304 3:-0.340855 4:-0.241725 5:-1 6:-1 7:-1 8:-0.595506 4:-0.241725 5:-1 6:-1 7:-1 8:-1 9:-0.536842 
0.1436464217675781 0:0.0751463 1:-0.241725 2:-0.241725 3:-0.340855 4:-0.241725 5:-0.653061 1:-0.241725 2:-0.241725 3:-0.340855 4:-0.241725 5:-1 6:-0.677419 2:-0.228935 3:-0.340855 4:-0.241725 5:-1 6:-1 7:-0.847826 3:-0.340855 4:-0.241725 5:-1 6:-1 7:-1 8:0.123596 4:-0.69805 5:-1 6:-1 7:-1 8:-1 9:0.536842 
1 0:0.00483121 1:-0.241725 2:-0.241725 3:-0.340855 4:-0.241725 5:0.857143 1:-0.241725 2:-0.241725 3:-0.340855 4:-0.241725 5:-1 6:-0.397849 2:-0.241725 3:-0.340855 4:-0.241725 5:-1 6:-1 7:-0.217391 3:-0.340855 4:-0.241725 5:-1 6:-1 7:-1 8:-0.213483 4:-0.241725 5:-1 6:-1 7:-1 8:-1 9:-0.115789 
1 0:0.0966545 1:-0.241725 2:-0.241725 3:-0.340855 4:-0.241725 5:-0.816327 1:-0.241725 2:-0.241725 3:-0.340855 4:-0.241725 5:-1 6:0.44086 2:-0.205488 3:-0.340855 4:-0.241725 5:-1 6:-1 7:0.152174 3:-0.340855 4:-0.241725 5:-1 6:-1 7:-1 8:-0.955056 4:0.515876 5:-1 6:-1 7:-1 8:-1 9:-0.810526 
0.8990695564719727 0:0.0751463 1:-0.241725 2:-0.241725 3:-0.340855 4:-0.241725 5:-0.510204 1:-0.241725 2:-0.241725 3:-0.340855 4:-0.241725 5:-1 6:-0.268817 2:-0.241725 3:-0.340855 4:-0.241725 5:-1 6:-1 7:-0.891304 3:-0.340855 4:-0.241725 5:-1 6:-1 7:-1 8:-0.640449 4:-0.241725 5:-1 6:-1 7:-1 8:-1 9:0.873684 
-0.9347790759869774 0:-0.484031 1:-0.241725 2:-0.241725 3:-0.340855 4:-0.241725 5:-0.530612 1:-0.241725 2:-0.241725 3:-0.340855 4:-0.241725 5:-1 6:0.978495 2:-0.241725 3:-0.340855 4:-0.241725 5:-1 6:-1 7:0.434783 3:-0.489532 4:-0.241725 5:-1 6:-1 7:-1 8:-0.280899 4:-0.241725 5:-1 6:-1 7:-1 8:-1 9:-0.136842 
1 0:0.0751463 1:-0.241725 2:-0.241725 3:-0.340855 4:-0.241725 5:-0.510204 1:-0.375166 2:-0.241725 3:-0.340855 4:-0.241725 5:-1 6:-0.419355 2:-0.241725 3:-0.340855 4:-0.241725 5:-1 6:-1 7:-0.543478 3:-0.340855 4:-0.241725 5:-1 6:-1 7:-1 8:-0.370787 4:-0.241725 5:-1 6:-1 7:-1 8:-1 9:-1 
-1 0:0.0751463 1:-0.241725 2:-0.241725 3:-0.340855 4:-0.241725 5:0.306122 1:-0.241725 2:-0.241725 3:-0.340855 4:-0.241725 5:-1 6:-0.44086 2:-0.241725 3:-0.340855 4:-0.241725 5:-1 6:-1 7:-0.304348 3:-0.340855 4:-0.241725 5:-1 6:-1 7:-1 8:-0.955056 4:-0.241725 5:-1 6:-1 7:-1 8:-1 9:-0.410526 
-0.598238600320398 0:0.0751463 1:-0.241725 2:-0.241725 3:-0.340855 4:-0.241725 5:0.959184 1:-0.550599 2:-0.241725 3:-0.340855 4:-0.241725 5:-1 6:-0.333333 2:-0.241725 3:-0.340855 4:-0.241725 5:-1 6:-1 7:-0.304348 3:-0.340855 4:-0.241725 5:-1 6:-1 7:-1 8:0.101124 4:-0.241725 5:-1 6:-1 7:-1 8:-1 9:-0.263158 
-0.0169991484479106 0:0.0751463 1:-0.241725 2:-0.241725 3:-0.340855 4:-0.241725 5:-0.77551 1:-0.241725 2:-0.241725 3:-0.340855 4:-0.241725 5:-1 6:-0.44086 2:-0.643365 3:-0.340855 4:-0.241725 5:-1 6:-1 7:-0.782609 3:-0.340855 4:-0.241725 5:-1 6:-1 7:-1 8:-0.123596 4:0.254965 5:-1 6:-1 7:-1 8:-1 9:-0.705263 
-1 0:0.0751463 1:-0.241725 2:-0.241725 3:-0.340855 4:-0.241725 5:-0.938776 1:-0.241725 2:-0.241725 3:-0.340855 4:-0.241725 5:-1 6:-0.483871 2:-0.526928 3:-0.340855 4:-0.241725 5:-1 6:-1 7:-0.434783 3:-0.340855 4:-0.241725 5:-1 6:-1 7:-1 8:-0.52809 4:-0.241725 5:-1 6:-1 7:-1 8:-1 9:-0.915789 
1 0:0.0751463 1:-0.241725 2:-0.241725 3:-0.340855 4:-0.241725 5:-0.326531 1:-0.241725 2:-0.241725 3:-0.340855 4:-0.241725 5:-1 6:-0.311828 2:-0.241725 3:-0.340855 4:-0.241725 5:-1 6:-1 7:0.0217391 3:-0.780599 4:-0.241725 5:-1 6:-1 7:-1 8:-0.820225 4:-0.464924 5:-1 6:-1 7:-1 8:-1 9:-0.747368 
0.07401066359334565 0:-0.267523 1:-0.241725 2:-0.241725 3:-0.340855 4:-0.241725 5:-0.55102 1:-0.241725 2:-0.241725 3:-0.340855 4:-0.241725 5:-1 6:-0.827957 2:-0.241725 3:-0.340855 4:-0.241725 5:-1 6:-1 7:-0.347826 3:-0.340855 4:-0.241725 5:-1 6:-1 7:-1 8:-0.797753 9:-1 
1 0:0.39526 1:-0.241725 2:-0.241725 3:-0.340855 4:-0.241725 5:-0.632653 1:-0.241725 2:-0.241725 3:-0.340855 4:-0.241725 5:-1 6:-0.526882 2:-0.241725 3:-0.340855 4:-0.241725 5:-1 6:-1 7:-0.826087 3:-0.340855 4:-0.241725 5:-1 6:-1 7:-1 8:-0.797753 4:-0.353703 5:-1 6:-1 7:-1 8:-1 9:-0.136842 
1 0:-0.530702 1:-0.241725 2:-0.241725 3:-0.340855 4:-0.241725 5:0.102041 1:-0.241725 2:-0.241725 3:-0.340855 4:-0.241725 5:-1 6:-0.655914 2:-0.241725 3:-0.340855 4:-0.241725 5:-1 6:-1 7:-0.782609 3:-0.340855 4:-0.241725 5:-1 6:-1 7:-1 8:-0.662921 4:-0.207395 5:-1 6:-1 7:-1 8:-1 9:-0.578947 
-0.9971603690967927 0:0.0751463 1:-0.241725 2:-0.241725 3:-0.340855 4:-0.241725 5:-0.734694 1:-0.241725 2:-0.241725 3:-0.340855 4:-0.241725 5:-1 6:0.505376 2:-0.241725 3:-0.340855 4:-0.241725 5:-1 6:-1 7:-0.717391 3:-0.461773 4:-0.241725 5:-1 6:-1 7:-1 8:-0.0786517 4:-0.241725 5:-1 6:-1 7:-1 8:-1 9:-0.263158 
-1 0:0.0751463 1:-0.241725 2:-0.241725 3:-0.340855 4:-0.241725 5:-0.285714 1:-0.241725 2:-0.241725 3:-0.340855 4:-0.241725 5:-1 6:-0.806452 2:-0.241725 3:-0.340855 4:-0.241725 5:-1 6:-1 7:0.0869565 3:-0.490983 4:-0.241725 5:-1 6:-1 7:-1 8:-0.235955 4:-0.241725 5:-1 6:-1 7:-1 8:-1 9:-0.978947 
-0.7529470563688677 0:-0.0481676 1:-0.241725 2:-0.241725 3:-0.340855 4:-0.241725 5:-0.632653 1:-1 2:-0.241725 3:-0.340855 4:-0.241725 5:-1 6:-0.634409 2:-0.241725 3:-0.340855 4:-0.241725 5:-1 6:-1 7:0.304348 3:-0.340855 4:-0.241725 5:-1 6:-1 7:-1 8:-0.146067 4:-0.241725 5:-1 6:-1 7:-1 8:-1 9:-0.894737 
-0.465839100441173 0:0.0140688 1:-0.241725 2:-0.241725 3:-0.340855 4:-0.241725 5:-0.489796 1:-0.241725 2:-0.241725 3:-0.340855 4:-0.241725 5:-1 6:0.0322581 2:-0.241725 3:-0.340855 4:-0.241725 5:-1 6:-1 7:-0.695652 3:-1 4:-0.241725 5:-1 6:-1 7:-1 8:-0.865169 4:-0.241725 5:-1 6:-1 7:-1 8:-1 9:-0.789474 
0.3258190486239037 0:0.0751463 1:-0.241725 2:-0.241725 3:-0.340855 4:-0.241725 5:0.265306 1:-0.241725 2:-0.241725 3:-0.340855 4:-0.241725 5:-1 6:-0.827957 2:0.586092 3:-0.340855 4:-0.241725 5:-1 6:-1 7:-0.869565 3:-0.340855 4:-0.241725 5:-1 6:-1 7:-1 8:-0.820225 4:-0.450159 5:-1 6:-1 7:-1 8:-1 9:0.0315789 
-0.3049931485102891 0:0.0751463 1:-0.241725 2:-0.241725 3:-0.340855 4:-0.241725 5:0.183673 1:-0.241725 2:-0.241725 3:-0.340855 4:-0.241725 5:-1 6:-0.784946 2:-0.241725 3:-0.340855 4:-0.241725 5:-1 6:-1 7:-0.26087 3:-0.802257 4:-0.241725 5:-1 6:-1 7:-1 8:0.213483 4:-0.241725 5:-1 6:-1 7:-1 8:-1 9:-0.726316 
-0.4063934522186838 0:0.0751463 1:-0.241725 2:-0.241725 3:-0.340855 4:-0.241725 5:-0.0816327 1:-0.304925 2:-0.241725 3:-0.340855 4:-0.241725 5:-1 6:0.11828 2:-0.241725 3:-0.340855 4:-0.241725 5:-1 6:-1 7:-0.565217 3:-0.426106 4:-0.241725 5:-1 6:-1 7:-1 8:-0.146067 4:-0.127277 5:-1 6:-1 7:-1 8:-1 9:1 
-1 0:0.0751463 1:-0.241725 2:-0.241725 3:-0.340855 4:-0.241725 5:-0.387755 1:-0.241725 2:-0.241725 3:-0.340855 4:-0.241725 5:-1 6:0.268817 2:-0.241725 3:-0.340855 4:-0.241725 5:-1 6:-1 7:0.0869565 3:-0.490983 4:-0.241725 5:-1 6:-1 7:-1 8:-0.235955 4:-0.241725 5:-1 6:-1 7:-1 8:-1 9:-0.852632 
-0.9096895009095737 0:0.0751463 1:-0.241725 2:-0.241725 3:-0.340855 4:-0.241725 5:-0.530612 1:-0.241725 2:-0.241725 3:-0.340855 4:-0.241725 5:-1 6:-0.870968 2:0.0496598 3:-0.340855 4:-0.241725 5:-1 6:-1 7:-0.586957 3:-0.340855 4:-0.241725 5:-1 6:-1 7:-1 8:-1 4:-0.583557 5:-1 6:-1 7:-1 8:-1 9:-0.705263 
-1 0:0.0751463 1:-0.241725 2:-0.241725 3:-0.340855 4:-0.241725 5:-0.55102 1:-0.241725 2:-0.241725 3:-0.340855 4:-0.241725 5:-1 6:-0.247312 2:-0.304925 3:-0.340855 4:-0.241725 5:-1 6:-1 7:0.130435 3:-0.340855 4:-0.241725 5:-1 6:-1 7:-1 8:0.123596 4:-0.241725 5:-1 6:-1 7:-1 8:-1 9:-0.431579 
-0.5105031056604513 0:0.0751463 1:-0.241725 2:-0.241725 3:-0.340855 4:-0.241725 5:-0.183673 1:-0.241725 2:-0.241725 3:-0.340855 4:-0.241725 5:-1 6:-0.483871 2:-0.241725 3:-0.340855 4:-0.241725 5:-1 6:-1 7:-0.130435 3:-0.745625 4:-0.241725 5:-1 6:-1 7:-1 8:-0.977528 4:-0.241725 5:-1 6:-1 7:-1 8:-1 9:0.557895 
-0.4858043700225 0:-0.39089 1:-0.241725 2:-0.241725 3:-0.340855 4:-0.241725 5:0.183673 1:-0.241725 2:-0.241725 3:-0.340855 4:-0.241725 5:-1 6:0.978495 2:-0.241725 3:-0.340855 4:-0.241725 5:-1 6:-1 7:-0.456522 3:-0.58599 4:-0.241725 5:-1 6:-1 7:-1 8:-0.550562 4:-0.241725 5:-1 6:-1 7:-1 8:-1 9:-0.978947 
-1 0:0.0751463 1:-0.241725 2:-0.241725 3:-0.340855 4:-0.241725 5:-0.408163 1:-0.241725 2:-0.241725 3:-0.340855 4:-0.241725 5:-1 6:-0.655914 2:-0.61433 3:-0.340855 4:-0.241725 5:-1 6:-1 7:-0.956522 3:-0.340855 4:-0.241725 5:-1 6:-1 7:-1 8:-0.775281 4:-0.241725 5:-1 6:-1 7:-1 8:-1 9:-0.136842 
1 0:0.0751463 1:-0.241725 2:-0.241725 3:-0.340855 4:-0.241725 5:0.469388 1:-0.241725 2:-0.241725 3:-0.340855 4:-0.241725 5:-1 6:0.462366 2:-0.57041 3:-0.340855 4:-0.241725 5:-1 6:-1 7:-0.26087 3:-0.340855 4:-0.241725 5:-1 6:-1 7:-1 8:-0.707865 4:-0.22456 5:-1 6:-1 7:-1 8:-1 9:-0.221053 
-0.307290324325383 0:0.0751463 1:-0.241725 2:-0.241725 3:-0.340855 4:-0.241725 5:-0.938776 1:-0.829729 2:-0.241725 3:-0.340855 4:-0.241725 5:-1 6:0.505376 2:-0.207395 3:-0.340855 4:-0.241725 5:-1 6:-1 7:-0.173913 3:-0.340855 4:-0.241725 5:-1 6:-1 7:-1 8:-0.685393 4:-0.241725 5:-1 6:-1 7:-1 8:-1 9:-0.263158 
-1 0:0.0751463 1:-0.241725 2:-0.241725 3:-0.340855 4:-0.241725 5:0.387755 1:-0.241725 2:-0.241725 3:-0.340855 4:-0.241725 5:-1 6:-0.526882 2:-0.241725 3:-0.340855 4:-0.241725 5:-1 6:-1 7:-0.76087 3:-0.340855 4:-0.241725 5:-1 6:-1 7:-1 8:-0.123596 4:-0.241725 5:-1 6:-1 7:-1 8:-1 9:-0.915789 
-0.3095668534592769 0:-0.486145 1:-0.241725 2:-0.241725 3:-0.340855 4:-0.241725 5:-0.428571 1:-0.241725 2:-0.241725 3:-0.340855 4:-0.241725 5:-1 6:-0.806452 2:-0.505041 3:-0.340855 4:-0.241725 5:-1 6:-1 7:-0.804348 3:-0.340855 4:-0.241725 5:-1 6:-1 7:-1 8:-0.52809 4:-0.241725 5:-1 6:-1 7:-1 8:-1 9:-0.894737 
1 0:0.0751463 1:-0.241725 2:-0.241725 3:-0.340855 4:-0.241725 5:-0.510204 1:-0.241725 2:-0.241725 3:-0.340855 4:-0.241725 5:-1 6:-0.935484 2:-0.241725 3:-0.340855 4:-0.241725 5:-1 6:-1 7:-0.152174 3:-0.340855 4:-0.241725 5:-1 6:-1 7:-1 8:-0.483146 4:-0.241725 5:-1 6:-1 7:-1 8:-1 9:-0.494737 
-1 0:0.0751463 1:-0.241725 2:-0.241725 3:-0.340855 4:-0.241725 5:-0.673469 1:-0.480457 2:-0.241725 3:-0.340855 4:-0.241725 5:-1 6:0.0967742 2:-0.57041 3:-0.340855 4:-0.241725 5:-1 6:-1 7:-0.26087 3:-0.340855 4:-0.241725 5:-1 6:-1 7:-1 8:-0.977528 4:-0.241725 5:-1 6:-1 7:-1 8:-1 9:-0.768421 
-0.1847836815565284 0:0.164677 1:-0.241725 2:-0.241725 3:-0.340855 4:-0.241725 5:1 1:-0.241725 2:-0.241725 3:-0.340855 4:-0.241725 5:-1 6:-0.0322581 2:-0.241725 3:-0.340855 4:-0.241725 5:-1 6:-1 7:-0.347826 3:-0.340855 4:-0.241725 5:-1 6:-1 7:-1 8:-0.865169 4:1 5:-1 6:-1 7:-1 8:-1 9:-0.768421 
-0.4220022627372711 0:-0.420512 1:-0.241725 2:-0.241725 3:-0.340855 4:-0.241725 5:0.367347 1:-0.182427 2:-0.241725 3:-0.340855 4:-0.241725 5:-1 6:-0.72043 2:-0.241725 3:-0.340855 4:-0.241725 5:-1 6:-1 7:1 3:-0.340855 4:-0.241725 5:-1 6:-1 7:-1 8:-0.595506 4:-0.241725 5:-1 6:-1 7:-1 8:-1 9:-0.831579 
-0.105446451410204 0:-0.220389 1:-0.241725 2:-0.241725 3:-0.340855 4:-0.241725 5:0.0612245 1:-0.241725 2:-0.241725 3:-0.340855 4:-0.241725 5:-1 6:-0.182796 2:0.515876 3:-0.340855 4:-0.241725 5:-1 6:-1 7:-0.847826 3:-0.340855 4:-0.241725 5:-1 6:-1 7:-1 8:-0.932584 4:-0.241725 5:-1 6:-1 7:-1 8:-1 9:0.621053 
0.4574881404437821 0:0.0751463 1:-0.241725 2:-0.241725 3:-0.340855 4:-0.241725 5:-0.836735 1:-0.241725 2:-0.241725 3:-0.340855 4:-0.241725 5:-1 6:-0.204301 2:-0.724082 3:-0.340855 4:-0.241725 5:-1 6:-1 7:-0.956522 3:-0.340855 4:-0.241725 5:-1 6:-1 7:-1 8:-0.775281 4:-0.241725 5:-1 6:-1 7:-1 8:-1 9:-0.6 
-1 0:0.0751463 1:-0.241725 2:-0.241725 3:-0.340855 4:-0.241725 5:0.285714 1:-0.241725 2:-0.241725 3:-0.340855 4:-0.241725 5:-1 6:-0.268817 2:-0.241725 3:-0.340855 4:-0.241725 5:-1 6:-1 7:0.26087 3:-0.340855 4:-0.241725 5:-1 6:-1 7:-1 8:-0.573034 4:-0.172517 5:-1 6:-1 7:-1 8:-1 9:-0.831579 
0.1051488942138997 0:0.0751463 1:-0.241725 2:-0.241725 3:-0.340855 4:-0.241725 5:-0.469388 1:1 2:-0.241725 3:-0.340855 4:-0.241725 5:-1 6:-0.677419 2:-0.526035 3:-0.340855 4:-0.241725 5:-1 6:-1 7:-0.586957 3:-0.340855 4:-0.241725 5:-1 6:-1 7:-1 8:-0.640449 4:-0.241725 5:-1 6:-1 7:-1 8:-1 9:-0.852632 
1 0:0.0751463 1:-0.241725 2:-0.241725 3:-0.340855 4:-0.241725 5:-0.408163 1:-0.226556 2:-0.241725 3:-0.340855 4:-0.241725 5:-1 6:-0.806452 2:-0.241725 3:-0.340855 4:-0.241725 5:-1 6:-1 7:-0.717391 3:-0.340855 4:-0.241725 5:-1 6:-1 7:-1 8:-0.573034 4:-0.669015 5:-1 6:-1 7:-1 8:-1 9:0.136842 
-0.1266834953511577 0:0.0751463 1:-0.241725 2:-0.241725 3:-0.340855 4:-0.241725 5:0.734694 1:-0.241725 2:-0.241725 3:-0.340855 4:-0.241725 5:-1 6:-0.655914 2:-0.805548 3:-0.340855 4:-0.241725 5:-1 6:-1 7:0.543478 3:-0.340855 4:-0.241725 5:-1 6:-1 7:-1 8:-0.235955 4:-0.241725 5:-1 6:-1 7:-1 8:-1 9:-0.452632 
-0.7649015539059103 0:-0.420512 1:-0.241725 2:-0.241725 3:-0.340855 4:-0.241725 5:0.367347 1:-0.241725 2:-0.241725 3:-0.340855 4:-0.241725 5:-1 6:-0.311828 2:-0.241725 3:-0.340855 4:-0.241725 5:-1 6:-1 7:-0.543478 3:-0.340855 4:-0.241725 5:-1 6:-1 7:-1 8:-0.280899 4:-0.241725 5:-1 6:-1 7:-1 8:-1 9:-0.389474 
0.5014443299582464 0:0.0751463 1:-0.241725 2:-0.241725 3:-0.340855 4:-0.241725 5:0.469388 1:-0.241725 2:-0.241725 3:-0.340855 4:-0.241725 5:-1 6:0.612903 2:-0.241725 3:-0.340855 4:-0.241725 5:-1 6:-1 7:-0.673913 3:-0.340855 4:-0.241725 5:-1 6:-1 7:-1 8:-0.550562 4:-0.241725 5:-1 6:-1 7:-1 8:-1 9:0.452632 
-0.2519045017131664 0:0.0751463 1:-0.241725 2:-0.241725 3:-0.340855 4:-0.241725 5:0.734694 1:-0.241725 2:-0.241725 3:-0.340855 4:-0.241725 5:-1 6:0.376344 2:-0.241725 3:-0.340855 4:-0.241725 5:-1 6:-1 7:-0.76087 3:-0.340855 4:-0.241725 5:-1 6:-1 7:-1 8:-0.820225 4:-0.404708 5:-1 6:-1 7:-1 8:-1 9:-0.0947368 
0.7377258510872712 0:0.0751463 1:-0.241725 2:-0.241725 3:-0.340855 4:-0.241725 5:-0.469388 1:-0.241725 2:-0.241725 3:-0.340855 4:-0.241725 5:-1 6:0.612903 2:-0.468737 3:-0.340855 4:-0.241725 5:-1 6:-1 7:-0.565217 3:-0.340855 4:-0.241725 5:-1 6:-1 7:-1 8:-0.932584 4:-0.241725 5:-1 6:-1 7:-1 8:-1 9:-0.347368 
-1 0:0.0751463 1:-0.241725 2:-0.241725 3:-0.340855 4:-0.241725 5:-0.734694 1:-0.241725 2:-0.241725 3:-0.340855 4:-0.241725 5:-1 6:-0.913978 2:-0.669015 3:-0.340855 4:-0.241725 5:-1 6:-1 7:0.173913 3:-0.340855 4:-0.241725 5:-1 6:-1 7:-1 8:-0.977528 4:-0.241725 5:-1 6:-1 7:-1 8:-1 9:-0.894737 
-1 0:-0.336933 1:-0.241725 2:-0.241725 3:-0.340855 4:-0.241725 5:-0.571429 1:-0.241725 2:-0.241725 3:-0.340855 4:-0.241725 5:-1 6:-0.397849 2:-0.241725 3:-0.340855 4:-0.241725 5:-1 6:-1 7:-0.543478 3:-0.340855 4:-0.241725 5:-1 6:-1 7:-1 8:-0.573034 4:-0.389547 5:-1 6:-1 7:-1 8:-1 9:-0.747368 
0.5027076323538963 0:0.0751463 1:-0.241725 2:-0.241725 3:-0.340855 4:-0.241725 5:-0.591837 1:-0.241725 2:-0.241725 3:-0.340855 4:-0.241725 5:-1 6:-0.892473 2:-0.241725 3:-0.340855 4:-0.241725 5:-1 6:-1 7:-0.326087 3:-0.647863 4:-0.241725 5:-1 6:-1 7:-1 8:-0.573034 4:-0.241725 5:-1 6:-1 7:-1 8:-1 9:-0.136842 
1 0:-0.0404604 1:-0.241725 2:-0.241725 3:-0.340855 4:-0.241725 5:-0.734694 1:-0.69805 2:-0.241725 3:-0.340855 4:-0.241725 5:-1 6:0.569892 2:-0.241725 3:-0.340855 4:-0.241725 5:-1 6:-1 7:-0.217391 3:-0.32232 4:-0.241725 5:-1 6:-1 7:-1 8:-0.168539 4:-0.241725 5:-1 6:-1 7:-1 8:-1 9:-0.178947 
1 0:0.0751463 1:-0.241725 2:-0.241725 3:-0.340855 4:-0.241725 5:-0.0612245 1:-0.241725 2:-0.241725 3:-0.340855 4:-0.241725 5:-1 6:-0.376344 2:-0.241725 3:-0.340855 4:-0.241725 5:-1 6:-1 7:-0.217391 3:-0.340855 4:-0.241725 5:-1 6:-1 7:-1 8:-0.146067 4:-0.241725 5:-1 6:-1 7:-1 8:-1 9:-0.894737 
1 0:-0.051507 1:-0.241725 2:-0.241725 3:-0.340855 4:-0.241725 5:-0.632653 1:-0.241725 2:-0.241725 3:-0.340855 4:-0.241725 5:-1 6:-0.311828 2:-0.241725 3:-0.340855 4:-0.241725 5:-1 6:-1 7:-0.804348 3:-0.340855 4:-0.241725 5:-1 6:-1 7:-1 8:-0.325843 4:-0.241725 5:-1 6:-1 7:-1 8:-1 9:-0.789474 
0.1735574938651779 0:-0.220389 1:-0.241725 2:-0.241725 3:-0.340855 4:-0.241725 5:0.0612245 1:-0.583475 2:-0.241725 3:-0.340855 4:-0.241725 5:-1 6:-0.72043 2:-0.241725 3:-0.340855 4:-0.241725 5:-1 6:-1 7:-0.847826 3:-0.956057 4:-0.241725 5:-1 6:-1 7:-1 8:0.235955 4:-0.241725 5:-1 6:-1 7:-1 8:-1 9:-0.578947 
1 0:0.0966545 1:-0.241725 2:-0.241725 3:-0.340855 4:-0.241725 5:-0.816327 1:-0.6361 2:-0.241725 3:-0.340855 4:-0.241725 5:-1 6:-0.505376 2:-0.241725 3:-0.340855 4:-0.241725 5:-1 6:-1 7:-0.326087 3:-0.340855 4:-0.241725 5:-1 6:-1 7:-1 8:-0.730337 4:-0.207395 5:-1 6:-1 7:-1 8:-1 9:-0.578947 
1 0:0.0751463 1:-0.241725 2:-0.241725 3:-0.340855 4:-0.241725 5:-0.530612 1:-0.241725 2:-0.241725 3:-0.340855 4:-0.241725 5:-1 6:-0.677419 2:-0.241725 3:-0.340855 4:-0.241725 5:-1 6:-1 7:0.956522 3:-0.340855 4:-0.241725 5:-1 6:-1 7:-1 8:-0.52809 4:-0.207395 5:-1 6:-1 7:-1 8:-1 9:-0.578947 
-0.04179674572565949 0:0.0751463 1:-0.241725 2:-0.241725 3:-0.340855 4:-0.241725 5:0.734694 1:-0.241725 2:-0.241725 3:-0.340855 4:-0.241725 5:-1 6:-0.763441 2:-0.241725 3:-0.340855 4:-0.241725 5:-1 6:-1 7:-0.956522 3:-0.340855 4:-0.241725 5:-1 6:-1 7:-1 8:-0.88764 4:-0.241725 5:-1 6:-1 7:-1 8:-1 9:-0.957895 
1 0:0.0751463 1:-0.241725 2:-0.241725 3:-0.340855 4:-0.241725 5:0.163265 1:-0.241725 2:-0.241725 3:-0.340855 4:-0.241725 5:-1 6:-0.483871 2:-0.487461 3:-0.340855 4:-0.241725 5:-1 6:-1 7:-0.5 3:-0.340855 4:-0.241725 5:-1 6:-1 7:-1 8:-0.910112 4:-0.241725 5:-1 6:-1 7:-1 8:-1 9:-0.578947 
-0.07148096506254938 0:-0.114057 1:-0.241725 2:-0.241725 3:-0.340855 4:-0.241725 5:-0.44898 1:-0.377665 2:-0.241725 3:-0.340855 4:-0.241725 5:-1 6:-0.290323 2:-0.182427 3:-0.340855 4:-0.241725 5:-1 6:-1 7:-0.717391 3:0.477227 4:-0.241725 5:-1 6:-1 7:-1 8:-0.842697 4:-0.241725 5:-1 6:-1 7:-1 8:-1 9:0.747368 
0.0268173829432568 0:0.0751463 1:-0.241725 2:-0.241725 3:-0.340855 4:-0.241725 5:-0.469388 1:-0.241725 2:-0.241725 3:-0.340855 4:-0.241725 5:-1 6:-0.935484 2:-0.241725 3:-0.340855 4:-0.241725 5:-1 6:-1 7:0.478261 3:-0.802257 4:-0.241725 5:-1 6:-1 7:-1 8:0.213483 4:-0.052325 5:-1 6:-1 7:-1 8:-1 9:-0.747368 
-1 0:-0.286254 1:-0.241725 2:-0.241725 3:-0.340855 4:-0.241725 5:-0.714286 1:-0.241725 2:-0.241725 3:-0.340855 4:-0.241725 5:-1 6:-0.677419 2:-0.241725 3:-0.340855 4:-0.241725 5:-1 6:-1 7:0.76087 3:-0.426106 4:-0.241725 5:-1 6:-1 7:-1 8:-0.146067 4:-0.241725 5:-1 6:-1 7:-1 8:-1 9:-0.431579 
1 0:-0.267523 1:-0.241725 2:-0.241725 3:-0.340855 4:-0.241725 5:-0.55102 1:-0.241725 2:-0.241725 3:-0.340855 4:-0.241725 5:-1 6:-0.462366 2:-0.750199 3:-0.340855 4:-0.241725 5:-1 6:-1 7:-0.282609 3:-0.0262082 4:-0.241725 5:-1 6:-1 7:-1 8:-0.573034 4:-0.241725 5:-1 6:-1 7:-1 8:-1 9:-0.810526 
1 0:0.0751463 1:-0.241725 2:-0.241725 3:-0.340855 4:-0.241725 5:0.102041 1:-0.241725 2:-0.241725 3:-0.340855 4:-0.241725 5:-1 6:-0.505376 2:-0.241725 3:-0.340855 4:-0.241725 5:-1 6:-1 7:-0.130435 3:-0.340855 4:-0.241725 5:-1 6:-1 7:-1 8:-0.617978 4:-0.241725 5:-1 6:-1 7:-1 8:-1 9:-0.578947 
-0.4763898589552029 0:0.0751463 1:-0.241725 2:-0.241725 3:-0.340855 4:-0.241725 5:-0.877551 1:-0.241725 2:-0.241725 3:-0.340855 4:-0.241725 5:-1 6:0.935484 2:-1 3:-0.340855 4:-0.241725 5:-1 6:-1 7:-0.630435 3:-0.340855 4:-0.241725 5:-1 6:-1 7:-1 8:0.752809 4:-0.241725 5:-1 6:-1 7:-1 8:-1 9:-0.221053 
1 0:0.0751463 1:-0.241725 2:-0.241725 3:-0.340855 4:-0.241725 5:-0.591837 1:-0.241725 2:-0.241725 3:-0.340855 4:-0.241725 5:-1 6:-0.784946 2:-0.241725 3:-0.340855 4:-0.241725 5:-1 6:-1 7:-0.804348 3:-0.340855 4:-0.241725 5:-1 6:-1 7:-1 8:-0.505618 4:-0.377665 5:-1 6:-1 7:-1 8:-1 9:-0.305263 
-1 0:0.0751463 1:-0.241725 2:-0.241725 3:-0.340855 4:-0.241725 5:-0.510204 1:-0.241725 2:-0.241725 3:-0.340855 4:-0.241725 5:-1 6:0.935484 2:-0.241725 3:-0.340855 4:-0.241725 5:-1 6:-1 7:-0.73913 3:-0.340855 4:-0.241725 5:-1 6:-1 7:-1 8:-0.303371 4:-0.241725 5:-1 6:-1 7:-1 8:-1 9:-0.831579 
-1 0:0.0751463 1:-0.241725 2:-0.241725 3:-0.340855 4:-0.241725 5:-0.897959 1:-0.241725 2:-0.241725 3:-0.340855 4:-0.241725 5:-1 6:0.419355 2:-0.241725 3:-0.340855 4:-0.241725 5:-1 6:-1 7:-0.869565 3:-0.340855 4:-0.241725 5:-1 6:-1 7:-1 8:-0.730337 4:-0.241725 5:-1 6:-1 7:-1 8:-1 9:0.0105263 
1 0:-0.267523 1:-0.241725 2:-0.241725 3:-0.340855 4:-0.241725 5:-0.55102 1:-0.241725 2:-0.241725 3:-0.340855 4:-0.241725 5:-1 6:0.806452 2:-0.241725 3:-0.340855 4:-0.241725 5:-1 6:-1 7:0.434783 3:-0.340855 4:-0.241725 5:-1 6:-1 7:-1 8:-0.011236 4:-0.241725 5:-1 6:-1 7:-1 8:-1 9:-0.494737 
0.861903718449806 0:0.0751463 1:-0.241725 2:-0.241725 3:-0.340855 4:-0.241725 5:0.0816327 1:-0.241725 2:-0.241725 3:-0.340855 4:-0.241725 5:-1 6:0.462366 2:-0.241725 3:-0.340855 4:-0.241725 5:-1 6:-1 7:-0.673913 3:-0.498789 4:-0.241725 5:-1 6:-1 7:-1 8:-0.955056 4:-0.241725 5:-1 6:-1 7:-1 8:-1 9:-0.852632 
1 0:0.0751463 1:-0.241725 2:-0.241725 3:-0.340855 4:-0.241725 5:-0.897959 1:-0.241725 2:-0.241725 3:-0.340855 4:-0.241725 5:-1 6:-0.956989 2:-0.464661 3:-0.340855 4:-0.241725 5:-1 6:-1 7:-1 3:-0.340855 4:-0.241725 5:-1 6:-1 7:-1 8:-0.797753 4:-0.241725 5:-1 6:-1 7:-1 8:-1 9:-0.452632 
-0.11725461480368 0:0.0751463 1:-0.241725 2:-0.241725 3:-0.340855 4:-0.241725 5:-0.122449 1:-0.241725 2:-0.241725 3:-0.340855 4:-0.241725 5:-1 6:-0.978495 2:-0.241725 3:-0.340855 4:-0.241725 5:-1 6:-1 7:-0.978261 3:-0.340855 4:-0.241725 5:-1 6:-1 7:-1 8:-0.438202 4:-0.241725 5:-1 6:-1 7:-1 8:-1 9:-0.6 
-0.8976588966118277 0:0.0751463 1:-0.241725 2:-0.241725 3:-0.340855 4:-0.241725 5:-0.102041 1:-0.241725 2:-0.241725 3:-0.340855 4:-0.241725 5:-1 6:-0.182796 2:-0.793979 3:-0.340855 4:-0.241725 5:-1 6:-1 7:-0.73913 3:-0.340855 4:-0.241725 5:-1 6:-1 7:-1 8:-0.977528 4:-0.367937 5:-1 6:-1 7:-1 8:-1 9:-0.768421 
-0.5886685839952948 0:-1 1:-0.241725 2:-0.241725 3:-0.340855 4:-0.241725 5:-0.653061 1:-0.5978 2:-0.241725 3:-0.340855 4:-0.241725 5:-1 6:0.0967742 2:-0.241725 3:-0.340855 4:-0.241725 5:-1 6:-1 7:-0.195652 3:-0.340855 4:-0.241725 5:-1 6:-1 7:-1 8:0.235955 4:-0.241725 5:-1 6:-1 7:-1 8:-1 9:-0.894737 
1 0:0.0751463 1:-0.241725 2:-0.241725 3:-0.340855 4:-0.241725 5:-0.469388 1:-0.241725 2:-0.241725 3:-0.340855 4:-0.241725 5:-1 6:-0.204301 2:-0.241725 3:-0.340855 4:-0.241725 5:-1 6:-1 7:-0.847826 3:-0.340855 4:-0.241725 5:-1 6:-1 7:-1 8:0.88764 4:-0.241725 5:-1 6:-1 7:-1 8:-1 9:-0.136842 
-0.04809153226755759 0:0.0751463 1:-0.241725 2:-0.241725 3:-0.340855 4:-0.241725 5:-0.408163 1:-0.241725 2:-0.241725 3:-0.340855 4:-0.241725 5:-1 6:-0.139785 2:-0.241725 3:-0.340855 4:-0.241725 5:-1 6:-1 7:-0.586957 3:-0.340855 4:-0.241725 5:-1 6:-1 7:-1 8:-0.573034 4:-0.711632 5:-1 6:-1 7:-1 8:-1 9:-0.768421 
-1 0:0.0751463 1:-0.241725 2:-0.241725 3:-0.340855 4:-0.241725 5:-0.938776 1:-0.207395 2:-0.241725 3:-0.340855 4:-0.241725 5:-1 6:-0.182796 2:-0.241725 3:-0.340855 4:-0.241725 5:-1 6:-1 7:-0.326087 3:-0.340855 4:-0.241725 5:-1 6:-1 7:-1 8:-0.640449 4:-0.241725 5:-1 6:-1 7:-1 8:-1 9:-0.663158 
0.02360879023492832 0:0.0751463 1:-0.241725 2:-0.241725 3:-0.340855 4:-0.241725 5:0.673469 1:-0.371363 2:-0.241725 3:-0.340855 4:-0.241725 5:-1 6:0.0752688 2:-0.207395 3:-0.340855 4:-0.241725 5:-1 6:-1 7:-0.173913 3:-0.340855 4:-0.241725 5:-1 6:-1 7:-1 8:0.325843 4:-0.241725 5:-1 6:-1 7:-1 8:-1 9:0.263158 
1 0:0.0751463 1:-0.241725 2:-0.241725 3:-0.340855 4:-0.241725 5:-0.510204 1:-0.508781 2:-0.241725 3:-0.340855 4:-0.241725 5:-1 6:-0.806452 2:-0.241725 3:-0.340855 4:-0.241725 5:-1 6:-1 7:-0.0217391 3:-0.340855 4:-0.241725 5:-1 6:-1 7:-1 8:-1 4:-0.241725 5:-1 6:-1 7:-1 8:-1 9:0.157895 
1 0:0.0751463 1:-0.241725 2:-0.241725 3:-0.340855 4:-0.241725 5:-0.183673 1:-0.241725 2:-0.241725 3:-0.340855 4:-0.241725 5:-1 6:-0.827957 2:-0.468737 3:-0.340855 4:-0.241725 5:-1 6:-1 7:-0.565217 3:-0.32232 4:-0.241725 5:-1 6:-1 7:-1 8:-0.168539 4:-0.241725 5:-1 6:-1 7:-1 8:-1 9:-0.915789 
-0.103488476638035 0:0.164677 1:-0.241725 2:-0.241725 3:-0.340855 4:-0.241725 5:1 1:-0.241725 2:-0.241725 3:-0.340855 4:-0.241725 5:-1 6:-0.268817 2:-0.241725 3:-0.340855 4:-0.241725 5:-1 6:-1 7:0.195652 3:-0.340855 4:-0.241725 5:-1 6:-1 7:-1 8:0.752809 4:-0.269794 5:-1 6:-1 7:-1 8:-1 9:0.852632 
-1 0:0.0751463 1:-0.241725 2:-0.241725 3:-0.340855 4:-0.241725 5:-0.510204 1:-0.241725 2:-0.241725 3:-0.340855 4:-0.241725 5:-1 6:-0.72043 2:-0.241725 3:-0.340855 4:-0.241725 5:-1 6:-1 7:-0.413043 3:-0.340855 4:-0.241725 5:-1 6:-1 7:-1 8:-0.52809 4:-0.621797 5:-1 6:-1 7:-1 8:-1 9:-0.452632 
0.6683451231624057 0:-0.220389 1:-0.241725 2:-0.241725 3:-0.340855 4:-0.241725 5:0.0612245 1:-0.241725 2:-0.241725 3:-0.340855 4:-0.241725 5:-1 6:0.311828 2:-0.241725 3:-0.340855 4:-0.241725 5:-1 6:-1 7:-0.717391 3:-0.340855 4:-0.241725 5:-1 6:-1 7:-1 8:-0.280899 4:-0.669015 5:-1 6:-1 7:-1 8:-1 9:0.136842 
-0.3062430884078981 0:0.164677 1:-0.241725 2:-0.241725 3:-0.340855 4:-0.241725 5:1 1:-0.241725 2:-0.241725 3:-0.340855 4:-0.241725 5:-1 6:-0.247312 2:-0.328695 3:-0.340855 4:-0.241725 5:-1 6:-1 7:-0.608696 3:-0.340855 4:-0.241725 5:-1 6:-1 7:-1 8:-0.910112 4:-0.57041 5:-1 6:-1 7:-1 8:-1 9:0.221053 
0.9632418159686974 0:0.0751463 1:-0.241725 2:-0.241725 3:-0.340855 4:-0.241725 5:-0.77551 1:-0.241725 2:-0.241725 3:-0.340855 4:-0.241725 5:-1 6:-0.376344 2:-0.241725 3:-0.340855 4:-0.241725 5:-1 6:-1 7:-0.23913 3:-0.641315 4:-0.241725 5:-1 6:-1 7:-1 8:-0.438202 4:-0.241725 5:-1 6:-1 7:-1 8:-1 9:-0.810526 
-0.05337800907251349 0:0.0751463 1:-0.241725 2:-0.241725 3:-0.340855 4:-0.241725 5:0.530612 1:-0.241725 2:-0.241725 3:-0.340855 4:-0.241725 5:-1 6:-0.978495 2:-0.241725 3:-0.340855 4:-0.241725 5:-1 6:-1 7:-0.956522 3:-0.340855 4:-0.241725 5:-1 6:-1 7:-1 8:-0.977528 9:-1 
0.101441866673506 0:0.0751463 1:-0.241725 2:-0.241725 3:-0.340855 4:-0.241725 5:-0.571429 1:-0.724082 2:-0.241725 3:-0.340855 4:-0.241725 5:-1 6:-0.956989 2:-0.241725 3:-0.340855 4:-0.241725 5:-1 6:-1 7:-0.826087 3:-0.340855 4:-0.241725 5:-1 6:-1 7:-1 8:0.303371 4:-0.241725 5:-1 6:-1 7:-1 8:-1 9:-0.263158 
-0.9728261383263672 0:0.0751463 1:-0.241725 2:-0.241725 3:-0.340855 4:-0.241725 5:-0.77551 1:-0.241725 2:-0.241725 3:-0.340855 4:-0.241725 5:-1 6:-0.935484 2:-0.241725 3:-0.340855 4:-0.241725 5:-1 6:-1 7:-0.586957 3:-0.500478 4:-0.241725 5:-1 6:-1 7:-1 8:-0.730337 4:-0.172517 5:-1 6:-1 7:-1 8:-1 9:-0.831579 
1 0:0.0751463 1:-0.241725 2:-0.241725 3:-0.340855 4:-0.241725 5:-0.163265 1:-0.241725 2:-0.241725 3:-0.340855 4:-0.241725 5:-1 6:-0.591398 2:-0.241725 3:-0.340855 4:-0.241725 5:-1 6:-1 7:-0.152174 3:-0.628374 4:-0.241725 5:-1 6:-1 7:-1 8:-0.865169 4:-0.313024 5:-1 6:-1 7:-1 8:-1 9:-1 
-1 0:0.159224 1:-0.241725 2:-0.241725 3:-0.340855 4:-0.241725 5:-0.734694 1:-0.536408 2:-0.241725 3:-0.340855 4:-0.241725 5:-1 6:-0.354839 2:-0.241725 3:-0.340855 4:-0.241725 5:-1 6:-1 7:-0.673913 3:-0.340855 4:-0.241725 5:-1 6:-1 7:-1 8:0.101124 4:-0.241725 5:-1 6:-1 7:-1 8:-1 9:-0.115789 
-0.1768574335269015 0:0.0751463 1:-0.241725 2:-0.241725 3:-0.340855 4:-0.241725 5:-0.55102 1:-0.241725 2:-0.241725 3:-0.340855 4:-0.241725 5:-1 6:-0.956989 2:-0.5978 3:-0.340855 4:-0.241725 5:-1 6:-1 7:0.108696 3:-0.340855 4:-0.241725 5:-1 6:-1 7:-1 8:-0.730337 4:-0.241725 5:-1 6:-1 7:-1 8:-1 9:0.831579 
0.003369237059353859 0:-0.571869 1:-0.241725 2:-0.241725 3:-0.340855 4:-0.241725 5:0.489796 1:-0.241725 2:-0.241725 3:-0.340855 4:-0.241725 5:-1 6:0.225806 2:1 3:-0.340855 4:-0.241725 5:-1 6:-1 7:-0.891304 3:-0.340855 4:-0.241725 5:-1 6:-1 7:-1 8:0.52809 4:-0.57041 5:-1 6:-1 7:-1 8:-1 9:0.221053 
1 0:-0.494332 1:-0.241725 2:-0.241725 3:-0.340855 4:-0.241725 5:-0.795918 1:-0.241725 2:-0.241725 3:-0.340855 4:-0.241725 5:-1 6:0.354839 2:-0.241725 3:-0.340855 4:-0.241725 5:-1 6:-1 7:0.217391 3:-0.437312 4:-0.241725 5:-1 6:-1 7:-1 8:-0.595506 4:-0.241725 5:-1 6:-1 7:-1 8:-1 9:-0.452632 
-1 0:0.0751463 1:-0.241725 2:-0.241725 3:-0.340855 4:-0.241725 5:-0.836735 1:-0.304925 2:-0.241725 3:-0.340855 4:-0.241725 5:-1 6:0.11828 2:-0.241725 3:-0.340855 4:-0.241725 5:-1 6:-1 7:-0.543478 3:-0.340855 4:-0.241725 5:-1 6:-1 7:-1 8:-0.685393 4:-0.241725 5:-1 6:-1 7:-1 8:-1 9:-0.915789 
-0.3715841095922531 0:0.0751463 1:-0.241725 2:-0.241725 3:-0.340855 4:-0.241725 5:-0.77551 1:-0.241725 2:-0.241725 3:-0.340855 4:-0.241725 5:-1 6:-0.139785 2:-0.484909 3:-0.340855 4:-0.241725 5:-1 6:-1 7:-0.0652174 3:0.195487 4:-0.241725 5:-1 6:-1 7:-1 8:-0.685393 4:-0.241725 5:-1 6:-1 7:-1 8:-1 9:-0.578947 
-1 0:0.0751463 1:-0.241725 2:-0.241725 3:-0.340855 4:-0.241725 5:-0.918367 1:-0.241725 2:-0.241725 3:-0.340855 4:-0.241725 5:-1 6:-0.44086 2:-0.241725 3:-0.340855 4:-0.241725 5:-1 6:-1 7:-0.956522 3:-0.340855 4:-0.241725 5:-1 6:-1 7:-1 8:-0.146067 4:-0.389547 5:-1 6:-1 7:-1 8:-1 9:-0.747368 
-1 0:0.0751463 1:-0.241725 2:-0.241725 3:-0.340855 4:-0.241725 5:0.326531 1:-0.241725 2:-0.241725 3:-0.340855 4:-0.241725 5:-1 6:-0.569892 2:-0.241725 3:-0.340855 4:-0.241725 5:-1 6:-1 7:-0.152174 3:-0.340855 4:-0.241725 5:-1 6:-1 7:-1 8:-0.932584 4:-0.371754 5:-1 6:-1 7:-1 8:-1 9:-0.515789 
0.7002354608540915 0:0.0751463 1:-0.241725 2:-0.241725 3:-0.340855 4:-0.241725 5:-0.836735 1:-0.241725 2:-0.241725 3:-0.340855 4:-0.241725 5:-1 6:-0.935484 2:-0.775838 3:-0.340855 4:-0.241725 5:-1 6:-1 7:-0.152174 3:-0.340855 4:-0.241725 5:-1 6:-1 7:-1 8:-0.865169 4:-0.241725 5:-1 6:-1 7:-1 8:-1 9:-0.894737 
-0.3778905902078099 0:0.0751463 1:-0.241725 2:-0.241725 3:-0.340855 4:-0.241725 5:-0.0816327 1:-0.241725 2:-0.241725 3:-0.340855 4:-0.241725 5:-1 6:-0.419355 2:0.0496598 3:-0.340855 4:-0.241725 5:-1 6:-1 7:-0.586957 3:-0.340855 4:-0.241725 5:-1 6:-1 7:-1 8:-0.910112 4:-0.450159 5:-1 6:-1 7:-1 8:-1 9:0.0315789 
-0.004429682393915628 0:-0.486145 1:-0.241725 2:-0.241725 3:-0.340855 4:-0.241725 5:-0.428571 1:-0.241725 2:-0.241725 3:-0.340855 4:-0.241725 5:-1 6:-0.247312 2:-0.241725 3:-0.340855 4:-0.241725 5:-1 6:-1 7:-0.934783 3:1 4:-0.241725 5:-1 6:-1 7:-1 8:-0.662921 9:-1 
-0.6799483660809609 0:-0.645812 1:-0.241725 2:-0.241725 3:-0.340855 4:-0.241725 5:-0.326531 1:-0.241725 2:-0.241725 3:-0.340855 4:-0.241725 5:-1 6:-0.978495 2:-0.241725 3:-0.340855 4:-0.241725 5:-1 6:-1 7:-0.152174 3:-0.340855 4:-0.241725 5:-1 6:-1 7:-1 8:-0.393258 4:-0.241725 5:-1 6:-1 7:-1 8:-1 9:-0.178947 
1 0:-0.303509 1:-0.241725 2:-0.241725 3:-0.340855 4:-0.241725 5:-0.816327 1:-0.241725 2:-0.241725 3:-0.340855 4:-0.241725 5:-1 6:-0.333333 2:-0.241725 3:-0.340855 4:-0.241725 5:-1 6:-1 7:0.282609 3:-0.426106 4:-0.241725 5:-1 6:-1 7:-1 8:-0.146067 4:-0.241725 5:-1 6:-1 7:-1 8:-1 9:-0.431579 
-0.4942919418683694 0:0.39526 1:-0.241725 2:-0.241725 3:-0.340855 4:-0.241725 5:-0.632653 1:-0.241725 2:-0.241725 3:-0.340855 4:-0.241725 5:-1 6:-0.0752688 2:-0.241725 3:-0.340855 4:-0.241725 5:-1 6:-1 7:-0.891304 3:-0.340855 4:-0.241725 5:-1 6:-1 7:-1 8:0.393258 4:-0.852139 5:-1 6:-1 7:-1 8:-1 9:-0.873684 
0.4021482669066315 0:0.0751463 1:-0.241725 2:-0.241725 3:-0.340855 4:-0.241725 5:-0.77551 1:-0.241725 2:-0.241725 3:-0.340855 4:-0.241725 5:-1 6:0.419355 2:-0.479108 3:-0.340855 4:-0.241725 5:-1 6:-1 7:-0.326087 3:-0.340855 4:-0.241725 5:-1 6:-1 7:-1 8:1 4:-0.241725 5:-1 6:-1 7:-1 8:-1 9:-0.852632 
0.8709725325665774 0:0.0751463 1:-0.241725 2:-0.241725 3:-0.340855 4:-0.241725 5:-0.897959 1:-0.507988 2:-0.241725 3:-0.340855 4:-0.241725 5:-1 6:-0.870968 2:-0.241725 3:-0.340855 4:-0.241725 5:-1 6:-1 7:-0.26087 3:-0.340855 4:-0.241725 5:-1 6:-1 7:-1 8:0.483146 4:-0.241725 5:-1 6:-1 7:-1 8:-1 9:-0.978947 
