svm_type nu_svr
kernel_type rbf
gamma 0.25
nr_class 2
total_sv 6898
rho -0.0505167
SV
-1 0:-0.573836 1:0.496976 2:-0.114887 3:-0.767308 4:0.597759 
-1 0:-0.590846 1:0.517865 2:-0.103099 3:-0.767308 4:0.538709 
-1 0:-0.590846 1:0.489481 2:-0.103099 3:-0.768344 4:0.564132 
-1 0:-0.626902 1:0.489481 2:-0.157562 3:-0.75342 4:0.597759 
-1 0:-0.573836 1:0.509316 2:-0.157562 3:-0.741297 4:0.602551 
-1 0:-0.550277 1:0.476644 2:-0.103099 3:-0.725557 4:0.602551 
-1 0:-0.573836 1:0.496976 2:-0.103099 3:-0.712949 4:0.538709 
-1 0:-0.553804 1:0.489481 2:-0.157562 3:-0.75342 4:0.508559 
-1 0:-0.553804 1:0.489481 2:-0.0402037 3:-0.7741 4:0.630597 
-1 0:-0.590846 1:0.517865 2:-0.103099 3:-0.767308 4:0.51487 
-1 0:-0.553804 1:0.506569 2:-0.103099 3:-0.741297 4:0.527027 
-1 0:-0.553804 1:0.509316 2:-0.0802239 3:-0.7273 4:0.597759 
-1 0:-0.573836 1:0.538291 2:-0.157562 3:-0.725557 4:0.538709 
-1 0:-0.553804 1:0.489481 2:-0.0802239 3:-0.768344 4:0.538232 
-1 0:-0.590846 1:0.484225 2:-0.0402037 3:-0.7741 4:0.597759 
-1 0:-0.578074 1:0.484225 2:-0.114887 3:-0.725557 4:0.602551 
-1 0:-0.553804 1:0.496976 2:-0.0802239 3:-0.7741 4:0.597759 
1 0:-0.558484 1:0.536923 2:-0.0301029 3:-0.7537 4:0.660734 
1 0:-0.509331 1:0.524963 2:-0.0732926 3:-0.7537 4:0.486857 
1 0:-0.587428 1:0.584102 2:-0.115689 3:-0.70832 4:0.516076 
1 0:-0.509331 1:0.558532 2:-0.125699 3:-0.7537 4:0.668334 
-1 0:-0.558484 1:0.512109 2:-0.183644 3:-0.70832 4:0.630597 
1 0:-0.536078 1:0.498904 2:-0.0732926 3:-0.711934 4:0.572419 
1 0:-0.575956 1:0.517914 2:-0.143792 3:-0.689866 4:0.529875 
1 0:-0.605614 1:0.525594 2:-0.0522786 3:-0.721112 4:0.674013 
1 0:-0.448564 1:0.51779 2:-0.0522786 3:-0.74277 4:0.573442 
1 0:-0.540098 1:0.482039 2:-0.0844356 3:-0.75247 4:0.674013 
1 0:-0.448564 1:0.539161 2:-0.111657 3:-0.763529 4:0.529875 
1 0:-0.587733 1:0.488648 2:0.0668345 3:-0.721112 4:0.516634 
1 0:-0.542426 1:0.539161 2:-0.143792 3:-0.721112 4:0.529875 
1 0:-0.448564 1:0.505373 2:-0.143792 3:-0.721112 4:0.529875 
1 0:-0.540098 1:0.539161 2:-0.143792 3:-0.75247 4:0.560784 
1 0:-0.542426 1:0.539161 2:-0.162306 3:-0.74277 4:0.516634 
1 0:-0.553938 1:0.517914 2:-0.0677643 3:-0.721112 4:0.571313 
1 0:-0.448564 1:0.525594 2:-0.0383161 3:-0.763529 4:0.540262 
1 0:-0.448564 1:0.525594 2:-0.111657 3:-0.731523 4:0.571313 
1 0:-0.605614 1:0.525594 2:-0.111657 3:-0.757332 4:0.560784 
1 0:-0.448564 1:0.524282 2:-0.14796 3:-0.74277 4:0.674013 
1 0:-0.448564 1:0.525594 2:-0.14796 3:-0.763529 4:0.540262 
-1 0:-0.547828 1:0.541525 2:0.0304628 3:-0.768491 4:0.612753 
-1 0:-0.57525 1:0.544323 2:-0.0331838 3:-0.723487 4:0.576635 
-1 0:-0.547828 1:0.504061 2:-0.0519646 3:-0.761572 4:0.612753 
1 0:-0.506886 1:0.570847 2:-0.138196 3:-0.752026 4:0.545572 
-1 0:-0.506886 1:0.541525 2:-0.0151527 3:-0.768491 4:0.576635 
-1 0:-0.547828 1:0.541525 2:-0.063491 3:-0.722721 4:0.630597 
1 0:-0.57525 1:0.544323 2:-0.0772255 3:-0.749984 4:0.612753 
-1 0:-0.57525 1:0.544323 2:-0.157979 3:-0.752026 4:0.612753 
1 0:-0.547828 1:0.570847 2:-0.114504 3:-0.749984 4:0.612753 
-1 0:-0.57525 1:0.544323 2:0.0304628 3:-0.761572 4:0.585247 
1 0:-0.57525 1:0.544323 2:-0.0331838 3:-0.749984 4:0.612753 
1 0:-0.506886 1:0.484033 2:0.0304628 3:-0.749984 4:0.602181 
1 0:-0.57534 1:0.38789 2:-0.138196 3:-0.749984 4:0.576635 
-1 0:-0.528205 1:0.516279 2:-0.105467 3:-0.751701 4:0.554506 
-1 0:-0.556617 1:0.468412 2:-0.105467 3:-0.736693 4:0.531593 
-1 0:-0.528205 1:0.459885 2:-0.109972 3:-0.787092 4:0.573968 
-1 0:-0.395144 1:0.532301 2:-0.105467 3:-0.745802 4:0.466293 
-1 0:-0.395144 1:0.532301 2:-0.191886 3:-0.750125 4:0.531593 
-0.2193104712272104 0:-0.538994 1:0.530717 2:-0.120227 3:-0.731403 4:0.562294 
-1 0:-0.538994 1:0.530717 2:-0.120227 3:-0.731403 4:0.538249 
-1 0:-0.450457 1:0.512675 2:-0.120227 3:-0.731403 4:0.538249 
-1 0:-0.555601 1:0.591476 2:-0.0519348 3:-0.735366 4:0.625654 
-1 0:-0.555601 1:0.591476 2:-0.0566446 3:-0.753412 4:0.562294 
-1 0:-0.566173 1:0.498009 2:-0.130849 3:-0.772421 4:0.503426 
-1 0:-0.563115 1:0.498009 2:-0.0737366 3:-0.742485 4:0.593934 
-1 0:-0.655626 1:0.498009 2:-0.0836226 3:-0.727348 4:0.529108 
-1 0:-0.574696 1:0.512614 2:-0.127642 3:-0.769711 4:0.529108 
-1 0:-0.566173 1:0.460445 2:-0.0836226 3:-0.727348 4:0.497637 
-1 0:-0.563115 1:0.522843 2:-0.16147 3:-0.727348 4:0.526306 
-1 0:-0.601092 1:0.491701 2:-0.0403388 3:-0.769711 4:0.561593 
-1 0:-0.589015 1:0.518288 2:-0.130849 3:-0.772421 4:0.529108 
-1 0:-0.589015 1:0.480037 2:-0.0737366 3:-0.727348 4:0.561593 
-1 0:-0.53833 1:0.534473 2:-0.0423957 3:-0.723169 4:0.603057 
-1 0:-0.492127 1:0.537281 2:-0.0790828 3:-0.723169 4:0.617867 
-1 0:-0.421344 1:0.537281 2:-0.0790828 3:-0.723169 4:0.603057 
-1 0:-0.519374 1:0.535924 2:-0.0281289 3:-0.723169 4:0.617867 
-1 0:-0.492127 1:0.520027 2:-0.0849245 3:-0.723077 4:0.630597 
-1 0:-0.53833 1:0.534473 2:-0.00904405 3:-0.728067 4:0.617867 
-1 0:-0.53833 1:0.592563 2:-0.00904405 3:-0.703228 4:0.564985 
-1 0:-0.521781 1:0.52038 2:-0.0283893 3:-0.742941 4:0.617867 
-1 0:-0.421344 1:0.570001 2:-0.0790828 3:-0.723169 4:0.603057 
-1 0:-0.492127 1:0.543854 2:-0.079849 3:-0.750017 4:0.602862 
-1 0:-0.521781 1:0.552986 2:0.0775997 3:-0.750017 4:0.603057 
-1 0:-0.521781 1:0.552646 2:0.0286277 3:-0.686101 4:0.587841 
-1 0:-0.461351 1:0.592563 2:-0.0423957 3:-0.742941 4:0.590195 
-1 0:-0.461351 1:0.52038 2:-0.0283893 3:-0.723077 4:0.630597 
-1 0:-0.492127 1:0.552986 2:-0.079849 3:-0.742941 4:0.603057 
-1 0:-0.524354 1:0.552646 2:-0.0423957 3:-0.741166 4:0.630597 
-1 0:-0.521781 1:0.552646 2:0.0286277 3:-0.742941 4:0.682057 
-1 0:-0.521781 1:0.520027 2:-0.0484927 3:-0.742941 4:0.682057 
-1 0:-0.53833 1:0.592563 2:-0.0790828 3:-0.730199 4:0.603057 
1 0:-0.612637 1:0.54192 2:-0.166491 3:-0.756125 4:0.487871 
1 0:-0.560534 1:0.500803 2:-0.122621 3:-0.731906 4:0.487871 
1 0:-0.566371 1:0.511301 2:-0.122621 3:-0.725476 4:0.584195 
1 0:-0.612637 1:0.54192 2:-0.122621 3:-0.731906 4:0.494803 
1 0:-0.612637 1:0.500322 2:-0.0349877 3:-0.731906 4:0.540149 
1 0:-0.612637 1:0.472834 2:-0.092779 3:-0.748186 4:0.499674 
1 0:-0.633658 1:0.500803 2:-0.0349877 3:-0.74779 4:0.499674 
1 0:-0.612637 1:0.497927 2:-0.129005 3:-0.773747 4:0.540149 
1 0:-0.612637 1:0.54192 2:-0.0349877 3:-0.74779 4:0.630597 
1 0:-0.560534 1:0.497927 2:-0.0999235 3:-0.756125 4:0.599921 
1 0:-0.612637 1:0.477108 2:-0.0987898 3:-0.731906 4:0.540149 
1 0:-0.565444 1:0.500803 2:-0.0533732 3:-0.773747 4:0.597932 
1 0:-0.612637 1:0.500322 2:-0.0533732 3:-0.74779 4:0.597932 
-1 0:-0.468457 1:0.529335 2:-0.205131 3:-0.722075 4:0.55939 
-1 0:-0.603622 1:0.508537 2:-0.0902573 3:-0.745004 4:0.57951 
-1 0:-0.482065 1:0.50861 2:-0.0746996 3:-0.784981 4:0.556212 
-1 0:-0.603622 1:0.565994 2:-0.104631 3:-0.720786 4:0.723441 
-1 0:-0.468457 1:0.618079 2:-0.104788 3:-0.734099 4:0.55939 
-1 0:-0.603622 1:0.508537 2:-0.0746996 3:-0.743517 4:0.638966 
-1 0:-0.545764 1:0.565994 2:-0.0215771 3:-0.722075 4:0.57951 
-1 0:-0.570345 1:0.546872 2:-0.0902573 3:-0.784981 4:0.57951 
-1 0:-0.603622 1:0.618079 2:-0.0746996 3:-0.744806 4:0.55939 
-1 0:-0.570345 1:0.50861 2:-0.0215771 3:-0.712095 4:0.57951 
-1 0:-0.603622 1:0.508537 2:0.132987 3:-0.720786 4:0.57951 
-1 0:-0.555462 1:0.508537 2:-0.104631 3:-0.739365 4:0.638966 
-1 0:-0.570345 1:0.618079 2:-0.205131 3:-0.744806 4:0.638966 
-1 0:-0.468457 1:0.508537 2:0.00327249 3:-0.744806 4:0.470803 
1 0:-0.571308 1:0.50102 2:-0.260514 3:-0.729593 4:0.604783 
1 0:-0.54963 1:0.507994 2:-0.095273 3:-0.687024 4:0.604783 
1 0:-0.571308 1:0.50102 2:-0.0467579 3:-0.74102 4:0.619347 
-1 0:-0.522937 1:0.436795 2:-0.125186 3:-0.781073 4:0.680083 
1 0:-0.571308 1:0.553898 2:-0.260514 3:-0.729593 4:0.565371 
1 0:-0.571308 1:0.50102 2:-0.0794316 3:-0.740717 4:0.630597 
-0.3706557630345678 0:-0.697564 1:0.535272 2:0.0749584 3:-0.740717 4:0.513055 
1 0:-0.571308 1:0.553898 2:-0.0467579 3:-0.740717 4:0.533585 
-0.4777126174097285 0:-0.571308 1:0.553898 2:-0.095273 3:-0.757022 4:0.479152 
1 0:-0.53947 1:0.547765 2:-0.101593 3:-0.736229 4:0.630597 
1 0:-0.500782 1:0.529338 2:-0.069481 3:-0.749059 4:0.479966 
1 0:-0.500782 1:0.529338 2:-0.069481 3:-0.736229 4:0.565829 
-1 0:-0.509736 1:0.531168 2:-0.111827 3:-0.71327 4:0.553358 
1 0:-0.578238 1:0.53799 2:-0.141994 3:-0.736084 4:0.540518 
1 0:-0.562057 1:0.531168 2:-0.0396088 3:-0.714447 4:0.540518 
1 0:-0.574206 1:0.53799 2:-0.141994 3:-0.71327 4:0.594479 
1 0:-0.578238 1:0.505295 2:-0.141994 3:-0.736084 4:0.594479 
1 0:-0.578238 1:0.542716 2:-0.141994 3:-0.736084 4:0.630597 
1 0:-0.509736 1:0.50636 2:-0.0408583 3:-0.714447 4:0.563469 
1 0:-0.487559 1:0.531168 2:-0.146118 3:-0.727092 4:0.554752 
1 0:-0.562057 1:0.555222 2:-0.141994 3:-0.71327 4:0.594479 
1 0:-0.509736 1:0.50636 2:-0.0408583 3:-0.727092 4:0.563469 
1 0:-0.604109 1:0.53799 2:-0.111827 3:-0.714447 4:0.594479 
1 0:-0.574206 1:0.489497 2:-0.0556645 3:-0.714447 4:0.563469 
1 0:-0.562057 1:0.50636 2:-0.141994 3:-0.736084 4:0.540518 
1 0:-0.574206 1:0.491397 2:-0.111827 3:-0.736084 4:0.563469 
1 0:-0.583869 1:0.526315 2:-0.037816 3:-0.714341 4:0.50333 
1 0:-0.561828 1:0.540112 2:0.0621777 3:-0.726465 4:0.621723 
1 0:-0.603838 1:0.500911 2:-0.036252 3:-0.726465 4:0.564784 
1 0:-0.549564 1:0.493127 2:-0.145787 3:-0.726465 4:0.546097 
1 0:-0.494434 1:0.522942 2:0.0107519 3:-0.71717 4:0.630597 
1 0:-0.500123 1:0.528622 2:0.0107519 3:-0.710187 4:0.605777 
1 0:-0.474137 1:0.548137 2:-0.0735202 3:-0.722533 4:0.605777 
1 0:-0.500123 1:0.501772 2:-0.0735202 3:-0.722533 4:0.630597 
1 0:-0.500123 1:0.530638 2:-0.0265715 3:-0.71717 4:0.630597 
1 0:-0.544801 1:0.541452 2:-0.0150676 3:-0.722533 4:0.605777 
1 0:-0.560125 1:0.549871 2:0.0107519 3:-0.71717 4:0.604221 
1 0:-0.534729 1:0.514301 2:-0.0150676 3:-0.710187 4:0.604221 
1 0:-0.494434 1:0.561766 2:-0.011238 3:-0.710187 4:0.605777 
1 0:-0.560125 1:0.551345 2:-0.0333435 3:-0.70948 4:0.612816 
1 0:-0.474137 1:0.549871 2:0.0107519 3:-0.722533 4:0.605777 
1 0:-0.474098 1:0.507463 2:0.00687158 3:-0.748343 4:0.594887 
1 0:-0.474098 1:0.507034 2:-0.10712 3:-0.732437 4:0.680453 
1 0:-0.477607 1:0.531525 2:-0.0169855 3:-0.726958 4:0.677299 
1 0:-0.423097 1:0.56077 2:0.00687158 3:-0.748343 4:0.611383 
1 0:-0.611536 1:0.531525 2:-0.0392248 3:-0.748343 4:0.611383 
1 0:-0.516651 1:0.531525 2:0.00687158 3:-0.748343 4:0.680453 
-1 0:-0.477607 1:0.507463 2:0.0712327 3:-0.686851 4:0.630597 
1 0:-0.477607 1:0.507463 2:-0.0548907 3:-0.71918 4:0.629209 
1 0:-0.477607 1:0.507463 2:-0.0548907 3:-0.71918 4:0.677299 
1 0:-0.474098 1:0.509856 2:-0.155209 3:-0.726958 4:0.594887 
1 0:-0.477721 1:0.531525 2:0.00687158 3:-0.726958 4:0.594887 
1 0:-0.573012 1:0.509856 2:-0.0548907 3:-0.710837 4:0.630597 
1 0:-0.477607 1:0.507463 2:-0.101927 3:-0.710837 4:0.611383 
1 0:-0.572455 1:0.541187 2:0.0977717 3:-0.765794 4:0.591276 
1 0:-0.572455 1:0.541187 2:0.00815683 3:-0.74408 4:0.697129 
1 0:-0.572455 1:0.516188 2:-0.0853354 3:-0.739218 4:0.57106 
1 0:-0.478075 1:0.541581 2:-0.0738531 3:-0.738054 4:0.697129 
1 0:-0.572455 1:0.560571 2:-0.169325 3:-0.738054 4:0.591276 
1 0:-0.556778 1:0.541187 2:-0.0330637 3:-0.739218 4:0.57106 
1 0:-0.478075 1:0.53659 2:-0.0853354 3:-0.738054 4:0.592521 
1 0:-0.520599 1:0.516188 2:-0.0422294 3:-0.738054 4:0.697129 
1 0:-0.51175 1:0.517499 2:-0.192537 3:-0.738054 4:0.591276 
-1 0:-0.591115 1:0.522158 2:-0.0446041 3:-0.746549 4:0.453725 
-1 0:-0.591115 1:0.486078 2:-0.135933 3:-0.703533 4:0.479384 
1 0:-0.462064 1:0.486078 2:-0.0446041 3:-0.746549 4:0.500665 
-1 0:-0.591115 1:0.486078 2:-0.0446041 3:-0.757443 4:0.479384 
-1 0:-0.48705 1:0.505525 2:-0.105459 3:-0.735513 4:0.619469 
-1 0:-0.575687 1:0.508228 2:-0.141249 3:-0.723879 4:0.528305 
-1 0:-0.575687 1:0.548731 2:-0.128172 3:-0.715396 4:0.576488 
-1 0:-0.538781 1:0.505525 2:-0.0961257 3:-0.703425 4:0.518535 
-1 0:-0.570893 1:0.553973 2:-0.0304214 3:-0.758066 4:0.576488 
-1 0:-0.533754 1:0.548731 2:-0.0923654 3:-0.736054 4:0.601344 
-1 0:-0.538781 1:0.55551 2:-0.0923654 3:-0.703425 4:0.601344 
-1 0:-0.575687 1:0.52676 2:0.0280623 3:-0.715396 4:0.576488 
-1 0:-0.49907 1:0.569741 2:-0.0304214 3:-0.715396 4:0.576488 
-1 0:-0.48705 1:0.508228 2:-0.0923654 3:-0.723879 4:0.518535 
1 0:-0.48705 1:0.505525 2:-0.105459 3:-0.703425 4:0.630597 
-1 0:-0.48705 1:0.505525 2:-0.0175424 3:-0.723879 4:0.528305 
1 0:-0.48705 1:0.526337 2:-0.0175424 3:-0.758066 4:0.619469 
-1 0:-0.589223 1:0.517208 2:-0.197333 3:-0.749594 4:0.499141 
1 0:-0.485321 1:0.520815 2:-0.197333 3:-0.755437 4:0.56216 
-1 0:-0.552434 1:0.479326 2:-0.000712415 3:-0.752459 4:0.499141 
-1 0:-0.552434 1:0.479326 2:-0.197333 3:-0.755437 4:0.499141 
-1 0:-0.548573 1:0.479326 2:-0.103949 3:-0.752459 4:0.499141 
-1 0:-0.548573 1:0.497891 2:-0.103949 3:-0.782254 4:0.601529 
-1 0:-0.509389 1:0.479782 2:-0.103949 3:-0.724764 4:0.419937 
-1 0:-0.548573 1:0.517208 2:-0.273206 3:-0.749594 4:0.499141 
1 0:-0.485321 1:0.518638 2:-0.197333 3:-0.723793 4:0.533923 
1 0:-0.586442 1:0.55032 2:-0.0999948 3:-0.694011 4:0.629457 
1 0:-0.586442 1:0.524593 2:-0.124437 3:-0.730574 4:0.630597 
1 0:-0.586442 1:0.523902 2:-0.0999948 3:-0.710721 4:0.665156 
1 0:-0.543098 1:0.510746 2:-0.0495626 3:-0.768257 4:0.611125 
1 0:-0.525229 1:0.499486 2:-0.0728777 3:-0.719301 4:0.629457 
1 0:-0.439822 1:0.510746 2:-0.124437 3:-0.738728 4:0.629457 
1 0:-0.439822 1:0.55032 2:-0.157311 3:-0.72646 4:0.611125 
1 0:-0.586442 1:0.524593 2:-0.0728777 3:-0.738224 4:0.613544 
1 0:-0.586442 1:0.523902 2:-0.157311 3:-0.727411 4:0.593173 
1 0:-0.586442 1:0.55032 2:-0.0405199 3:-0.730574 4:0.593173 
1 0:-0.517841 1:0.499486 2:-0.0413566 3:-0.710721 4:0.595831 
1 0:-0.496253 1:0.48434 2:-0.0728777 3:-0.72646 4:0.611125 
1 0:-0.439822 1:0.55032 2:-0.0999948 3:-0.710721 4:0.571818 
1 0:-0.541873 1:0.538146 2:-0.124437 3:-0.710721 4:0.611125 
1 0:-0.543098 1:0.538146 2:-0.124437 3:-0.730574 4:0.629457 
1 0:-0.586442 1:0.55032 2:-0.157311 3:-0.738728 4:0.593173 
1 0:-0.586442 1:0.55032 2:-0.0405199 3:-0.727704 4:0.611125 
1 0:-0.511312 1:0.518637 2:0.019109 3:-0.723963 4:0.630597 
-1 0:-0.656564 1:0.522887 2:0.0294012 3:-0.754363 4:0.59977 
1 0:-0.544898 1:0.541827 2:-0.0678618 3:-0.754363 4:0.638353 
1 0:-0.565025 1:0.570358 2:-0.0057269 3:-0.737903 4:0.573369 
1 0:-0.552435 1:0.502642 2:-0.0705204 3:-0.708815 4:0.601165 
-1 0:-0.656564 1:0.511537 2:-0.0736397 3:-0.706557 4:0.559078 
1 0:-0.511312 1:0.570358 2:-0.117585 3:-0.737843 4:0.562158 
1 0:-0.656564 1:0.522887 2:0.0294012 3:-0.706557 4:0.630597 
-1 0:-0.533468 1:0.533452 2:-0.04637 3:-0.748489 4:0.524658 
-1 0:-0.533468 1:0.59612 2:-0.133054 3:-0.729283 4:0.589428 
-1 0:-0.533468 1:0.533452 2:-0.053738 3:-0.759773 4:0.519435 
-1 0:-0.567078 1:0.533452 2:-0.053738 3:-0.779728 4:0.589428 
-1 0:-0.533468 1:0.533452 2:-0.0398525 3:-0.779728 4:0.589428 
-1 0:-0.415036 1:0.538453 2:-0.135703 3:-0.720119 4:0.589428 
-1 0:-0.526165 1:0.532056 2:-0.135703 3:-0.720119 4:0.589428 
-1 0:-0.415036 1:0.533452 2:-0.053738 3:-0.727178 4:0.5898 
-1 0:-0.599147 1:0.538453 2:-0.053738 3:-0.729283 4:0.630597 
-1 0:-0.415036 1:0.492295 2:-0.053738 3:-0.729283 4:0.630597 
-1 0:-0.415036 1:0.492295 2:-0.04637 3:-0.7607 4:0.524658 
-1 0:-0.415036 1:0.492295 2:-0.135703 3:-0.730974 4:0.589428 
-1 0:-0.599147 1:0.51038 2:-0.0264173 3:-0.720119 4:0.589428 
-1 0:-0.415036 1:0.492295 2:-0.0398525 3:-0.748489 4:0.5898 
-1 0:-0.415036 1:0.533452 2:-0.135703 3:-0.722479 4:0.589428 
-1 0:-0.504452 1:0.480152 2:0.00573732 3:-0.710187 4:0.494142 
1 0:-0.620613 1:0.437491 2:0.040209 3:-0.752398 4:0.630597 
1 0:-0.617464 1:0.500683 2:-0.259003 3:-0.769731 4:0.527074 
-1 0:-0.617464 1:0.545696 2:-0.121838 3:-0.710187 4:0.503384 
1 0:-0.584273 1:0.437491 2:0.00872936 3:-0.758642 4:0.560994 
-1 0:-0.504452 1:0.505231 2:0.00573732 3:-0.755136 4:0.494142 
1 0:-0.504452 1:0.500683 2:-0.259003 3:-0.769731 4:0.628362 
1 0:-0.620613 1:0.437491 2:0.00573732 3:-0.710187 4:0.494142 
-1 0:-0.50747 1:0.506878 2:-0.161596 3:-0.771298 4:0.527231 
-1 0:-0.567696 1:0.535015 2:-0.137647 3:-0.771298 4:0.556886 
-1 0:-0.567696 1:0.538331 2:-0.149491 3:-0.729787 4:0.527231 
-1 0:-0.616754 1:0.4934 2:0.120008 3:-0.806394 4:0.527231 
-1 0:-0.597188 1:0.508485 2:-0.0899215 3:-0.710187 4:0.630597 
-1 0:-0.620356 1:0.519456 2:-0.266356 3:-0.749927 4:0.556886 
-1 0:-0.567696 1:0.535015 2:-0.0278249 3:-0.671269 4:0.630597 
-1 0:-0.567696 1:0.535015 2:-0.161596 3:-0.806394 4:0.500037 
-1 0:-0.567696 1:0.6121 2:-0.266356 3:-0.744688 4:0.527231 
-1 0:-0.50747 1:0.535015 2:-0.0810875 3:-0.744688 4:0.527231 
-1 0:-0.567696 1:0.4934 2:-0.161596 3:-0.741599 4:0.556886 
-1 0:-0.567696 1:0.538331 2:-0.0810875 3:-0.744688 4:0.713744 
1 0:-0.591872 1:0.546855 2:-0.0349305 3:-0.758544 4:0.507988 
1 0:-0.474746 1:0.581337 2:-0.19402 3:-0.758544 4:0.507988 
1 0:-0.474746 1:0.519805 2:-0.0861703 3:-0.734319 4:0.507988 
1 0:-0.594691 1:0.488178 2:-0.0216157 3:-0.781095 4:0.559689 
1 0:-0.550365 1:0.546855 2:-0.148981 3:-0.694622 4:0.507988 
1 0:-0.591872 1:0.53762 2:-0.148981 3:-0.694622 4:0.630597 
1 0:-0.591872 1:0.488178 2:-0.0602715 3:-0.741334 4:0.507988 
1 0:-0.518773 1:0.519805 2:-0.0349305 3:-0.781095 4:0.633214 
1 0:-0.591872 1:0.488178 2:-0.0349305 3:-0.781095 4:0.564052 
1 0:-0.619064 1:0.540721 2:-0.0602715 3:-0.758544 4:0.507988 
1 0:-0.591872 1:0.546855 2:-0.155364 3:-0.758544 4:0.559689 
1 0:-0.594691 1:0.53762 2:-0.0803314 3:-0.7208 4:0.559689 
1 0:-0.591872 1:0.540721 2:-0.0216157 3:-0.767576 4:0.559689 
1 0:-0.591872 1:0.494808 2:-0.0216157 3:-0.781095 4:0.527285 
1 0:-0.591872 1:0.540721 2:-0.0602715 3:-0.758544 4:0.507988 
1 0:-0.594691 1:0.562448 2:-0.148981 3:-0.7208 4:0.507988 
1 0:-0.550063 1:0.505171 2:-0.12749 3:-0.760568 4:0.501333 
-1 0:-0.54892 1:0.497296 2:-0.150072 3:-0.752443 4:0.397785 
1 0:-0.58731 1:0.481761 2:-0.150072 3:-0.757827 4:0.501333 
1 0:-0.588891 1:0.52062 2:-0.19684 3:-0.733527 4:0.397785 
1 0:-0.532128 1:0.498079 2:-0.125554 3:-0.752443 4:0.501333 
1 0:-0.550063 1:0.498079 2:-0.164272 3:-0.752443 4:0.397785 
1 0:-0.645546 1:0.498079 2:-0.137438 3:-0.758422 4:0.397785 
-1 0:-0.537276 1:0.557106 2:-0.0570276 3:-0.716903 4:0.627764 
-1 0:-0.565002 1:0.547121 2:-0.112715 3:-0.716903 4:0.504955 
-1 0:-0.480706 1:0.557106 2:-0.112715 3:-0.716903 4:0.545387 
-1 0:-0.484219 1:0.51155 2:-0.0512993 3:-0.75266 4:0.608355 
-1 0:-0.565002 1:0.53318 2:-0.105311 3:-0.769553 4:0.504955 
-1 0:-0.501925 1:0.530541 2:-0.112715 3:-0.750071 4:0.504955 
-1 0:-0.61628 1:0.504886 2:-0.010474 3:-0.714296 4:0.547386 
-1 0:-0.565002 1:0.509529 2:-0.010474 3:-0.714296 4:0.504955 
-1 0:-0.537276 1:0.53318 2:-0.105311 3:-0.769553 4:0.547386 
-1 0:-0.480706 1:0.53318 2:-0.0570276 3:-0.714296 4:0.576024 
-1 0:-0.565002 1:0.527186 2:-0.0570276 3:-0.750071 4:0.503765 
-1 0:-0.614978 1:0.53318 2:-0.010474 3:-0.769553 4:0.545387 
-1 0:-0.565002 1:0.559087 2:-0.00301887 3:-0.769553 4:0.547386 
-1 0:-0.565002 1:0.527186 2:-0.00301887 3:-0.769553 4:0.627764 
-1 0:-0.501925 1:0.559087 2:-0.112715 3:-0.716903 4:0.621819 
-1 0:-0.542939 1:0.465645 2:-0.0474838 3:-0.770407 4:0.548728 
1 0:-0.490367 1:0.568703 2:-0.197893 3:-0.759764 4:0.530229 
1 0:-0.490367 1:0.523992 2:-0.0984332 3:-0.757166 4:0.588595 
1 0:-0.542939 1:0.481509 2:-0.152743 3:-0.757166 4:0.618927 
1 0:-0.490367 1:0.534937 2:-0.0470703 3:-0.711712 4:0.620003 
1 0:-0.56712 1:0.511465 2:-0.0470703 3:-0.757166 4:0.618927 
1 0:-0.454131 1:0.553639 2:0.0258084 3:-0.729702 4:0.620003 
1 0:-0.454131 1:0.553639 2:-0.0474838 3:-0.757166 4:0.627338 
-1 0:-0.508086 1:0.560834 2:-0.0270766 3:-0.721815 4:0.630597 
-1 0:-0.6557 1:0.543647 2:0.00872936 3:-0.724492 4:0.554253 
-1 0:-0.506859 1:0.510518 2:0.00872936 3:-0.722651 4:0.605754 
-1 0:-0.6557 1:0.549773 2:-0.0321742 3:-0.722651 4:0.563122 
-1 0:-0.508086 1:0.544339 2:-0.020549 3:-0.724492 4:0.563122 
-1 0:-0.508086 1:0.544339 2:-0.100489 3:-0.74177 4:0.628731 
1 0:-0.561078 1:0.560834 2:-0.0270766 3:-0.785018 4:0.599065 
-1 0:-0.6557 1:0.543647 2:-0.0934452 3:-0.74177 4:0.630597 
-1 0:-0.4927 1:0.506056 2:-0.0546155 3:-0.77209 4:0.536451 
-1 0:-0.574746 1:0.490082 2:-0.0147639 3:-0.739143 4:0.616793 
-1 0:-0.580543 1:0.531652 2:-0.176702 3:-0.718403 4:0.595726 
-1 0:-0.4927 1:0.479291 2:-0.0747767 3:-0.725909 4:0.595726 
-1 0:-0.574746 1:0.531652 2:-0.176702 3:-0.766346 4:0.597007 
-1 0:-0.574746 1:0.490082 2:-0.0747767 3:-0.766346 4:0.616793 
-1 0:-0.574746 1:0.490082 2:-0.0147639 3:-0.743197 4:0.595726 
-1 0:-0.574746 1:0.493932 2:-0.176702 3:-0.716648 4:0.510616 
-1 0:-0.574746 1:0.552323 2:-0.151848 3:-0.725909 4:0.595726 
1 0:-0.568122 1:0.490068 2:-0.0147942 3:-0.71668 4:0.604798 
1 0:-0.603097 1:0.572274 2:-0.206681 3:-0.71668 4:0.630597 
1 0:-0.568122 1:0.562262 2:-0.144879 3:-0.701503 4:0.637777 
1 0:-0.504112 1:0.490068 2:0.0335595 3:-0.718414 4:0.583395 
1 0:-0.469758 1:0.545888 2:-0.0147942 3:-0.754477 4:0.604798 
1 0:-0.581064 1:0.562262 2:-0.144879 3:-0.722263 4:0.616726 
1 0:-0.568122 1:0.490068 2:0.0183379 3:-0.732281 4:0.604798 
1 0:-0.551186 1:0.545888 2:-0.0544441 3:-0.71668 4:0.469645 
1 0:-0.568122 1:0.490068 2:0.0335595 3:-0.732281 4:0.61254 
1 0:-0.523996 1:0.549701 2:0.0335595 3:-0.718414 4:0.616726 
-1 0:-0.551186 1:0.562262 2:-0.144879 3:-0.785523 4:0.616726 
1 0:-0.523996 1:0.549701 2:-0.0237147 3:-0.706826 4:0.563301 
1 0:-0.568122 1:0.545888 2:-0.00983522 3:-0.718414 4:0.535974 
1 0:-0.475076 1:0.544927 2:-0.0544441 3:-0.706826 4:0.613021 
1 0:-0.475076 1:0.552282 2:-0.206681 3:-0.732281 4:0.613021 
1 0:-0.504112 1:0.531731 2:-0.0147942 3:-0.754477 4:0.469645 
1 0:-0.523996 1:0.519342 2:-0.0257992 3:-0.71668 4:0.61254 
1 0:-0.551186 1:0.544927 2:0.0335595 3:-0.785523 4:0.547811 
1 0:-0.551186 1:0.562262 2:-0.0237147 3:-0.732281 4:0.61254 
1 0:-0.525149 1:0.529846 2:-0.131253 3:-0.760808 4:0.630597 
1 0:-0.533181 1:0.48665 2:-0.294175 3:-0.778375 4:0.522446 
-1 0:-0.61024 1:0.515556 2:-0.186242 3:-0.766503 4:0.587115 
1 0:-0.496624 1:0.534025 2:-0.0895535 3:-0.766503 4:0.522446 
1 0:-0.580508 1:0.486039 2:-0.0494646 3:-0.756679 4:0.522446 
1 0:-0.496624 1:0.486039 2:-0.152297 3:-0.745046 4:0.702844 
-1 0:-0.61024 1:0.529846 2:-0.294175 3:-0.74456 4:0.556121 
-1 0:-0.488144 1:0.350836 2:-0.0345489 3:-0.740873 4:0.630597 
-1 0:-0.512963 1:0.553118 2:-0.133493 3:-0.763666 4:0.660394 
1 0:-0.427513 1:0.566781 2:0.090469 3:-0.738796 4:0.604467 
1 0:-0.550987 1:0.593819 2:-0.118792 3:-0.6816 4:0.549143 
-1 0:-0.598435 1:0.502086 2:-0.0787859 3:-0.748313 4:0.614513 
-1 0:-0.434803 1:0.570725 2:-0.0787859 3:-0.748467 4:0.630597 
-1 0:-0.434803 1:0.550917 2:-0.118792 3:-0.702679 4:0.684094 
1 0:-0.550987 1:0.584973 2:-0.118792 3:-0.748313 4:0.691672 
-1 0:-0.427513 1:0.502086 2:-0.0787859 3:-0.748467 4:0.640241 
-1 0:-0.581785 1:0.570725 2:-0.0787859 3:-0.748467 4:0.640241 
-1 0:-0.434803 1:0.589084 2:-0.118792 3:-0.748313 4:0.630597 
1 0:-0.584355 1:0.490906 2:-0.0587622 3:-0.732523 4:0.556193 
1 0:-0.584355 1:0.489465 2:-0.0587622 3:-0.732523 4:0.4831 
1 0:-0.530772 1:0.500637 2:-0.0551377 3:-0.766438 4:0.534476 
1 0:-0.530772 1:0.532886 2:-0.0587622 3:-0.732523 4:0.597643 
1 0:-0.530772 1:0.542159 2:-0.0587622 3:-0.732523 4:0.549484 
1 0:-0.566293 1:0.489465 2:-0.0551377 3:-0.766438 4:0.534476 
-1 0:-0.584355 1:0.532886 2:-0.188673 3:-0.766438 4:0.597643 
1 0:-0.566293 1:0.532886 2:-0.0551377 3:-0.760023 4:0.597643 
1 0:-0.577257 1:0.584993 2:-0.114946 3:-0.737325 4:0.557953 
1 0:-0.434768 1:0.503858 2:-0.065905 3:-0.744189 4:0.555384 
-1 0:-0.434768 1:0.51288 2:-0.123155 3:-0.725249 4:0.538188 
1 0:-0.577257 1:0.4927 2:-0.068868 3:-0.744189 4:0.669757 
1 0:-0.512791 1:0.503858 2:-0.068868 3:-0.76191 4:0.669757 
1 0:-0.512791 1:0.500076 2:-0.114946 3:-0.744189 4:0.669757 
1 0:-0.599582 1:0.513357 2:-0.171545 3:-0.765768 4:0.641011 
1 0:-0.502686 1:0.487618 2:-0.136849 3:-0.738784 4:0.571954 
1 0:-0.561798 1:0.511448 2:0.0226669 3:-0.736692 4:0.571954 
1 0:-0.599582 1:0.484372 2:-0.0984696 3:-0.738784 4:0.57397 
1 0:-0.561798 1:0.477783 2:-0.136849 3:-0.736692 4:0.571954 
1 0:-0.561798 1:0.487618 2:-0.136849 3:-0.738784 4:0.571954 
1 0:-0.525752 1:0.567255 2:-0.0670569 3:-0.738784 4:0.571954 
1 0:-0.561798 1:0.491674 2:-0.136849 3:-0.736692 4:0.571954 
1 0:-0.60744 1:0.567255 2:-0.171545 3:-0.762689 4:0.521822 
1 0:-0.599582 1:0.533684 2:-0.141392 3:-0.761101 4:0.495898 
1 0:-0.578334 1:0.491674 2:-0.136849 3:-0.736692 4:0.550499 
1 0:-0.613197 1:0.491674 2:-0.0697551 3:-0.738784 4:0.550499 
1 0:-0.624881 1:0.567255 2:-0.136849 3:-0.730798 4:0.57397 
1 0:-0.613197 1:0.487618 2:-0.136849 3:-0.738784 4:0.57397 
1 0:-0.599582 1:0.546692 2:-0.0502036 3:-0.762689 4:0.538471 
1 0:-0.60744 1:0.533684 2:-0.0984696 3:-0.738784 4:0.538471 
1 0:-0.613197 1:0.513357 2:-0.114568 3:-0.738784 4:0.571954 
1 0:-0.502686 1:0.484372 2:-0.141392 3:-0.705312 4:0.571954 
1 0:-0.60744 1:0.513357 2:-0.141392 3:-0.761101 4:0.571954 
-1 0:-0.50208 1:0.513594 2:-0.133749 3:-0.767052 4:0.507099 
-1 0:-0.496431 1:0.509966 2:-0.0527635 3:-0.760016 4:0.507099 
-1 0:-0.525898 1:0.550219 2:-0.101688 3:-0.767052 4:0.609816 
-1 0:-0.496431 1:0.495195 2:-0.153868 3:-0.719914 4:0.548094 
-1 0:-0.50208 1:0.526062 2:-0.153868 3:-0.719914 4:0.524848 
-1 0:-0.628653 1:0.526062 2:-0.101688 3:-0.719914 4:0.524139 
-1 0:-0.628653 1:0.547033 2:-0.101688 3:-0.767052 4:0.609816 
-1 0:-0.496431 1:0.513594 2:-0.176162 3:-0.719914 4:0.509106 
-1 0:-0.539269 1:0.509966 2:-0.126147 3:-0.719914 4:0.524848 
-1 0:-0.525898 1:0.475656 2:-0.101688 3:-0.719914 4:0.507099 
-1 0:-0.587794 1:0.532505 2:-0.0190831 3:-0.760016 4:0.507099 
-1 0:-0.525898 1:0.550219 2:-0.0667497 3:-0.757358 4:0.509106 
-1 0:-0.496431 1:0.495195 2:-0.0190831 3:-0.767992 4:0.630597 
-1 0:-0.539269 1:0.509966 2:-0.0938132 3:-0.760016 4:0.524848 
-1 0:-0.496431 1:0.526062 2:-0.133749 3:-0.767992 4:0.630597 
-1 0:-0.50208 1:0.526062 2:-0.101688 3:-0.767052 4:0.524848 
-1 0:-0.541667 1:0.547033 2:-0.126147 3:-0.736584 4:0.507099 
-1 0:-0.525898 1:0.550219 2:-0.126147 3:-0.731693 4:0.524139 
1 0:-0.562164 1:0.473768 2:-0.0792175 3:-0.763288 4:0.550663 
1 0:-0.693881 1:0.515445 2:-0.122026 3:-0.763288 4:0.489386 
1 0:-0.693881 1:0.515691 2:-0.0766626 3:-0.763288 4:0.489386 
-1 0:-0.596721 1:0.508451 2:0.0308217 3:-0.707608 4:0.611868 
-1 0:-0.519645 1:0.539075 2:-0.047376 3:-0.724377 4:0.566396 
-1 0:-0.596721 1:0.539075 2:0.0235567 3:-0.70246 4:0.545637 
-1 0:-0.516193 1:0.537128 2:-0.0922668 3:-0.707608 4:0.611868 
-1 0:-0.625634 1:0.567665 2:0.0308217 3:-0.729809 4:0.545637 
-1 0:-0.498085 1:0.567665 2:-0.0427276 3:-0.740237 4:0.545637 
-1 0:-0.551749 1:0.426565 2:-0.0427276 3:-0.707608 4:0.630597 
-1 0:-0.551749 1:0.426565 2:-0.0318447 3:-0.718953 4:0.545637 
-1 0:-0.596721 1:0.534987 2:-0.0922668 3:-0.707608 4:0.545637 
-1 0:-0.596721 1:0.519024 2:-0.0771935 3:-0.745509 4:0.545637 
-1 0:-0.625634 1:0.52125 2:-0.0922668 3:-0.749954 4:0.630597 
-1 0:-0.625634 1:0.567665 2:0.0308217 3:-0.812117 4:0.545637 
1 0:-0.491145 1:0.585621 2:-0.15035 3:-0.717681 4:0.514419 
1 0:-0.501251 1:0.48456 2:-0.0689306 3:-0.741974 4:0.618216 
1 0:-0.433654 1:0.487547 2:-0.0114302 3:-0.764566 4:0.608973 
1 0:-0.607566 1:0.525057 2:-0.0566971 3:-0.741461 4:0.508385 
1 0:-0.501251 1:0.48456 2:-0.0574283 3:-0.76739 4:0.615534 
1 0:-0.433654 1:0.530356 2:-0.0806942 3:-0.764566 4:0.608973 
1 0:-0.433654 1:0.530693 2:-0.0126999 3:-0.712538 4:0.615534 
1 0:-0.607566 1:0.48456 2:-0.0806942 3:-0.717237 4:0.508385 
0.3196207766876259 0:-0.433654 1:0.547501 2:-0.15035 3:-0.717681 4:0.508385 
1 0:-0.531654 1:0.487547 2:-0.0821607 3:-0.741461 4:0.670797 
-1 0:-0.545398 1:0.539853 2:-0.0678433 3:-0.706942 4:0.602907 
-1 0:-0.525656 1:0.512207 2:-0.074252 3:-0.715246 4:0.53257 
-1 0:-0.526888 1:0.529735 2:-0.0212899 3:-0.706942 4:0.602907 
-1 0:-0.563837 1:0.52945 2:-0.0368143 3:-0.720686 4:0.580157 
-1 0:-0.545398 1:0.525558 2:-0.0212899 3:-0.706942 4:0.580157 
-1 0:-0.514814 1:0.52945 2:-0.096822 3:-0.739208 4:0.637529 
-1 0:-0.526888 1:0.539853 2:-0.096822 3:-0.720686 4:0.619789 
-1 0:-0.519762 1:0.522605 2:-0.00573629 3:-0.75607 4:0.602907 
-1 0:-0.525656 1:0.52945 2:-0.074252 3:-0.720686 4:0.53257 
-1 0:-0.526888 1:0.522605 2:0.0180061 3:-0.723148 4:0.630597 
1 0:-0.51327 1:0.533739 2:-0.0368143 3:-0.720686 4:0.602907 
-1 0:-0.51327 1:0.533739 2:-0.0428716 3:-0.739208 4:0.619789 
1 0:-0.51327 1:0.500394 2:-0.0368143 3:-0.715246 4:0.637529 
-1 0:-0.525656 1:0.537062 2:-0.0283295 3:-0.706942 4:0.580157 
1 0:-0.462632 1:0.517542 2:-0.0862761 3:-0.716873 4:0.539099 
-1 0:-0.473598 1:0.514453 2:-0.113727 3:-0.705161 4:0.55961 
1 0:-0.495994 1:0.572059 2:-0.123918 3:-0.743052 4:0.55961 
1 0:-0.495994 1:0.563095 2:0.0436544 3:-0.743052 4:0.641335 
-1 0:-0.559855 1:0.562343 2:-0.131138 3:-0.703776 4:0.539099 
1 0:-0.495994 1:0.572059 2:-0.0453152 3:-0.743413 4:0.630597 
1 0:-0.495994 1:0.562343 2:0.0436544 3:-0.759103 4:0.560383 
1 0:-0.495994 1:0.562343 2:0.0436544 3:-0.743052 4:0.641335 
1 0:-0.559855 1:0.550466 2:0.0436544 3:-0.705161 4:0.633044 
1 0:-0.521585 1:0.526161 2:0.0635419 3:-0.74778 4:0.630597 
1 0:-0.6416 1:0.526161 2:-0.0451027 3:-0.722975 4:0.55028 
-1 0:-0.518298 1:0.560834 2:-0.0274237 3:-0.774895 4:0.448875 
1 0:-0.508876 1:0.544179 2:-0.0987627 3:-0.774895 4:0.560416 
-1 0:-0.521585 1:0.537888 2:-0.0274237 3:-0.713281 4:0.448875 
1 0:-0.521585 1:0.586086 2:-0.0987627 3:-0.774895 4:0.603276 
-1 0:-0.6416 1:0.536034 2:-0.000116521 3:-0.743036 4:0.448875 
1 0:-0.539094 1:0.560834 2:-0.0987627 3:-0.713281 4:0.492351 
1 0:-0.565422 1:0.560834 2:-0.0295457 3:-0.691017 4:0.630597 
1 0:-0.539094 1:0.586086 2:-0.0987627 3:-0.743036 4:0.492351 
-1 0:-0.539094 1:0.560834 2:-0.0295457 3:-0.774895 4:0.448875 
-1 0:-0.573836 1:0.484225 2:-0.114249 3:-0.723314 4:0.630597 
-1 0:-0.573836 1:0.504179 2:-0.174018 3:-0.764355 4:0.602551 
-1 0:-0.553804 1:0.496976 2:-0.174018 3:-0.712949 4:0.538709 
-1 0:-0.590846 1:0.489481 2:-0.174018 3:-0.75342 4:0.602551 
-1 0:-0.553804 1:0.519854 2:-0.0288067 3:-0.767308 4:0.538709 
-1 0:-0.590846 1:0.509316 2:-0.174018 3:-0.75342 4:0.508559 
-1 0:-0.553804 1:0.506569 2:-0.0402037 3:-0.768344 4:0.508559 
-1 0:-0.573836 1:0.509316 2:-0.174018 3:-0.7273 4:0.602551 
-1 0:-0.604138 1:0.538291 2:-0.174018 3:-0.749297 4:0.538709 
-1 0:-0.553804 1:0.519854 2:-0.174018 3:-0.767308 4:0.538709 
-1 0:-0.553804 1:0.489481 2:-0.0402037 3:-0.725557 4:0.538709 
-1 0:-0.517583 1:0.489481 2:-0.0802239 3:-0.768344 4:0.54704 
-1 0:-0.604138 1:0.543542 2:-0.114887 3:-0.767308 4:0.538709 
-1 0:-0.604138 1:0.538291 2:-0.174018 3:-0.75342 4:0.597759 
-1 0:-0.590846 1:0.517865 2:-0.174018 3:-0.767308 4:0.538709 
-1 0:-0.568965 1:0.476644 2:-0.114887 3:-0.767308 4:0.538709 
-1 0:-0.626902 1:0.484225 2:-0.103099 3:-0.741297 4:0.508559 
-1 0:-0.517583 1:0.484225 2:-0.114887 3:-0.741297 4:0.602551 
-1 0:-0.573836 1:0.489481 2:-0.0402037 3:-0.7741 4:0.597759 
-1 0:-0.48406 1:0.484225 2:-0.114887 3:-0.723314 4:0.630597 
-1 0:-0.626902 1:0.489481 2:-0.157562 3:-0.767308 4:0.538709 
-1 0:-0.590846 1:0.519854 2:-0.157562 3:-0.725557 4:0.538709 
-1 0:-0.590846 1:0.489481 2:-0.0802239 3:-0.742807 4:0.54704 
-1 0:-0.573836 1:0.517865 2:-0.174018 3:-0.767308 4:0.602551 
-1 0:-0.573836 1:0.489481 2:-0.0802239 3:-0.768344 4:0.597759 
-1 0:-0.604138 1:0.519854 2:-0.0288067 3:-0.7273 4:0.538709 
-1 0:-0.553804 1:0.496976 2:-0.0402037 3:-0.768344 4:0.508559 
-1 0:-0.590846 1:0.489481 2:-0.0802239 3:-0.767308 4:0.538709 
-1 0:-0.517583 1:0.484225 2:-0.114887 3:-0.749297 4:0.597759 
-1 0:-0.553804 1:0.489481 2:-0.174018 3:-0.75342 4:0.630597 
-1 0:-0.550277 1:0.484225 2:-0.114887 3:-0.725557 4:0.538709 
-1 0:-0.590846 1:0.489481 2:-0.0802239 3:-0.725557 4:0.602551 
-1 0:-0.590846 1:0.476644 2:-0.114887 3:-0.767308 4:0.538709 
-1 0:-0.578074 1:0.484225 2:-0.1546 3:-0.723314 4:0.630597 
-1 0:-0.553804 1:0.509316 2:-0.114887 3:-0.7273 4:0.597759 
-1 0:-0.626902 1:0.489481 2:-0.157562 3:-0.767308 4:0.538709 
-1 0:-0.553804 1:0.519854 2:-0.114249 3:-0.767308 4:0.602551 
-1 0:-0.573836 1:0.517865 2:-0.103099 3:-0.767308 4:0.597759 
-1 0:-0.626902 1:0.517865 2:-0.157562 3:-0.75342 4:0.538709 
-1 0:-0.573836 1:0.489481 2:-0.0402037 3:-0.725557 4:0.630597 
-1 0:-0.590846 1:0.489481 2:-0.0802239 3:-0.75342 4:0.538709 
-1 0:-0.590846 1:0.509316 2:-0.157562 3:-0.75342 4:0.538709 
-1 0:-0.590846 1:0.519854 2:-0.1546 3:-0.725557 4:0.602551 
-1 0:-0.626902 1:0.489481 2:-0.0402037 3:-0.768344 4:0.54704 
-1 0:-0.553804 1:0.506569 2:-0.103099 3:-0.75342 4:0.51487 
-1 0:-0.604138 1:0.484225 2:-0.1546 3:-0.725557 4:0.538709 
-1 0:-0.604138 1:0.519854 2:-0.174018 3:-0.725557 4:0.602551 
-1 0:-0.613458 1:0.543542 2:-0.174018 3:-0.75342 4:0.538709 
-1 0:-0.573836 1:0.496976 2:-0.103099 3:-0.725557 4:0.630597 
-1 0:-0.553804 1:0.519854 2:-0.174018 3:-0.767308 4:0.538709 
-1 0:-0.573836 1:0.517865 2:-0.0802239 3:-0.7741 4:0.54704 
-1 0:-0.517583 1:0.543542 2:-0.1546 3:-0.753197 4:0.630597 
-1 0:-0.553804 1:0.489481 2:-0.157562 3:-0.75342 4:0.602551 
-1 0:-0.573836 1:0.489481 2:-0.0402037 3:-0.741297 4:0.538709 
-1 0:-0.550277 1:0.484225 2:-0.114887 3:-0.767308 4:0.538709 
-1 0:-0.573836 1:0.489481 2:-0.157562 3:-0.725557 4:0.538709 
-1 0:-0.573836 1:0.519854 2:-0.157562 3:-0.75342 4:0.594035 
-1 0:-0.573836 1:0.538291 2:-0.157562 3:-0.767308 4:0.597759 
-1 0:-0.590846 1:0.519854 2:-0.157562 3:-0.7273 4:0.597759 
-0.6858977945997147 0:-0.550277 1:0.509316 2:-0.1546 3:-0.712949 4:0.630597 
-1 0:-0.590846 1:0.506569 2:-0.103099 3:-0.7273 4:0.508559 
-1 0:-0.573836 1:0.489481 2:-0.103099 3:-0.768344 4:0.624696 
-1 0:-0.573836 1:0.517865 2:-0.114887 3:-0.725557 4:0.538709 
-1 0:-0.613458 1:0.519854 2:-0.174018 3:-0.725557 4:0.538709 
-1 0:-0.590846 1:0.509316 2:-0.174018 3:-0.725557 4:0.630597 
-1 0:-0.590846 1:0.517865 2:-0.174018 3:-0.723314 4:0.630597 
-1 0:-0.604138 1:0.484225 2:-0.114249 3:-0.725557 4:0.602551 
-1 0:-0.590846 1:0.506569 2:-0.114887 3:-0.767308 4:0.602551 
-1 0:-0.568965 1:0.504179 2:-0.1546 3:-0.725557 4:0.602551 
-1 0:-0.553804 1:0.519854 2:-0.157562 3:-0.725557 4:0.602551 
-1 0:-0.604138 1:0.538291 2:-0.0802239 3:-0.767308 4:0.624696 
-1 0:-0.553804 1:0.509316 2:-0.1546 3:-0.725557 4:0.602551 
-1 0:-0.553804 1:0.506569 2:-0.103099 3:-0.767308 4:0.597759 
-1 0:-0.573836 1:0.509316 2:-0.157562 3:-0.7741 4:0.538709 
-1 0:-0.573836 1:0.484225 2:-0.174018 3:-0.75342 4:0.538709 
-1 0:-0.590846 1:0.519854 2:-0.174018 3:-0.767308 4:0.538709 
-1 0:-0.590846 1:0.489481 2:-0.0845416 3:-0.725557 4:0.542585 
-1 0:-0.568965 1:0.484225 2:-0.1546 3:-0.725557 4:0.538709 
-1 0:-0.573836 1:0.484225 2:-0.1546 3:-0.725557 4:0.624696 
-1 0:-0.573836 1:0.519854 2:-0.103099 3:-0.767308 4:0.602551 
-1 0:-0.573836 1:0.489481 2:-0.103099 3:-0.75342 4:0.597759 
-1 0:-0.573836 1:0.476644 2:-0.114887 3:-0.767308 4:0.602551 
-1 0:-0.553804 1:0.519854 2:-0.157562 3:-0.767308 4:0.602551 
-1 0:-0.553804 1:0.538291 2:-0.114887 3:-0.741297 4:0.602551 
-1 0:-0.573836 1:0.484225 2:-0.0288067 3:-0.75342 4:0.538709 
-1 0:-0.604138 1:0.538291 2:-0.1546 3:-0.725557 4:0.602551 
-1 0:-0.590846 1:0.517865 2:-0.0802239 3:-0.712949 4:0.630597 
-1 0:-0.553804 1:0.489481 2:-0.0802239 3:-0.7741 4:0.538232 
-1 0:-0.573836 1:0.489481 2:-0.0402037 3:-0.75342 4:0.624696 
-1 0:-0.590846 1:0.538291 2:-0.157562 3:-0.767308 4:0.602551 
-1 0:-0.604138 1:0.538291 2:-0.0802239 3:-0.725557 4:0.538709 
-1 0:-0.553804 1:0.484225 2:-0.103099 3:-0.712949 4:0.538709 
-1 0:-0.553804 1:0.509316 2:-0.157562 3:-0.75342 4:0.49405 
-1 0:-0.573836 1:0.496976 2:-0.0402037 3:-0.749297 4:0.508559 
-1 0:-0.573836 1:0.509316 2:-0.114887 3:-0.767308 4:0.597759 
-1 0:-0.573836 1:0.517865 2:-0.114887 3:-0.725557 4:0.51487 
-1 0:-0.604138 1:0.509316 2:-0.114887 3:-0.767308 4:0.602551 
-1 0:-0.553804 1:0.484225 2:-0.103099 3:-0.741297 4:0.508559 
-1 0:-0.553804 1:0.504179 2:-0.157562 3:-0.723314 4:0.630597 
-1 0:-0.553804 1:0.538291 2:-0.0288067 3:-0.75342 4:0.538709 
-1 0:-0.573836 1:0.489481 2:-0.0352194 3:-0.758664 4:0.602551 
-1 0:-0.590846 1:0.489481 2:-0.0802239 3:-0.768344 4:0.602551 
-1 0:-0.626902 1:0.519854 2:-0.157562 3:-0.749297 4:0.602551 
-1 0:-0.626902 1:0.538291 2:-0.103099 3:-0.767308 4:0.602551 
-1 0:-0.590846 1:0.517865 2:-0.1546 3:-0.725557 4:0.602551 
-1 0:-0.573836 1:0.517865 2:-0.0802239 3:-0.767308 4:0.538709 
-1 0:-0.590846 1:0.519854 2:0.000830907 3:-0.7273 4:0.508559 
-1 0:-0.553804 1:0.506569 2:-0.103099 3:-0.753197 4:0.630597 
-1 0:-0.553804 1:0.543542 2:0.000830907 3:-0.7273 4:0.538709 
-1 0:-0.604138 1:0.519854 2:-0.1546 3:-0.725557 4:0.602551 
-1 0:-0.573836 1:0.496976 2:-0.0802239 3:-0.7741 4:0.508559 
-1 0:-0.626902 1:0.484225 2:-0.114249 3:-0.767308 4:0.602551 
-1 0:-0.590846 1:0.489481 2:-0.174018 3:-0.751382 4:0.538709 
-1 0:-0.553804 1:0.506569 2:-0.0802239 3:-0.749297 4:0.602551 
-1 0:-0.573836 1:0.489481 2:-0.157562 3:-0.725557 4:0.602551 
-1 0:-0.573836 1:0.509316 2:-0.157562 3:-0.767308 4:0.597759 
-1 0:-0.604138 1:0.519854 2:-0.157562 3:-0.767308 4:0.597759 
-1 0:-0.553804 1:0.489481 2:-0.0802239 3:-0.712949 4:0.630597 
-1 0:-0.553804 1:0.538291 2:-0.174018 3:-0.725557 4:0.538709 
-1 0:-0.613458 1:0.538291 2:-0.174018 3:-0.725557 4:0.538709 
-1 0:-0.553804 1:0.506569 2:-0.0802239 3:-0.7741 4:0.51487 
-1 0:-0.590846 1:0.489481 2:-0.0402037 3:-0.75342 4:0.508559 
-1 0:-0.553804 1:0.509316 2:-0.157562 3:-0.75342 4:0.602551 
-1 0:-0.573836 1:0.496976 2:0.000830907 3:-0.725557 4:0.602551 
-1 0:-0.604138 1:0.503885 2:-0.1546 3:-0.753197 4:0.630597 
-1 0:-0.590846 1:0.517865 2:-0.174018 3:-0.768344 4:0.630597 
-1 0:-0.604138 1:0.519854 2:-0.157562 3:-0.75342 4:0.594035 
-1 0:-0.590846 1:0.517865 2:-0.0802239 3:-0.768344 4:0.597759 
-1 0:-0.590846 1:0.489481 2:-0.157562 3:-0.75342 4:0.602551 
-1 0:-0.590846 1:0.484225 2:-0.114887 3:-0.725557 4:0.538709 
-1 0:-0.590846 1:0.509316 2:-0.174018 3:-0.7273 4:0.538709 
-1 0:-0.573836 1:0.489481 2:-0.103099 3:-0.75342 4:0.602551 
-1 0:-0.573836 1:0.504179 2:-0.0802239 3:-0.768344 4:0.602551 
-1 0:-0.553804 1:0.476644 2:0.000830907 3:-0.725557 4:0.602551 
-1 0:-0.626902 1:0.484225 2:-0.0288067 3:-0.767308 4:0.538709 
-1 0:-0.553804 1:0.519854 2:-0.103099 3:-0.767308 4:0.597759 
-1 0:-0.573836 1:0.509316 2:-0.0402037 3:-0.741297 4:0.508559 
-1 0:-0.590846 1:0.489481 2:-0.0845416 3:-0.767308 4:0.542585 
-1 0:-0.573836 1:0.489481 2:-0.0402037 3:-0.768344 4:0.538709 
-1 0:-0.553804 1:0.509316 2:-0.157562 3:-0.741297 4:0.597759 
-1 0:-0.553804 1:0.509316 2:-0.174018 3:-0.741297 4:0.597759 
-1 0:-0.568965 1:0.484225 2:-0.0802239 3:-0.710187 4:0.630597 
-1 0:-0.604138 1:0.509316 2:-0.114887 3:-0.767308 4:0.538709 
-1 0:-0.550277 1:0.504179 2:-0.114887 3:-0.725557 4:0.602551 
-1 0:-0.553804 1:0.538291 2:-0.114887 3:-0.741297 4:0.597759 
-1 0:-0.568965 1:0.503885 2:-0.1546 3:-0.725557 4:0.538709 
-1 0:-0.553804 1:0.489481 2:-0.103099 3:-0.767308 4:0.538709 
-1 0:-0.517583 1:0.476644 2:-0.114887 3:-0.725557 4:0.602551 
-1 0:-0.573836 1:0.484225 2:-0.103099 3:-0.7741 4:0.508559 
-1 0:-0.573836 1:0.519854 2:-0.157562 3:-0.767308 4:0.624696 
-1 0:-0.573836 1:0.538291 2:-0.1546 3:-0.725557 4:0.538709 
-1 0:-0.590846 1:0.509316 2:-0.157562 3:-0.712949 4:0.538709 
-1 0:-0.573836 1:0.489481 2:-0.103099 3:-0.767308 4:0.538709 
-1 0:-0.573836 1:0.517865 2:-0.157562 3:-0.7741 4:0.538709 
-1 0:-0.517583 1:0.476644 2:-0.114887 3:-0.767308 4:0.564132 
-1 0:-0.553804 1:0.538291 2:-0.174018 3:-0.741297 4:0.508559 
-1 0:-0.590846 1:0.506569 2:-0.0402037 3:-0.725557 4:0.630597 
-1 0:-0.553804 1:0.489481 2:-0.114887 3:-0.767308 4:0.597759 
-1 0:-0.604138 1:0.509316 2:-0.114887 3:-0.741297 4:0.630597 
-1 0:-0.550277 1:0.504179 2:-0.1546 3:-0.725557 4:0.602551 
-1 0:-0.553804 1:0.489481 2:-0.0402037 3:-0.749297 4:0.602551 
-1 0:-0.573836 1:0.509316 2:-0.0402037 3:-0.767308 4:0.597759 
-1 0:-0.553804 1:0.509316 2:-0.174018 3:-0.75342 4:0.508559 
-1 0:-0.573836 1:0.519854 2:-0.174018 3:-0.7273 4:0.602551 
-1 0:-0.568965 1:0.476644 2:-0.0402037 3:-0.725557 4:0.508559 
-1 0:-0.590846 1:0.489481 2:-0.0802239 3:-0.7741 4:0.594035 
-1 0:-0.590846 1:0.489481 2:-0.0402037 3:-0.7741 4:0.602551 
-1 0:-0.626902 1:0.496976 2:-0.0802239 3:-0.768344 4:0.538709 
-1 0:-0.590846 1:0.506569 2:-0.0402037 3:-0.712949 4:0.51487 
-1 0:-0.590846 1:0.509316 2:-0.157562 3:-0.75342 4:0.597759 
-1 0:-0.590846 1:0.538291 2:-0.157562 3:-0.767308 4:0.538709 
-1 0:-0.553804 1:0.509316 2:-0.157562 3:-0.741297 4:0.597759 
-1 0:-0.590846 1:0.489481 2:-0.0802239 3:-0.725557 4:0.602551 
1 0:-0.558484 1:0.503515 2:-0.183644 3:-0.737418 4:0.516076 
1 0:-0.587428 1:0.558532 2:-0.0732926 3:-0.737418 4:0.668334 
1 0:-0.52001 1:0.498904 2:-0.0732926 3:-0.7537 4:0.634587 
-1 0:-0.558484 1:0.512109 2:0.00373273 3:-0.738873 4:0.572419 
1 0:-0.564011 1:0.527861 2:-0.115689 3:-0.70832 4:0.668334 
1 0:-0.52001 1:0.515226 2:0.00373273 3:-0.723768 4:0.530153 
1 0:-0.52001 1:0.512109 2:-0.125699 3:-0.737418 4:0.630597 
1 0:-0.558484 1:0.558532 2:-0.115689 3:-0.777466 4:0.668334 
1 0:-0.634766 1:0.523047 2:-0.115689 3:-0.696081 4:0.516076 
1 0:-0.587428 1:0.490224 2:-0.115689 3:-0.70832 4:0.668334 
1 0:-0.509331 1:0.472209 2:-0.115689 3:-0.696081 4:0.668334 
-1 0:-0.558484 1:0.512109 2:0.049063 3:-0.7537 4:0.486857 
1 0:-0.536078 1:0.472209 2:-0.115689 3:-0.70832 4:0.516076 
1 0:-0.558484 1:0.512109 2:0.0140687 3:-0.7537 4:0.660734 
-1 0:-0.564011 1:0.558532 2:-0.183644 3:-0.76379 4:0.630597 
1 0:-0.509331 1:0.527861 2:-0.115689 3:-0.696081 4:0.551571 
1 0:-0.536078 1:0.503515 2:0.049063 3:-0.777466 4:0.551571 
-1 0:-0.558484 1:0.512109 2:0.0592345 3:-0.70832 4:0.516076 
-1 0:-0.558484 1:0.512109 2:-0.0732926 3:-0.696081 4:0.486857 
1 0:-0.558484 1:0.527861 2:-0.115689 3:-0.737418 4:0.668334 
-1 0:-0.558484 1:0.523047 2:-0.183644 3:-0.70832 4:0.537633 
1 0:-0.587428 1:0.512109 2:0.00373273 3:-0.70832 4:0.591815 
1 0:-0.509331 1:0.527861 2:0.00373273 3:-0.7537 4:0.516076 
1 0:-0.436347 1:0.527861 2:0.00373273 3:-0.7537 4:0.551571 
1 0:-0.602819 1:0.579416 2:-0.115689 3:-0.70832 4:0.668334 
1 0:-0.587428 1:0.558532 2:-0.0732926 3:-0.737418 4:0.668334 
1 0:-0.52001 1:0.527861 2:-0.115689 3:-0.696081 4:0.668334 
1 0:-0.634766 1:0.498904 2:-0.0732926 3:-0.7537 4:0.634587 
1 0:-0.481689 1:0.498904 2:-0.183644 3:-0.70832 4:0.577119 
-1 0:-0.509331 1:0.527861 2:0.0592345 3:-0.70832 4:0.516076 
1 0:-0.52001 1:0.527861 2:-0.125699 3:-0.738873 4:0.537633 
-1 0:-0.558484 1:0.512109 2:-0.0732926 3:-0.696081 4:0.486857 
1 0:-0.558484 1:0.472209 2:0.00373273 3:-0.7537 4:0.660734 
1 0:-0.52001 1:0.503515 2:-0.183644 3:-0.696081 4:0.668334 
1 0:-0.587428 1:0.527861 2:0.00373273 3:-0.7537 4:0.660734 
-1 0:-0.509331 1:0.527861 2:-0.183644 3:-0.70832 4:0.630597 
1 0:-0.564011 1:0.584102 2:-0.115689 3:-0.737418 4:0.516076 
1 0:-0.587428 1:0.523047 2:-0.0691335 3:-0.76379 4:0.630597 
-1 0:-0.558484 1:0.512109 2:-0.125699 3:-0.696081 4:0.634587 
1 0:-0.587428 1:0.527861 2:0.00373273 3:-0.747176 4:0.668334 
-1 0:-0.558484 1:0.512109 2:-0.0431746 3:-0.777466 4:0.630597 
1 0:-0.558484 1:0.527861 2:-0.115689 3:-0.777466 4:0.551571 
-1 0:-0.509331 1:0.558532 2:-0.0732926 3:-0.70832 4:0.486857 
-1 0:-0.558484 1:0.512109 2:-0.183644 3:-0.696081 4:0.668334 
1 0:-0.541217 1:0.498904 2:0.0140687 3:-0.777466 4:0.668334 
1 0:-0.436347 1:0.558532 2:-0.125699 3:-0.7537 4:0.516076 
1 0:-0.564011 1:0.498904 2:-0.115689 3:-0.696081 4:0.668334 
1 0:-0.509331 1:0.515226 2:0.00373273 3:-0.7537 4:0.486857 
1 0:-0.509331 1:0.536923 2:0.0140687 3:-0.7537 4:0.660734 
-1 0:-0.558484 1:0.512109 2:-0.0732926 3:-0.777466 4:0.516076 
1 0:-0.558484 1:0.558532 2:-0.115689 3:-0.737418 4:0.516076 
1 0:-0.536078 1:0.498904 2:-0.0691335 3:-0.70832 4:0.630597 
1 0:-0.52001 1:0.515226 2:-0.0732926 3:-0.7537 4:0.660734 
1 0:-0.558484 1:0.512109 2:-0.0732926 3:-0.7537 4:0.668334 
1 0:-0.481689 1:0.498904 2:-0.0732926 3:-0.7537 4:0.634587 
1 0:-0.558484 1:0.512109 2:-0.125699 3:-0.7537 4:0.626864 
1 0:-0.481689 1:0.472209 2:-0.125699 3:-0.696081 4:0.572419 
1 0:-0.536078 1:0.503515 2:0.049063 3:-0.70832 4:0.668334 
1 0:-0.509331 1:0.472209 2:-0.125699 3:-0.737418 4:0.660734 
1 0:-0.558484 1:0.527861 2:0.049063 3:-0.7537 4:0.486857 
1 0:-0.52001 1:0.558532 2:-0.125699 3:-0.738873 4:0.668334 
1 0:-0.52001 1:0.527861 2:-0.125699 3:-0.7537 4:0.572419 
1 0:-0.509331 1:0.512109 2:-0.115689 3:-0.777466 4:0.630597 
1 0:-0.558484 1:0.527861 2:-0.115689 3:-0.696081 4:0.516076 
1 0:-0.481689 1:0.498904 2:-0.0691335 3:-0.696081 4:0.577119 
1 0:-0.558484 1:0.542945 2:-0.115689 3:-0.696081 4:0.668334 
1 0:-0.52001 1:0.523047 2:-0.115689 3:-0.737418 4:0.516076 
1 0:-0.509331 1:0.524963 2:-0.115689 3:-0.777466 4:0.668334 
1 0:-0.536078 1:0.498904 2:-0.183644 3:-0.70832 4:0.537633 
1 0:-0.52001 1:0.527861 2:-0.0301029 3:-0.7537 4:0.660734 
1 0:-0.509331 1:0.579416 2:-0.115689 3:-0.737418 4:0.516076 
-1 0:-0.509331 1:0.512109 2:-0.183644 3:-0.70832 4:0.660734 
1 0:-0.564011 1:0.498904 2:-0.115689 3:-0.696081 4:0.577119 
1 0:-0.52001 1:0.527861 2:-0.115689 3:-0.696081 4:0.516076 
1 0:-0.52001 1:0.527861 2:0.00373273 3:-0.7537 4:0.551571 
1 0:-0.448564 1:0.524282 2:-0.14796 3:-0.75247 4:0.529875 
1 0:-0.448564 1:0.51779 2:-0.0383161 3:-0.75247 4:0.529875 
1 0:-0.448564 1:0.51779 2:-0.0522786 3:-0.764986 4:0.674013 
1 0:-0.553938 1:0.539161 2:-0.143792 3:-0.75247 4:0.571313 
1 0:-0.448564 1:0.524282 2:-0.162306 3:-0.764986 4:0.607257 
1 0:-0.553938 1:0.488648 2:-0.0522786 3:-0.689866 4:0.529875 
-1 0:-0.553938 1:0.532728 2:-0.0844356 3:-0.689866 4:0.540262 
1 0:-0.542426 1:0.505373 2:-0.0844356 3:-0.689866 4:0.560784 
1 0:-0.540098 1:0.488648 2:-0.0844356 3:-0.763529 4:0.560784 
1 0:-0.553938 1:0.505137 2:0.0668345 3:-0.721112 4:0.630597 
1 0:-0.553938 1:0.532728 2:0.0668345 3:-0.721112 4:0.529875 
1 0:-0.448564 1:0.524282 2:-0.111657 3:-0.74277 4:0.540262 
1 0:-0.553938 1:0.498732 2:-0.143792 3:-0.689866 4:0.573442 
1 0:-0.542426 1:0.539161 2:-0.022508 3:-0.763529 4:0.674013 
1 0:-0.540098 1:0.539161 2:-0.0522786 3:-0.721112 4:0.674013 
1 0:-0.540098 1:0.539161 2:-0.14796 3:-0.763529 4:0.540262 
1 0:-0.605614 1:0.517914 2:0.0668345 3:-0.710187 4:0.630597 
1 0:-0.617333 1:0.51779 2:-0.0522786 3:-0.697753 4:0.529875 
1 0:-0.540098 1:0.517914 2:0.0668345 3:-0.721112 4:0.529875 
1 0:-0.448564 1:0.525594 2:-0.111657 3:-0.689866 4:0.529875 
1 0:-0.448564 1:0.51779 2:-0.162306 3:-0.689866 4:0.607257 
1 0:-0.448564 1:0.532728 2:-0.0844356 3:-0.763529 4:0.607257 
1 0:-0.527447 1:0.488648 2:-0.0677643 3:-0.689866 4:0.529875 
1 0:-0.617333 1:0.524282 2:-0.0522786 3:-0.75247 4:0.674013 
-1 0:-0.527447 1:0.488648 2:0.0668345 3:-0.721112 4:0.560784 
1 0:-0.448564 1:0.524282 2:-0.162306 3:-0.74277 4:0.674013 
1 0:-0.542426 1:0.488648 2:-0.0522786 3:-0.689866 4:0.560784 
1 0:-0.448564 1:0.525594 2:-0.111657 3:-0.74277 4:0.630597 
1 0:-0.542426 1:0.539161 2:-0.022508 3:-0.763529 4:0.540262 
1 0:-0.448564 1:0.532728 2:-0.14796 3:-0.721112 4:0.674013 
1 0:-0.448564 1:0.539161 2:-0.143792 3:-0.689866 4:0.529875 
1 0:-0.448564 1:0.482039 2:-0.111657 3:-0.764986 4:0.674013 
1 0:-0.448564 1:0.51779 2:-0.0383161 3:-0.770004 4:0.573442 
1 0:-0.448564 1:0.51779 2:-0.162306 3:-0.736939 4:0.571313 
1 0:-0.605614 1:0.505373 2:-0.162306 3:-0.75247 4:0.674013 
1 0:-0.542426 1:0.539161 2:-0.0844356 3:-0.763529 4:0.540262 
1 0:-0.542426 1:0.505137 2:-0.0522786 3:-0.721112 4:0.674013 
1 0:-0.540098 1:0.505373 2:-0.022508 3:-0.742864 4:0.630597 
1 0:-0.575956 1:0.532728 2:-0.11217 3:-0.689866 4:0.529875 
1 0:-0.542426 1:0.488648 2:-0.143792 3:-0.721112 4:0.529875 
1 0:-0.448564 1:0.525594 2:-0.111657 3:-0.74277 4:0.630597 
1 0:-0.448564 1:0.505373 2:0.0668345 3:-0.75247 4:0.595445 
1 0:-0.617333 1:0.525594 2:-0.14796 3:-0.763529 4:0.540262 
-1 0:-0.553938 1:0.539161 2:-0.0522786 3:-0.721112 4:0.630597 
1 0:-0.448564 1:0.524282 2:-0.0383161 3:-0.75229 4:0.529875 
1 0:-0.542426 1:0.488648 2:-0.0844356 3:-0.689866 4:0.560784 
1 0:-0.448564 1:0.51779 2:-0.111657 3:-0.764986 4:0.674013 
1 0:-0.448564 1:0.482039 2:-0.14796 3:-0.75247 4:0.529875 
1 0:-0.448564 1:0.524282 2:-0.0522786 3:-0.74277 4:0.674013 
1 0:-0.448564 1:0.524282 2:-0.162306 3:-0.731523 4:0.573442 
1 0:-0.448564 1:0.524282 2:-0.0383161 3:-0.689866 4:0.573442 
1 0:-0.575956 1:0.587603 2:-0.022508 3:-0.757332 4:0.630597 
1 0:-0.540098 1:0.505373 2:-0.143792 3:-0.689866 4:0.529875 
1 0:-0.527447 1:0.539161 2:-0.14796 3:-0.763529 4:0.674013 
1 0:-0.448564 1:0.525594 2:-0.111657 3:-0.770004 4:0.630597 
1 0:-0.448564 1:0.51779 2:-0.111657 3:-0.721112 4:0.540262 
1 0:-0.542426 1:0.505373 2:-0.0844356 3:-0.689866 4:0.573442 
1 0:-0.553938 1:0.505373 2:-0.162306 3:-0.731523 4:0.573442 
1 0:-0.448564 1:0.524282 2:-0.0847051 3:-0.689866 4:0.529875 
1 0:-0.448564 1:0.51779 2:-0.111657 3:-0.770004 4:0.573442 
1 0:-0.575956 1:0.488648 2:0.0668345 3:-0.757332 4:0.630597 
1 0:-0.605614 1:0.524282 2:-0.0522786 3:-0.74277 4:0.674013 
1 0:-0.448564 1:0.51779 2:-0.0844356 3:-0.689866 4:0.529875 
1 0:-0.605614 1:0.51779 2:-0.0522786 3:-0.74277 4:0.674013 
1 0:-0.448564 1:0.505373 2:-0.162306 3:-0.74277 4:0.516634 
1 0:-0.605614 1:0.532728 2:-0.0844356 3:-0.721112 4:0.674013 
1 0:-0.575956 1:0.488648 2:-0.0844356 3:-0.763529 4:0.674013 
1 0:-0.448564 1:0.525594 2:-0.0383161 3:-0.75247 4:0.607257 
-1 0:-0.430139 1:0.532728 2:-0.0844356 3:-0.721112 4:0.540262 
-1 0:-0.553938 1:0.505373 2:-0.0522786 3:-0.763529 4:0.607257 
1 0:-0.542426 1:0.539161 2:-0.0844356 3:-0.689866 4:0.607257 
-1 0:-0.542426 1:0.505373 2:-0.0522786 3:-0.721112 4:0.630597 
1 0:-0.540098 1:0.505373 2:-0.143792 3:-0.721112 4:0.529875 
1 0:-0.540098 1:0.498732 2:-0.0847051 3:-0.731523 4:0.571313 
1 0:-0.542426 1:0.539161 2:-0.143792 3:-0.689866 4:0.529875 
1 0:-0.553938 1:0.505373 2:-0.11217 3:-0.689866 4:0.516634 
1 0:-0.448564 1:0.524282 2:-0.0383161 3:-0.764986 4:0.607257 
1 0:-0.605614 1:0.505373 2:-0.162306 3:-0.689866 4:0.607257 
1 0:-0.540098 1:0.505373 2:-0.126072 3:-0.689866 4:0.560784 
1 0:-0.448564 1:0.482039 2:-0.14796 3:-0.763529 4:0.630597 
1 0:-0.540098 1:0.539161 2:-0.0844356 3:-0.689866 4:0.560784 
1 0:-0.448564 1:0.524282 2:-0.14796 3:-0.74277 4:0.630597 
1 0:-0.448564 1:0.524282 2:-0.0383161 3:-0.764986 4:0.674013 
1 0:-0.448564 1:0.488648 2:-0.111657 3:-0.770004 4:0.540262 
1 0:-0.448564 1:0.524282 2:-0.111657 3:-0.689866 4:0.573442 
1 0:-0.540098 1:0.488648 2:-0.143792 3:-0.689866 4:0.529875 
1 0:-0.540098 1:0.587603 2:-0.143792 3:-0.75247 4:0.560784 
1 0:-0.448564 1:0.524282 2:-0.0383161 3:-0.731523 4:0.560985 
1 0:-0.448564 1:0.524282 2:-0.0383161 3:-0.763529 4:0.630597 
1 0:-0.576376 1:0.488648 2:-0.0844356 3:-0.763529 4:0.674013 
1 0:-0.448564 1:0.524282 2:-0.0383161 3:-0.721112 4:0.630597 
-1 0:-0.553938 1:0.505373 2:-0.0522786 3:-0.763529 4:0.607257 
1 0:-0.448564 1:0.525594 2:-0.111657 3:-0.731523 4:0.674013 
1 0:-0.540098 1:0.505373 2:-0.14796 3:-0.763529 4:0.560784 
1 0:-0.617333 1:0.505373 2:-0.14796 3:-0.721112 4:0.674013 
1 0:-0.605614 1:0.577213 2:-0.0383161 3:-0.731523 4:0.674013 
1 0:-0.448564 1:0.51779 2:-0.162306 3:-0.75247 4:0.630597 
1 0:-0.448564 1:0.505373 2:-0.14796 3:-0.74277 4:0.529875 
1 0:-0.527447 1:0.539161 2:-0.14796 3:-0.74277 4:0.674013 
1 0:-0.448564 1:0.51779 2:-0.143792 3:-0.689866 4:0.529875 
-1 0:-0.553938 1:0.532728 2:-0.022508 3:-0.736939 4:0.630597 
1 0:-0.542426 1:0.505373 2:-0.162306 3:-0.763529 4:0.540262 
1 0:-0.605614 1:0.525594 2:-0.0522786 3:-0.74277 4:0.607257 
1 0:-0.448564 1:0.505373 2:-0.14796 3:-0.74277 4:0.540262 
1 0:-0.542426 1:0.505373 2:-0.14796 3:-0.689866 4:0.540262 
1 0:-0.448564 1:0.525594 2:-0.0383161 3:-0.74277 4:0.516634 
1 0:-0.516041 1:0.488648 2:-0.0844356 3:-0.763529 4:0.674013 
1 0:-0.448564 1:0.525594 2:-0.111657 3:-0.764986 4:0.560985 
1 0:-0.575956 1:0.488648 2:-0.0844356 3:-0.763529 4:0.674013 
1 0:-0.448564 1:0.525594 2:-0.0844356 3:-0.721112 4:0.540262 
1 0:-0.448564 1:0.525594 2:-0.162306 3:-0.763529 4:0.529875 
1 0:-0.542426 1:0.539161 2:-0.143792 3:-0.689866 4:0.630597 
1 0:-0.542426 1:0.532728 2:-0.022508 3:-0.689866 4:0.516634 
1 0:-0.553938 1:0.488648 2:-0.0844356 3:-0.689866 4:0.607257 
1 0:-0.553938 1:0.505137 2:-0.0522786 3:-0.763529 4:0.674013 
1 0:-0.540098 1:0.505373 2:-0.14796 3:-0.731523 4:0.607257 
1 0:-0.448564 1:0.525594 2:-0.022508 3:-0.689866 4:0.516634 
1 0:-0.448564 1:0.51779 2:-0.111657 3:-0.75247 4:0.529875 
1 0:-0.540098 1:0.539161 2:-0.14796 3:-0.75229 4:0.674013 
1 0:-0.540098 1:0.488648 2:0.0668345 3:-0.721112 4:0.529875 
1 0:-0.516041 1:0.488648 2:0.0668345 3:-0.757332 4:0.630597 
1 0:-0.540098 1:0.505373 2:-0.022508 3:-0.75247 4:0.595445 
1 0:-0.575956 1:0.488648 2:-0.143792 3:-0.689866 4:0.595445 
1 0:-0.540098 1:0.539161 2:-0.0844356 3:-0.721112 4:0.571313 
1 0:-0.448564 1:0.524282 2:-0.0522786 3:-0.763529 4:0.573442 
-1 0:-0.516041 1:0.532728 2:-0.0844356 3:-0.721112 4:0.540262 
1 0:-0.448564 1:0.524282 2:-0.162306 3:-0.731523 4:0.573442 
1 0:-0.448564 1:0.525594 2:-0.0383161 3:-0.721112 4:0.674013 
1 0:-0.542426 1:0.482039 2:-0.0844356 3:-0.763529 4:0.585013 
1 0:-0.448564 1:0.524282 2:-0.0522786 3:-0.74277 4:0.607257 
1 0:-0.448564 1:0.525594 2:-0.0383161 3:-0.764986 4:0.674013 
1 0:-0.542426 1:0.532728 2:-0.0844356 3:-0.763529 4:0.674013 
1 0:-0.448564 1:0.539161 2:-0.162306 3:-0.74277 4:0.516634 
1 0:-0.516041 1:0.517914 2:-0.022508 3:-0.689866 4:0.529875 
1 0:-0.617333 1:0.525594 2:-0.111657 3:-0.764986 4:0.516634 
1 0:-0.553938 1:0.587603 2:-0.0522786 3:-0.75247 4:0.607257 
1 0:-0.542426 1:0.490568 2:0.0668345 3:-0.75247 4:0.560784 
1 0:-0.448564 1:0.525594 2:-0.0383161 3:-0.689866 4:0.571313 
1 0:-0.448564 1:0.532728 2:-0.0383161 3:-0.770004 4:0.607257 
1 0:-0.540098 1:0.587603 2:-0.14796 3:-0.721112 4:0.585013 
1 0:-0.448564 1:0.524282 2:-0.0383161 3:-0.770004 4:0.516634 
1 0:-0.542426 1:0.505373 2:-0.162306 3:-0.75247 4:0.674013 
1 0:-0.448564 1:0.524282 2:-0.143792 3:-0.75247 4:0.529875 
1 0:-0.542426 1:0.539161 2:-0.14796 3:-0.763529 4:0.674013 
-1 0:-0.553938 1:0.539161 2:-0.14796 3:-0.74277 4:0.630597 
1 0:-0.542426 1:0.539161 2:-0.0844356 3:-0.763529 4:0.529875 
1 0:-0.553938 1:0.505373 2:-0.14796 3:-0.689866 4:0.571313 
1 0:-0.448564 1:0.525594 2:-0.162306 3:-0.764986 4:0.674013 
1 0:-0.575956 1:0.488648 2:0.0668345 3:-0.757332 4:0.630597 
1 0:-0.542426 1:0.539161 2:-0.111657 3:-0.689866 4:0.630597 
1 0:-0.448564 1:0.525594 2:-0.162306 3:-0.689866 4:0.540262 
1 0:-0.448564 1:0.524282 2:-0.0383161 3:-0.74277 4:0.516634 
1 0:-0.448564 1:0.524282 2:-0.111657 3:-0.763529 4:0.607257 
-1 0:-0.57525 1:0.549832 2:0.0304628 3:-0.735445 4:0.630597 
1 0:-0.57525 1:0.544323 2:0.0304628 3:-0.749984 4:0.585247 
1 0:-0.506886 1:0.484033 2:0.0304628 3:-0.749984 4:0.566373 
1 0:-0.508676 1:0.484033 2:-0.36667 3:-0.749984 4:0.541209 
1 0:-0.547828 1:0.544323 2:-0.114504 3:-0.749984 4:0.541209 
1 0:-0.511848 1:0.527563 2:-0.36667 3:-0.749984 4:0.612753 
1 0:-0.613799 1:0.570847 2:-0.36667 3:-0.749984 4:0.541209 
-1 0:-0.547828 1:0.541525 2:-0.0519646 3:-0.723487 4:0.576635 
1 0:-0.547828 1:0.541525 2:-0.0519646 3:-0.749984 4:0.541209 
1 0:-0.57525 1:0.504061 2:0.0304628 3:-0.761572 4:0.545572 
1 0:-0.57525 1:0.544323 2:-0.36667 3:-0.749984 4:0.585247 
1 0:-0.508676 1:0.570847 2:-0.138196 3:-0.749984 4:0.585247 
1 0:-0.508676 1:0.484033 2:-0.110903 3:-0.749984 4:0.612753 
1 0:-0.508676 1:0.541525 2:0.0304628 3:-0.841477 4:0.545572 
1 0:-0.57525 1:0.521235 2:0.0304628 3:-0.749984 4:0.603819 
-1 0:-0.57525 1:0.544323 2:-0.157979 3:-0.702586 4:0.585247 
-1 0:-0.506886 1:0.541525 2:-0.114504 3:-0.749984 4:0.576635 
1 0:-0.508676 1:0.541525 2:-0.36667 3:-0.749984 4:0.612753 
1 0:-0.506886 1:0.484033 2:-0.114504 3:-0.749984 4:0.585247 
-1 0:-0.547828 1:0.484033 2:-0.36667 3:-0.722721 4:0.576635 
1 0:-0.57534 1:0.543314 2:-0.138196 3:-0.749984 4:0.566373 
1 0:-0.547828 1:0.493147 2:-0.36667 3:-0.749984 4:0.612753 
-1 0:-0.547828 1:0.541525 2:-0.114504 3:-0.722721 4:0.576635 
-1 0:-0.547828 1:0.484033 2:-0.0519646 3:-0.724845 4:0.576635 
-1 0:-0.57525 1:0.504061 2:0.0304628 3:-0.722721 4:0.612753 
-1 0:-0.506886 1:0.541525 2:-0.36667 3:-0.768491 4:0.545572 
1 0:-0.506886 1:0.484033 2:-0.114504 3:-0.749984 4:0.585247 
1 0:-0.578282 1:0.484033 2:-0.0331838 3:-0.749984 4:0.541209 
-1 0:-0.506886 1:0.541525 2:0.0304628 3:-0.753286 4:0.566373 
-1 0:-0.57525 1:0.544323 2:-0.114504 3:-0.761572 4:0.646836 
1 0:-0.57525 1:0.504061 2:0.0304628 3:-0.761572 4:0.545572 
1 0:-0.506886 1:0.504061 2:-0.36667 3:-0.749984 4:0.541209 
-1 0:-0.57525 1:0.544323 2:-0.0331838 3:-0.761572 4:0.612753 
-1 0:-0.547828 1:0.541525 2:0.0304628 3:-0.768491 4:0.576635 
-1 0:-0.613799 1:0.570847 2:-0.138196 3:-0.749984 4:0.612753 
-1 0:-0.57525 1:0.484033 2:-0.114504 3:-0.761572 4:0.541209 
-1 0:-0.57525 1:0.544323 2:-0.0519646 3:-0.761572 4:0.576635 
1 0:-0.613799 1:0.570847 2:-0.138196 3:-0.749984 4:0.612753 
1 0:-0.613799 1:0.570847 2:-0.110903 3:-0.749984 4:0.585247 
-1 0:-0.506886 1:0.504061 2:0.0304628 3:-0.761572 4:0.576635 
1 0:-0.57525 1:0.504061 2:0.0304628 3:-0.761572 4:0.545572 
1 0:-0.57525 1:0.544323 2:-0.0331838 3:-0.702586 4:0.545572 
1 0:-0.459852 1:0.504061 2:-0.36667 3:-0.749984 4:0.585247 
-1 0:-0.57525 1:0.484033 2:-0.114504 3:-0.718539 4:0.630597 
1 0:-0.613799 1:0.570847 2:-0.138196 3:-0.749984 4:0.585247 
1 0:-0.613799 1:0.570847 2:-0.36667 3:-0.749984 4:0.576635 
1 0:-0.57534 1:0.484033 2:-0.138196 3:-0.749984 4:0.576635 
-1 0:-0.57525 1:0.570847 2:-0.110903 3:-0.710187 4:0.630597 
1 0:-0.508676 1:0.484033 2:-0.114504 3:-0.841477 4:0.545572 
-1 0:-0.57525 1:0.544323 2:-0.157979 3:-0.752026 4:0.612753 
1 0:-0.508676 1:0.521235 2:-0.138196 3:-0.749984 4:0.541209 
-1 0:-0.57525 1:0.541525 2:-0.36667 3:-0.768491 4:0.576635 
0.4965390745285383 0:-0.57525 1:0.543314 2:-0.114504 3:-0.841477 4:0.541209 
-1 0:-0.506886 1:0.504061 2:-0.138196 3:-0.740248 4:0.630597 
-1 0:-0.506886 1:0.570847 2:-0.36667 3:-0.749984 4:0.520816 
1 0:-0.57525 1:0.521235 2:-0.063491 3:-0.749984 4:0.612753 
1 0:-0.508676 1:0.541525 2:0.0304628 3:-0.753286 4:0.545572 
1 0:-0.57525 1:0.570847 2:-0.105064 3:-0.752026 4:0.630597 
-1 0:-0.57525 1:0.544323 2:-0.0331838 3:-0.768491 4:0.612753 
-1 0:-0.57525 1:0.521235 2:-0.157979 3:-0.702586 4:0.630597 
1 0:-0.547828 1:0.504061 2:0.0304628 3:-0.761572 4:0.545572 
-1 0:-0.57525 1:0.544323 2:-0.36667 3:-0.749984 4:0.576635 
1 0:-0.613799 1:0.521235 2:-0.0271099 3:-0.749984 4:0.541209 
1 0:-0.506886 1:0.521235 2:-0.36667 3:-0.749984 4:0.612753 
1 0:-0.497118 1:0.521235 2:-0.0519646 3:-0.749984 4:0.603819 
-1 0:-0.506886 1:0.541525 2:0.0304628 3:-0.761572 4:0.585247 
1 0:-0.547828 1:0.504061 2:-0.0293008 3:-0.749984 4:0.576635 
1 0:-0.57534 1:0.484033 2:-0.36667 3:-0.749984 4:0.585247 
1 0:-0.547828 1:0.532873 2:-0.110903 3:-0.749984 4:0.612753 
1 0:-0.508676 1:0.521235 2:-0.36667 3:-0.749984 4:0.612753 
1 0:-0.57525 1:0.549832 2:-0.138196 3:-0.749984 4:0.585247 
-1 0:-0.57525 1:0.484033 2:0.0304628 3:-0.718539 4:0.630597 
1 0:-0.57534 1:0.493147 2:-0.36667 3:-0.749984 4:0.585247 
-1 0:-0.57525 1:0.541525 2:0.0304628 3:-0.761572 4:0.630597 
1 0:-0.547828 1:0.541525 2:-0.105064 3:-0.735445 4:0.630597 
1 0:-0.784288 1:0.484033 2:-0.138196 3:-0.749984 4:0.541209 
-1 0:-0.506886 1:0.484033 2:0.0304628 3:-0.724845 4:0.576635 
-1 0:-0.547828 1:0.504061 2:-0.36667 3:-0.722721 4:0.612753 
-1 0:-0.57525 1:0.521235 2:-0.157979 3:-0.718539 4:0.576635 
-1 0:-0.613799 1:0.527563 2:-0.36667 3:-0.724845 4:0.612753 
1 0:-0.547828 1:0.541525 2:-0.138196 3:-0.749984 4:0.576635 
-1 0:-0.57525 1:0.570847 2:-0.138196 3:-0.749984 4:0.612753 
1 0:-0.57525 1:0.544323 2:-0.114504 3:-0.749984 4:0.541209 
-1 0:-0.57525 1:0.544323 2:-0.157979 3:-0.702586 4:0.520816 
-1 0:-0.506886 1:0.541525 2:-0.0772255 3:-0.735445 4:0.630597 
1 0:-0.511848 1:0.549832 2:-0.138196 3:-0.749984 4:0.541209 
-1 0:-0.508676 1:0.541525 2:0.0304628 3:-0.768491 4:0.576635 
1 0:-0.527191 1:0.521235 2:-0.063491 3:-0.749984 4:0.612753 
-1 0:-0.57525 1:0.521235 2:-0.063491 3:-0.761572 4:0.612753 
-1 0:-0.57525 1:0.532873 2:0.0304628 3:-0.761572 4:0.612753 
1 0:-0.547828 1:0.484033 2:0.0304628 3:-0.749984 4:0.541209 
-1 0:-0.547828 1:0.541525 2:-0.114504 3:-0.722721 4:0.576635 
1 0:-0.784288 1:0.541525 2:-0.110903 3:-0.749984 4:0.585247 
-1 0:-0.536607 1:0.484033 2:-0.114504 3:-0.724845 4:0.612753 
-1 0:-0.57525 1:0.521235 2:-0.0331838 3:-0.735445 4:0.612753 
-1 0:-0.57525 1:0.521235 2:-0.138196 3:-0.752026 4:0.576635 
-1 0:-0.547828 1:0.504061 2:-0.138196 3:-0.722721 4:0.612753 
-1 0:-0.57525 1:0.504061 2:0.0304628 3:-0.761572 4:0.602181 
-1 0:-0.556617 1:0.468412 2:-0.211167 3:-0.736693 4:0.466869 
1 0:-0.55354 1:0.520563 2:-0.087984 3:-0.787092 4:0.531593 
-1 0:-0.395144 1:0.532301 2:-0.087984 3:-0.750125 4:0.495966 
-1 0:-0.395144 1:0.468412 2:-0.0670596 3:-0.787092 4:0.495966 
0.008598806573074757 0:-0.55354 1:0.607337 2:-0.087984 3:-0.756527 4:0.630597 
1 0:-0.55354 1:0.516279 2:-0.123772 3:-0.751701 4:0.466869 
-1 0:-0.528205 1:0.468412 2:-0.105467 3:-0.736693 4:0.466869 
-1 0:-0.559907 1:0.516279 2:-0.211167 3:-0.736693 4:0.495966 
1 0:-0.624807 1:0.520563 2:-0.123772 3:-0.742694 4:0.466869 
1 0:-0.55354 1:0.468412 2:-0.0786849 3:-0.751701 4:0.531593 
1 0:-0.559907 1:0.459885 2:-0.105467 3:-0.745802 4:0.531593 
-1 0:-0.55354 1:0.607337 2:-0.087984 3:-0.745802 4:0.466293 
-1 0:-0.585854 1:0.516279 2:-0.109972 3:-0.736693 4:0.495966 
-1 0:-0.395144 1:0.532301 2:-0.191886 3:-0.750125 4:0.495966 
1 0:-0.585854 1:0.468412 2:-0.171454 3:-0.787092 4:0.466869 
1 0:-0.65662 1:0.520563 2:-0.105467 3:-0.787092 4:0.495966 
-1 0:-0.559907 1:0.520563 2:-0.105467 3:-0.745802 4:0.466293 
-1 0:-0.395144 1:0.532301 2:-0.087984 3:-0.750125 4:0.573968 
1 0:-0.585854 1:0.514423 2:-0.087984 3:-0.740759 4:0.466869 
-1 0:-0.395144 1:0.532301 2:-0.105467 3:-0.745802 4:0.495966 
-1 0:-0.559907 1:0.468412 2:-0.109972 3:-0.756527 4:0.630597 
1 0:-0.55354 1:0.607337 2:-0.0786849 3:-0.751701 4:0.531593 
-1 0:-0.556617 1:0.468412 2:-0.105467 3:-0.751701 4:0.573968 
-1 0:-0.528205 1:0.468412 2:-0.109972 3:-0.745802 4:0.531593 
-1 0:-0.585854 1:0.516279 2:-0.191886 3:-0.750125 4:0.495966 
1 0:-0.585854 1:0.607337 2:-0.087984 3:-0.780349 4:0.466869 
-1 0:-0.528205 1:0.516279 2:-0.105467 3:-0.745802 4:0.531593 
1 0:-0.585854 1:0.607337 2:-0.0786849 3:-0.736693 4:0.495966 
-1 0:-0.55354 1:0.532301 2:-0.105467 3:-0.745802 4:0.573968 
1 0:-0.556617 1:0.468412 2:-0.0786849 3:-0.756527 4:0.630597 
1 0:-0.54902 1:0.499792 2:-0.109972 3:-0.745802 4:0.466869 
-1 0:-0.395144 1:0.459529 2:-0.0670596 3:-0.745802 4:0.495966 
-1 0:-0.395144 1:0.532301 2:-0.087984 3:-0.751701 4:0.573968 
-1 0:-0.559907 1:0.532301 2:-0.087984 3:-0.751701 4:0.466869 
1 0:-0.395144 1:0.520563 2:-0.0931066 3:-0.787092 4:0.531593 
1 0:-0.395144 1:0.532301 2:-0.123772 3:-0.750125 4:0.466869 
-1 0:-0.395144 1:0.514423 2:-0.191886 3:-0.750125 4:0.495966 
-0.8707150890319739 0:-0.55354 1:0.514423 2:-0.191886 3:-0.787092 4:0.706019 
-1 0:-0.395144 1:0.532301 2:-0.109972 3:-0.745802 4:0.466869 
-1 0:-0.65662 1:0.508225 2:-0.211167 3:-0.736693 4:0.495966 
1 0:-0.556617 1:0.532301 2:-0.0786849 3:-0.751701 4:0.531593 
-1 0:-0.395144 1:0.516279 2:-0.211167 3:-0.745802 4:0.555324 
-1 0:-0.559907 1:0.532301 2:-0.211167 3:-0.751701 4:0.573968 
1 0:-0.585854 1:0.516279 2:-0.191886 3:-0.742694 4:0.466869 
-1 0:-0.55354 1:0.532301 2:-0.105467 3:-0.736693 4:0.495966 
-1 0:-0.395144 1:0.516279 2:-0.105467 3:-0.736693 4:0.495966 
-1 0:-0.528205 1:0.468412 2:-0.105467 3:-0.751701 4:0.573968 
1 0:-0.55354 1:0.516279 2:-0.191886 3:-0.773203 4:0.531593 
-1 0:-0.55354 1:0.607337 2:-0.0532055 3:-0.744011 4:0.554506 
-1 0:-0.395144 1:0.468412 2:-0.087984 3:-0.787092 4:0.554506 
1 0:-0.556617 1:0.607337 2:-0.0786849 3:-0.786822 4:0.531593 
-1 0:-0.556617 1:0.499792 2:-0.0532055 3:-0.780349 4:0.495966 
1 0:-0.641499 1:0.520563 2:-0.109972 3:-0.786822 4:0.531593 
-1 0:-0.395144 1:0.516279 2:-0.105467 3:-0.787092 4:0.554506 
-1 0:-0.528205 1:0.516279 2:-0.105467 3:-0.736693 4:0.466293 
-1 0:-0.395144 1:0.532301 2:-0.087984 3:-0.750125 4:0.531593 
-1 0:-0.559907 1:0.532301 2:-0.087984 3:-0.751701 4:0.573968 
-1 0:-0.423272 1:0.530717 2:-0.0958072 3:-0.740202 4:0.538249 
-1 0:-0.555601 1:0.526217 2:0.00211381 3:-0.753412 4:0.630597 
-1 0:-0.450457 1:0.512675 2:0.00211381 3:-0.740202 4:0.562294 
-1 0:-0.555601 1:0.526217 2:-0.0566446 3:-0.712501 4:0.630597 
-1 0:-0.423272 1:0.530717 2:-0.0958072 3:-0.740202 4:0.562294 
-1 0:-0.423272 1:0.530717 2:-0.0958072 3:-0.735366 4:0.630597 
-1 0:-0.423272 1:0.530717 2:-0.0826839 3:-0.735366 4:0.592098 
-1 0:-0.576162 1:0.521297 2:-0.0519348 3:-0.735366 4:0.538249 
-1 0:-0.555601 1:0.530717 2:-0.114864 3:-0.735366 4:0.592098 
-1 0:-0.538994 1:0.518721 2:-0.120227 3:-0.712501 4:0.592098 
-1 0:-0.555601 1:0.526217 2:-0.114864 3:-0.712501 4:0.58527 
-1 0:-0.538994 1:0.518721 2:-0.0519348 3:-0.735366 4:0.538249 
-1 0:-0.538994 1:0.530717 2:-0.0958072 3:-0.735366 4:0.538249 
-1 0:-0.555601 1:0.530717 2:-0.0958072 3:-0.698564 4:0.540457 
-1 0:-0.531014 1:0.512675 2:0.00211381 3:-0.753412 4:0.630597 
-1 0:-0.563008 1:0.530717 2:-0.0427956 3:-0.736467 4:0.562294 
-1 0:-0.538994 1:0.512675 2:0.00211381 3:-0.735366 4:0.562294 
-1 0:-0.531014 1:0.532887 2:0.00211381 3:-0.735366 4:0.538249 
-1 0:-0.5197 1:0.530717 2:-0.0958072 3:-0.731403 4:0.538249 
-1 0:-0.423272 1:0.503895 2:-0.120227 3:-0.731403 4:0.625654 
-1 0:-0.555601 1:0.591476 2:-0.114864 3:-0.712501 4:0.562294 
-1 0:-0.531014 1:0.537097 2:-0.0770922 3:-0.753412 4:0.630597 
-1 0:-0.555601 1:0.512675 2:0.00211381 3:-0.740202 4:0.538249 
-1 0:-0.423272 1:0.503895 2:0.00211381 3:-0.735366 4:0.562294 
-1 0:-0.555601 1:0.526217 2:-0.0566446 3:-0.731403 4:0.566472 
-1 0:-0.5197 1:0.557787 2:-0.0519348 3:-0.735366 4:0.562294 
-1 0:-0.547719 1:0.512675 2:-0.0519348 3:-0.735366 4:0.538249 
-1 0:-0.578576 1:0.501425 2:0.00211381 3:-0.731403 4:0.562294 
-1 0:-0.555601 1:0.591476 2:-0.0566446 3:-0.736467 4:0.562294 
-1 0:-0.423272 1:0.537097 2:-0.0519348 3:-0.742157 4:0.630597 
-1 0:-0.423272 1:0.530717 2:-0.0826839 3:-0.736467 4:0.592098 
-1 0:-0.423272 1:0.530717 2:-0.0958072 3:-0.736467 4:0.592098 
-1 0:-0.555601 1:0.526217 2:-0.0519348 3:-0.735366 4:0.592098 
-1 0:-0.555601 1:0.530717 2:-0.0427956 3:-0.731403 4:0.538249 
-1 0:-0.538994 1:0.530717 2:-0.0958072 3:-0.755287 4:0.538249 
-1 0:-0.538994 1:0.530717 2:-0.0958072 3:-0.712501 4:0.538249 
-1 0:-0.555601 1:0.526217 2:-0.0566446 3:-0.746747 4:0.540457 
-1 0:-0.555601 1:0.591476 2:0.00211381 3:-0.735366 4:0.562294 
-1 0:-0.555601 1:0.530717 2:-0.114864 3:-0.735366 4:0.592098 
-1 0:-0.423272 1:0.530717 2:-0.114864 3:-0.731403 4:0.562294 
-1 0:-0.538994 1:0.512675 2:-0.0519348 3:-0.712501 4:0.562294 
-1 0:-0.423272 1:0.530717 2:-0.0427956 3:-0.753412 4:0.630597 
-1 0:-0.538994 1:0.530717 2:-0.0958072 3:-0.712501 4:0.562294 
-1 0:-0.423272 1:0.530717 2:-0.120227 3:-0.728207 4:0.630597 
-1 0:-0.576162 1:0.530717 2:-0.0958072 3:-0.731403 4:0.566472 
-1 0:-0.450457 1:0.512675 2:-0.120227 3:-0.712501 4:0.562294 
-1 0:-0.536424 1:0.512675 2:0.00211381 3:-0.740202 4:0.538249 
-1 0:-0.555601 1:0.526217 2:-0.114864 3:-0.712501 4:0.58527 
-1 0:-0.555601 1:0.521297 2:-0.0958072 3:-0.731403 4:0.576802 
-1 0:-0.538994 1:0.530717 2:0.00211381 3:-0.735366 4:0.538249 
-1 0:-0.555601 1:0.591476 2:-0.0566446 3:-0.712501 4:0.592098 
-1 0:-0.555601 1:0.526217 2:-0.0958072 3:-0.731403 4:0.592098 
-1 0:-0.555601 1:0.526217 2:-0.0566446 3:-0.746747 4:0.680294 
-1 0:-0.555601 1:0.526217 2:-0.0958072 3:-0.731403 4:0.538249 
-1 0:-0.531014 1:0.512675 2:-0.0519348 3:-0.735366 4:0.625654 
-1 0:-0.555601 1:0.591476 2:-0.0826839 3:-0.728207 4:0.538249 
-1 0:-0.555601 1:0.526217 2:-0.0427956 3:-0.686926 4:0.562294 
-1 0:-0.423272 1:0.530717 2:-0.120227 3:-0.712501 4:0.58527 
-1 0:-0.552287 1:0.512675 2:-0.0519348 3:-0.735366 4:0.592098 
-1 0:-0.423272 1:0.512675 2:0.00211381 3:-0.740202 4:0.592098 
-1 0:-0.576162 1:0.530717 2:-0.0770922 3:-0.735366 4:0.625654 
-1 0:-0.555601 1:0.591476 2:0.00211381 3:-0.735366 4:0.630597 
-0.8177276542801688 0:-0.578576 1:0.501425 2:0.00211381 3:-0.731403 4:0.592098 
-1 0:-0.563008 1:0.503895 2:-0.066413 3:-0.735366 4:0.562294 
-1 0:-0.563008 1:0.503895 2:0.00211381 3:-0.735366 4:0.562294 
-1 0:-0.555601 1:0.512675 2:-0.120227 3:-0.712501 4:0.592098 
-1 0:-0.5197 1:0.576145 2:-0.0958072 3:-0.731403 4:0.538249 
-1 0:-0.531014 1:0.512675 2:-0.120227 3:-0.712501 4:0.562294 
-1 0:-0.555601 1:0.591476 2:0.00211381 3:-0.735366 4:0.592098 
-1 0:-0.538994 1:0.501425 2:0.00211381 3:-0.735366 4:0.538249 
-1 0:-0.555601 1:0.526217 2:-0.120227 3:-0.686926 4:0.562294 
-1 0:-0.423272 1:0.537097 2:0.00211381 3:-0.735366 4:0.562294 
-1 0:-0.655626 1:0.498009 2:-0.0836226 3:-0.759002 4:0.497637 
-1 0:-0.655626 1:0.491701 2:-0.16147 3:-0.742485 4:0.526306 
-1 0:-0.544977 1:0.460445 2:-0.142425 3:-0.742485 4:0.529108 
-1 0:-0.553054 1:0.491198 2:-0.130849 3:-0.772421 4:0.503426 
-1 0:-0.655626 1:0.518288 2:-0.0737366 3:-0.759002 4:0.593934 
-1 0:-0.655626 1:0.498009 2:-0.16147 3:-0.727348 4:0.529108 
-1 0:-0.574696 1:0.518288 2:-0.0737366 3:-0.769711 4:0.497637 
-1 0:-0.589015 1:0.518288 2:-0.142425 3:-0.769711 4:0.593934 
-1 0:-0.655626 1:0.498009 2:-0.141333 3:-0.727348 4:0.529108 
-1 0:-0.6002 1:0.522843 2:-0.0403388 3:-0.772421 4:0.529108 
-1 0:-0.6002 1:0.518288 2:-0.130849 3:-0.727348 4:0.503426 
-1 0:-0.601092 1:0.522843 2:-0.130849 3:-0.742485 4:0.529108 
-1 0:-0.589015 1:0.480037 2:-0.141333 3:-0.772421 4:0.529108 
-1 0:-0.563115 1:0.496531 2:-0.169217 3:-0.769711 4:0.630597 
-1 0:-0.563115 1:0.518288 2:-0.0403388 3:-0.75769 4:0.630597 
-1 0:-0.574696 1:0.478855 2:-0.0737366 3:-0.769711 4:0.593934 
-1 0:-0.563115 1:0.498009 2:-0.166653 3:-0.742485 4:0.497637 
-1 0:-0.563115 1:0.506083 2:-0.130849 3:-0.727348 4:0.529108 
-1 0:-0.544977 1:0.491701 2:-0.142425 3:-0.742485 4:0.529108 
-1 0:-0.563115 1:0.538229 2:-0.169217 3:-0.742485 4:0.503426 
-1 0:-0.563115 1:0.460445 2:-0.166653 3:-0.727348 4:0.529108 
-1 0:-0.574696 1:0.460445 2:-0.130849 3:-0.742485 4:0.529108 
-1 0:-0.62298 1:0.522843 2:-0.16147 3:-0.742485 4:0.526306 
-1 0:-0.563115 1:0.480037 2:-0.142425 3:-0.727348 4:0.497637 
-1 0:-0.655626 1:0.498009 2:-0.141333 3:-0.727348 4:0.526306 
-1 0:-0.563115 1:0.460445 2:-0.127642 3:-0.763051 4:0.529108 
-1 0:-0.574696 1:0.491701 2:-0.127642 3:-0.772421 4:0.526306 
-1 0:-0.563115 1:0.51089 2:-0.141333 3:-0.769711 4:0.526306 
-1 0:-0.574696 1:0.460445 2:-0.141333 3:-0.759002 4:0.499553 
-1 0:-0.574696 1:0.512614 2:-0.0403388 3:-0.759002 4:0.497637 
-1 0:-0.574696 1:0.498009 2:-0.0737366 3:-0.771524 4:0.593934 
-1 0:-0.62298 1:0.522843 2:-0.130849 3:-0.742485 4:0.529108 
-1 0:-0.589015 1:0.480037 2:-0.0737366 3:-0.769711 4:0.593934 
-1 0:-0.574696 1:0.51089 2:-0.127642 3:-0.769711 4:0.529108 
-1 0:-0.574696 1:0.460445 2:-0.127642 3:-0.759002 4:0.55239 
-1 0:-0.574696 1:0.518288 2:-0.130849 3:-0.727348 4:0.499553 
-1 0:-0.574696 1:0.498009 2:-0.0737366 3:-0.769711 4:0.630597 
-1 0:-0.574696 1:0.498009 2:-0.0737366 3:-0.742485 4:0.593934 
-1 0:-0.574696 1:0.460445 2:-0.0737366 3:-0.769711 4:0.630597 
-1 0:-0.6002 1:0.522843 2:-0.16147 3:-0.742485 4:0.529108 
-1 0:-0.574696 1:0.478855 2:-0.0403388 3:-0.759002 4:0.561593 
-1 0:-0.574696 1:0.512614 2:-0.209179 3:-0.727348 4:0.529108 
-1 0:-0.589015 1:0.480037 2:-0.0737366 3:-0.769711 4:0.497637 
-1 0:-0.589015 1:0.522843 2:-0.16147 3:-0.772421 4:0.529108 
-1 0:-0.566173 1:0.491701 2:-0.0836226 3:-0.757881 4:0.593934 
-1 0:-0.655626 1:0.491701 2:-0.127642 3:-0.759002 4:0.593934 
-1 0:-0.574696 1:0.498009 2:-0.0737366 3:-0.759002 4:0.497637 
-1 0:-0.655626 1:0.498009 2:-0.16147 3:-0.742485 4:0.529108 
-1 0:-0.553054 1:0.522843 2:-0.169217 3:-0.727348 4:0.503426 
-1 0:-0.574696 1:0.491198 2:-0.127642 3:-0.739028 4:0.503426 
-1 0:-0.574696 1:0.460445 2:-0.127642 3:-0.759002 4:0.55239 
-1 0:-0.574696 1:0.491701 2:-0.0737366 3:-0.769711 4:0.561593 
-1 0:-0.655626 1:0.498009 2:-0.0737366 3:-0.769711 4:0.561593 
-1 0:-0.655626 1:0.491701 2:-0.0836226 3:-0.75769 4:0.630597 
-1 0:-0.563115 1:0.460445 2:-0.127642 3:-0.759002 4:0.503426 
-1 0:-0.6002 1:0.491198 2:-0.0836226 3:-0.772421 4:0.529108 
-1 0:-0.563115 1:0.460445 2:-0.127642 3:-0.769711 4:0.526306 
-1 0:-0.563115 1:0.491198 2:-0.130849 3:-0.742485 4:0.630597 
-1 0:-0.589015 1:0.538229 2:-0.16147 3:-0.742485 4:0.529108 
-1 0:-0.574696 1:0.460445 2:-0.127642 3:-0.763051 4:0.503426 
-1 0:-0.655626 1:0.498009 2:-0.141333 3:-0.742485 4:0.593934 
-1 0:-0.655626 1:0.498009 2:-0.141333 3:-0.742485 4:0.503426 
-1 0:-0.601092 1:0.460445 2:-0.127642 3:-0.739028 4:0.549594 
-1 0:-0.655626 1:0.491701 2:-0.0737366 3:-0.742485 4:0.593934 
-1 0:-0.574696 1:0.51089 2:-0.127642 3:-0.727348 4:0.529108 
-1 0:-0.563115 1:0.460445 2:-0.127642 3:-0.763051 4:0.497637 
-1 0:-0.6002 1:0.518288 2:-0.16147 3:-0.727348 4:0.529108 
-1 0:-0.655626 1:0.518288 2:-0.0403388 3:-0.772421 4:0.529108 
-1 0:-0.574696 1:0.491701 2:-0.0737366 3:-0.759002 4:0.497637 
-1 0:-0.655626 1:0.496531 2:-0.16147 3:-0.727348 4:0.529108 
-1 0:-0.589015 1:0.491198 2:-0.0836226 3:-0.772421 4:0.529108 
-1 0:-0.574696 1:0.512614 2:-0.0737366 3:-0.759002 4:0.630597 
-1 0:-0.589015 1:0.482424 2:-0.0836226 3:-0.75769 4:0.630597 
-1 0:-0.589015 1:0.482424 2:-0.0403388 3:-0.75769 4:0.630597 
-1 0:-0.589015 1:0.518288 2:-0.0403388 3:-0.772421 4:0.630597 
-1 0:-0.566173 1:0.460445 2:-0.166653 3:-0.759002 4:0.497637 
-1 0:-0.655626 1:0.478855 2:-0.130849 3:-0.727348 4:0.503426 
-1 0:-0.6002 1:0.491198 2:-0.0836226 3:-0.727348 4:0.526306 
-1 0:-0.574696 1:0.460445 2:-0.0737366 3:-0.769711 4:0.549594 
-1 0:-0.563115 1:0.460445 2:-0.141333 3:-0.771524 4:0.593934 
-1 0:-0.574696 1:0.491701 2:-0.127642 3:-0.727348 4:0.561593 
-1 0:-0.566173 1:0.460445 2:-0.0737366 3:-0.759002 4:0.497637 
-1 0:-0.574696 1:0.512614 2:-0.0836226 3:-0.772421 4:0.529108 
-1 0:-0.574696 1:0.460445 2:-0.16147 3:-0.727348 4:0.529108 
-1 0:-0.591635 1:0.522843 2:-0.0836226 3:-0.772421 4:0.529108 
-1 0:-0.574696 1:0.460445 2:-0.127642 3:-0.769711 4:0.549594 
-1 0:-0.574696 1:0.491701 2:-0.166653 3:-0.759002 4:0.497637 
-1 0:-0.53833 1:0.592563 2:-0.00904405 3:-0.723169 4:0.554414 
-1 0:-0.570648 1:0.534473 2:-0.0453431 3:-0.745846 4:0.682057 
-1 0:-0.521781 1:0.537281 2:0.0775997 3:-0.742941 4:0.603057 
-1 0:-0.421344 1:0.552646 2:-0.0423957 3:-0.745846 4:0.590195 
-1 0:-0.421344 1:0.552646 2:-0.0423957 3:-0.750017 4:0.587841 
-1 0:-0.53833 1:0.52038 2:-0.0283893 3:-0.750017 4:0.630597 
-1 0:-0.524354 1:0.537281 2:-0.0790828 3:-0.750017 4:0.56062 
-1 0:-0.421344 1:0.537281 2:-0.079849 3:-0.723169 4:0.56062 
-1 0:-0.53833 1:0.535924 2:0.0286277 3:-0.723077 4:0.630597 
-1 0:-0.421344 1:0.570001 2:-0.0283893 3:-0.750017 4:0.554414 
-1 0:-0.461351 1:0.537281 2:-0.0932304 3:-0.750017 4:0.630597 
-1 0:-0.549971 1:0.534473 2:-0.00904405 3:-0.740898 4:0.602862 
-1 0:-0.524354 1:0.537281 2:-0.105159 3:-0.742941 4:0.682057 
-1 0:-0.53833 1:0.535924 2:-0.0423957 3:-0.723169 4:0.56062 
-1 0:-0.521781 1:0.570001 2:-0.0790828 3:-0.745846 4:0.603057 
-1 0:-0.53833 1:0.592563 2:-0.079849 3:-0.750017 4:0.590195 
-1 0:-0.421344 1:0.543854 2:-0.079849 3:-0.742941 4:0.590195 
-1 0:-0.421344 1:0.537281 2:-0.0790828 3:-0.723169 4:0.603057 
-1 0:-0.492127 1:0.570001 2:-0.0283893 3:-0.742941 4:0.554414 
-1 0:-0.560903 1:0.552646 2:-0.0283893 3:-0.742941 4:0.603057 
-1 0:-0.519374 1:0.520027 2:-0.0283893 3:-0.742941 4:0.554414 
-1 0:-0.524354 1:0.537281 2:-0.079849 3:-0.686101 4:0.630597 
-1 0:-0.53833 1:0.570001 2:-0.0790828 3:-0.750017 4:0.617867 
-1 0:-0.521781 1:0.552646 2:-0.105159 3:-0.745846 4:0.587841 
-1 0:-0.492127 1:0.537281 2:-0.105159 3:-0.742941 4:0.554414 
-1 0:-0.521781 1:0.570001 2:-0.0790828 3:-0.723169 4:0.617867 
-1 0:-0.53833 1:0.534473 2:-0.00904405 3:-0.741166 4:0.617867 
-1 0:-0.53833 1:0.552646 2:0.0286277 3:-0.741166 4:0.617867 
-1 0:-0.549345 1:0.543854 2:-0.079849 3:-0.723169 4:0.554414 
-1 0:-0.53833 1:0.552646 2:-0.105159 3:-0.742941 4:0.617867 
-1 0:-0.461351 1:0.534473 2:-0.0423957 3:-0.741166 4:0.590195 
-1 0:-0.524354 1:0.537281 2:-0.079849 3:-0.742941 4:0.682057 
-1 0:-0.549345 1:0.537281 2:-0.079849 3:-0.750017 4:0.56062 
-1 0:-0.524354 1:0.520027 2:-0.0283893 3:-0.723077 4:0.630597 
-1 0:-0.421344 1:0.552646 2:-0.0790828 3:-0.750017 4:0.617867 
-1 0:-0.549971 1:0.52038 2:-0.0932304 3:-0.742941 4:0.630597 
-1 0:-0.549971 1:0.592563 2:-0.00904405 3:-0.728067 4:0.564985 
-1 0:-0.521781 1:0.552646 2:-0.0281289 3:-0.742941 4:0.617867 
-1 0:-0.53833 1:0.534473 2:-0.00830769 3:-0.723169 4:0.590195 
-1 0:-0.461351 1:0.535924 2:-0.0423957 3:-0.745846 4:0.603057 
-1 0:-0.53833 1:0.552986 2:-0.079849 3:-0.745846 4:0.603057 
-1 0:-0.53833 1:0.534473 2:0.0286277 3:-0.750017 4:0.603057 
-1 0:-0.53833 1:0.592563 2:-0.079849 3:-0.750017 4:0.590195 
-1 0:-0.549971 1:0.552646 2:-0.0790828 3:-0.723169 4:0.682057 
-1 0:-0.492127 1:0.52038 2:-0.105159 3:-0.742941 4:0.617867 
-1 0:-0.421344 1:0.552646 2:-0.0281289 3:-0.741166 4:0.617867 
-1 0:-0.521781 1:0.570001 2:-0.105159 3:-0.745846 4:0.587841 
-1 0:-0.524354 1:0.552646 2:-0.0423957 3:-0.740898 4:0.590195 
-1 0:-0.560903 1:0.552986 2:-0.079849 3:-0.723169 4:0.603057 
-1 0:-0.549971 1:0.535924 2:-0.0790828 3:-0.742941 4:0.682057 
-1 0:-0.519374 1:0.535924 2:0.0286277 3:-0.741166 4:0.617867 
-1 0:-0.421344 1:0.552646 2:-0.079849 3:-0.745846 4:0.603057 
-1 0:-0.524354 1:0.537281 2:-0.0790828 3:-0.745846 4:0.56062 
-1 0:-0.524354 1:0.552646 2:-0.0281289 3:-0.750017 4:0.617867 
-1 0:-0.549971 1:0.592563 2:-0.0423957 3:-0.740898 4:0.602862 
-1 0:-0.461351 1:0.552986 2:-0.0790828 3:-0.750017 4:0.603057 
-1 0:-0.507718 1:0.592563 2:-0.00830769 3:-0.741166 4:0.587841 
-1 0:-0.461351 1:0.534473 2:-0.00830769 3:-0.742941 4:0.603057 
-1 0:-0.519374 1:0.526591 2:0.0286277 3:-0.686101 4:0.590195 
-1 0:-0.53833 1:0.592563 2:0.0286277 3:-0.750017 4:0.56062 
-1 0:-0.421344 1:0.552646 2:-0.0423957 3:-0.750017 4:0.617867 
-1 0:-0.53833 1:0.592563 2:-0.0453431 3:-0.742941 4:0.617867 
-1 0:-0.492127 1:0.537281 2:-0.079849 3:-0.742941 4:0.630597 
-1 0:-0.521781 1:0.552986 2:-0.0283893 3:-0.745846 4:0.603057 
-1 0:-0.53833 1:0.552646 2:0.0286277 3:-0.750017 4:0.617867 
-1 0:-0.491526 1:0.508367 2:-0.0932304 3:-0.723077 4:0.630597 
-1 0:-0.549971 1:0.535924 2:-0.0790828 3:-0.745846 4:0.617867 
-1 0:-0.521781 1:0.552646 2:-0.0423957 3:-0.742941 4:0.617867 
-1 0:-0.524354 1:0.570001 2:-0.079849 3:-0.750017 4:0.603057 
-1 0:-0.521781 1:0.552986 2:-0.105159 3:-0.742941 4:0.603057 
-1 0:-0.53833 1:0.552646 2:-0.0423957 3:-0.740898 4:0.617867 
-1 0:-0.519374 1:0.534473 2:0.0286277 3:-0.723077 4:0.630597 
-1 0:-0.521781 1:0.552646 2:-0.0790828 3:-0.750017 4:0.554414 
-1 0:-0.421344 1:0.535924 2:-0.105159 3:-0.745846 4:0.587841 
-1 0:-0.53833 1:0.552646 2:-0.0283893 3:-0.742941 4:0.545501 
-1 0:-0.461351 1:0.535924 2:-0.0423957 3:-0.742941 4:0.603057 
-1 0:-0.549345 1:0.570001 2:-0.079849 3:-0.723169 4:0.545501 
-1 0:-0.53833 1:0.592563 2:-0.0484927 3:-0.750017 4:0.603057 
-1 0:-0.53833 1:0.552646 2:0.0286277 3:-0.728067 4:0.554414 
-1 0:-0.421344 1:0.552646 2:-0.0484927 3:-0.745846 4:0.617867 
-1 0:-0.507718 1:0.535924 2:-0.00904405 3:-0.703228 4:0.617867 
-1 0:-0.521781 1:0.508367 2:-0.0849245 3:-0.716145 4:0.630597 
-1 0:-0.53833 1:0.535924 2:-0.0790828 3:-0.745846 4:0.56062 
-1 0:-0.421344 1:0.537281 2:-0.0790828 3:-0.745846 4:0.602862 
-1 0:-0.53833 1:0.592563 2:-0.00904405 3:-0.741166 4:0.56062 
-1 0:-0.524354 1:0.537281 2:0.0775997 3:-0.745846 4:0.603057 
-1 0:-0.53833 1:0.520027 2:-0.105159 3:-0.742941 4:0.617867 
-1 0:-0.53833 1:0.534473 2:-0.105159 3:-0.742941 4:0.617867 
-1 0:-0.421344 1:0.570001 2:-0.079849 3:-0.723169 4:0.587841 
-1 0:-0.521781 1:0.552646 2:0.0286277 3:-0.745846 4:0.617867 
-1 0:-0.491526 1:0.520027 2:-0.105159 3:-0.742941 4:0.603057 
-1 0:-0.53833 1:0.520027 2:0.0286277 3:-0.740898 4:0.56062 
-1 0:-0.524354 1:0.552986 2:-0.079849 3:-0.750017 4:0.682057 
-1 0:-0.492127 1:0.570001 2:-0.079849 3:-0.750017 4:0.56062 
-1 0:-0.53833 1:0.592563 2:-0.079849 3:-0.750017 4:0.617867 
-1 0:-0.524354 1:0.552646 2:0.0286277 3:-0.742941 4:0.617867 
-1 0:-0.53833 1:0.534473 2:0.0286277 3:-0.728067 4:0.603057 
-1 0:-0.53833 1:0.592563 2:-0.0484927 3:-0.723169 4:0.617867 
-1 0:-0.53833 1:0.535924 2:-0.079849 3:-0.745846 4:0.617867 
-1 0:-0.53833 1:0.534473 2:-0.0423957 3:-0.741166 4:0.56062 
-1 0:-0.521781 1:0.552646 2:-0.079849 3:-0.750017 4:0.564985 
-1 0:-0.519374 1:0.535924 2:0.0286277 3:-0.745846 4:0.630597 
-1 0:-0.421344 1:0.552646 2:-0.079849 3:-0.750017 4:0.554414 
-1 0:-0.521781 1:0.537281 2:-0.0790828 3:-0.745846 4:0.602862 
-1 0:-0.53833 1:0.592563 2:-0.00904405 3:-0.728067 4:0.564412 
-1 0:-0.524354 1:0.537281 2:-0.0790828 3:-0.723169 4:0.590195 
-1 0:-0.53833 1:0.535924 2:0.0286277 3:-0.741166 4:0.564985 
-1 0:-0.461351 1:0.537281 2:-0.0790828 3:-0.750017 4:0.630597 
-1 0:-0.549971 1:0.552646 2:0.0286277 3:-0.740898 4:0.56062 
-1 0:-0.521781 1:0.537281 2:-0.0932304 3:-0.742941 4:0.587841 
-1 0:-0.492127 1:0.543734 2:-0.0932304 3:-0.742941 4:0.603057 
-1 0:-0.53833 1:0.592563 2:-0.0453431 3:-0.740898 4:0.587841 
-1 0:-0.421344 1:0.570001 2:-0.0790828 3:-0.729098 4:0.630597 
-1 0:-0.521781 1:0.537281 2:-0.0790828 3:-0.723169 4:0.545501 
-1 0:-0.549971 1:0.535924 2:0.0775997 3:-0.736182 4:0.617867 
-1 0:-0.53833 1:0.552646 2:0.0286277 3:-0.741166 4:0.603057 
-1 0:-0.53833 1:0.534473 2:0.0286277 3:-0.741166 4:0.682057 
-1 0:-0.53833 1:0.592563 2:-0.0283893 3:-0.742941 4:0.590195 
-1 0:-0.549971 1:0.535924 2:-0.00904405 3:-0.728067 4:0.564985 
-1 0:-0.519374 1:0.508367 2:-0.0283893 3:-0.742941 4:0.554414 
-1 0:-0.519374 1:0.592563 2:0.0286277 3:-0.750017 4:0.554414 
-1 0:-0.507718 1:0.570001 2:-0.105159 3:-0.745846 4:0.617867 
-1 0:-0.421344 1:0.552646 2:-0.0423957 3:-0.740898 4:0.545501 
-1 0:-0.53833 1:0.552646 2:0.0286277 3:-0.750017 4:0.56062 
-1 0:-0.549971 1:0.52038 2:-0.0932304 3:-0.750017 4:0.630597 
-1 0:-0.507718 1:0.537281 2:-0.079849 3:-0.750017 4:0.617867 
-1 0:-0.521781 1:0.552646 2:-0.0283893 3:-0.750017 4:0.617867 
-1 0:-0.521781 1:0.513862 2:-0.079849 3:-0.750017 4:0.603057 
-1 0:-0.521781 1:0.552986 2:-0.0283893 3:-0.750017 4:0.587841 
-1 0:-0.53833 1:0.535924 2:-0.105159 3:-0.742941 4:0.682057 
-1 0:-0.521781 1:0.552646 2:-0.079849 3:-0.745846 4:0.617867 
-1 0:-0.53833 1:0.552646 2:-0.105159 3:-0.723169 4:0.603057 
-1 0:-0.507718 1:0.552646 2:0.0286277 3:-0.742941 4:0.617867 
-1 0:-0.421344 1:0.513862 2:-0.0453431 3:-0.723169 4:0.617867 
-1 0:-0.521781 1:0.570001 2:-0.0283893 3:-0.745846 4:0.630597 
-1 0:-0.519374 1:0.592563 2:0.0286277 3:-0.741166 4:0.56062 
-1 0:-0.492127 1:0.570001 2:-0.0790828 3:-0.723169 4:0.630597 
-1 0:-0.53833 1:0.552646 2:-0.0283893 3:-0.745846 4:0.603057 
-1 0:-0.421344 1:0.552646 2:-0.0281289 3:-0.730199 4:0.617867 
-1 0:-0.53833 1:0.552646 2:-0.0281289 3:-0.745846 4:0.617867 
-1 0:-0.421344 1:0.552646 2:-0.105159 3:-0.745846 4:0.590195 
-1 0:-0.549971 1:0.570001 2:-0.0790828 3:-0.745846 4:0.617867 
-1 0:-0.521781 1:0.552646 2:0.0286277 3:-0.723169 4:0.603057 
-1 0:-0.53833 1:0.535924 2:0.0286277 3:-0.740898 4:0.56062 
-1 0:-0.521781 1:0.552646 2:-0.0790828 3:-0.723169 4:0.603057 
-1 0:-0.421344 1:0.552646 2:-0.079849 3:-0.745846 4:0.545501 
-1 0:-0.521781 1:0.52038 2:-0.0283893 3:-0.723077 4:0.630597 
-1 0:-0.53833 1:0.534473 2:-0.0423957 3:-0.741166 4:0.682057 
-1 0:-0.521781 1:0.552646 2:0.0286277 3:-0.741166 4:0.602862 
-1 0:-0.421344 1:0.552986 2:-0.079849 3:-0.723169 4:0.545501 
-1 0:-0.53833 1:0.592563 2:-0.0453431 3:-0.741166 4:0.587841 
-1 0:-0.421344 1:0.508367 2:-0.0932304 3:-0.742941 4:0.590195 
-1 0:-0.524354 1:0.52038 2:-0.079849 3:-0.750017 4:0.56062 
-1 0:-0.491526 1:0.534473 2:-0.00904405 3:-0.703228 4:0.603057 
-1 0:-0.492127 1:0.570001 2:-0.0790828 3:-0.723169 4:0.617867 
-1 0:-0.519374 1:0.534473 2:0.0286277 3:-0.745846 4:0.545501 
-1 0:-0.524354 1:0.552646 2:-0.0423957 3:-0.741166 4:0.56062 
-1 0:-0.461351 1:0.534473 2:-0.0423957 3:-0.740898 4:0.56062 
-1 0:-0.560903 1:0.570001 2:-0.0790828 3:-0.750017 4:0.602862 
-1 0:-0.461351 1:0.52038 2:-0.0932304 3:-0.750017 4:0.630597 
-1 0:-0.521781 1:0.537281 2:-0.0283893 3:-0.742941 4:0.603057 
-1 0:-0.53833 1:0.534473 2:-0.0283893 3:-0.750017 4:0.603057 
-1 0:-0.549971 1:0.552646 2:-0.0790828 3:-0.723169 4:0.56062 
-1 0:-0.421344 1:0.537281 2:-0.079849 3:-0.742941 4:0.590195 
-1 0:-0.461351 1:0.535924 2:-0.0423957 3:-0.745846 4:0.682057 
-1 0:-0.492127 1:0.520027 2:-0.105159 3:-0.742941 4:0.617867 
-1 0:-0.53833 1:0.592563 2:-0.0423957 3:-0.741166 4:0.587841 
-1 0:-0.53833 1:0.537281 2:-0.079849 3:-0.750017 4:0.617867 
-1 0:-0.53833 1:0.552646 2:-0.0283893 3:-0.742941 4:0.554414 
-1 0:-0.519374 1:0.520027 2:-0.105159 3:-0.742941 4:0.602862 
-1 0:-0.461351 1:0.513862 2:-0.0423957 3:-0.723169 4:0.603057 
-1 0:-0.53833 1:0.534473 2:0.0286277 3:-0.740898 4:0.603057 
-1 0:-0.461351 1:0.535924 2:-0.0423957 3:-0.750017 4:0.617867 
-1 0:-0.521781 1:0.570001 2:-0.0932304 3:-0.742941 4:0.545501 
-1 0:-0.519374 1:0.534473 2:-0.0281289 3:-0.745846 4:0.617867 
-1 0:-0.53833 1:0.592563 2:-0.00904405 3:-0.723169 4:0.603057 
-1 0:-0.521781 1:0.570001 2:-0.0790828 3:-0.742941 4:0.617867 
-1 0:-0.549971 1:0.534473 2:-0.00904405 3:-0.728067 4:0.564985 
-1 0:-0.53833 1:0.592563 2:-0.00904405 3:-0.728067 4:0.56062 
-1 0:-0.524354 1:0.552986 2:0.0286277 3:-0.742941 4:0.590195 
-1 0:-0.524354 1:0.552646 2:-0.0932304 3:-0.750017 4:0.590195 
-1 0:-0.521781 1:0.52038 2:-0.0932304 3:-0.742941 4:0.617867 
-1 0:-0.492127 1:0.508367 2:-0.0283893 3:-0.742941 4:0.617867 
-1 0:-0.521781 1:0.552646 2:-0.0849245 3:-0.716145 4:0.630597 
-1 0:-0.521781 1:0.552986 2:0.0775997 3:-0.750017 4:0.554414 
-1 0:-0.524354 1:0.570001 2:-0.105159 3:-0.742941 4:0.554414 
-1 0:-0.53833 1:0.535924 2:-0.00904405 3:-0.728067 4:0.587841 
-1 0:-0.421344 1:0.570001 2:-0.0283893 3:-0.742941 4:0.590195 
-1 0:-0.421344 1:0.552646 2:-0.079849 3:-0.723169 4:0.56062 
-1 0:-0.461351 1:0.534473 2:-0.0423957 3:-0.741166 4:0.603057 
-1 0:-0.421344 1:0.552646 2:-0.079849 3:-0.745846 4:0.56062 
-1 0:-0.53833 1:0.592563 2:0.0286277 3:-0.740898 4:0.590195 
-1 0:-0.524354 1:0.552646 2:-0.0283893 3:-0.742941 4:0.617867 
-1 0:-0.524354 1:0.537281 2:-0.079849 3:-0.745846 4:0.617867 
-1 0:-0.461351 1:0.534473 2:-0.00904405 3:-0.728067 4:0.603057 
-1 0:-0.421344 1:0.570001 2:-0.0453431 3:-0.750017 4:0.587841 
-1 0:-0.521781 1:0.570001 2:-0.0932304 3:-0.750017 4:0.630597 
-1 0:-0.53833 1:0.508367 2:-0.0932304 3:-0.742941 4:0.617867 
-1 0:-0.560903 1:0.570001 2:-0.0790828 3:-0.750017 4:0.617867 
-1 0:-0.521781 1:0.570001 2:-0.079849 3:-0.723169 4:0.545501 
-1 0:-0.524354 1:0.570001 2:-0.079849 3:-0.742941 4:0.590195 
-1 0:-0.53833 1:0.535924 2:-0.0423957 3:-0.740898 4:0.56062 
-1 0:-0.421344 1:0.552646 2:-0.0423957 3:-0.740898 4:0.617867 
-1 0:-0.521781 1:0.513862 2:-0.079849 3:-0.750017 4:0.603057 
-1 0:-0.421344 1:0.552646 2:-0.0790828 3:-0.723169 4:0.603057 
-1 0:-0.461351 1:0.552646 2:-0.0281289 3:-0.723169 4:0.617867 
-1 0:-0.421344 1:0.520027 2:-0.105159 3:-0.740898 4:0.603057 
-1 0:-0.521781 1:0.552646 2:-0.0423957 3:-0.723169 4:0.587841 
-1 0:-0.53833 1:0.52038 2:0.0286277 3:-0.741166 4:0.617867 
-1 0:-0.53833 1:0.520027 2:-0.105159 3:-0.745846 4:0.617867 
-1 0:-0.53833 1:0.535924 2:0.0286277 3:-0.745846 4:0.56062 
-1 0:-0.53833 1:0.570001 2:-0.0283893 3:-0.750017 4:0.603057 
-1 0:-0.524354 1:0.537281 2:-0.079849 3:-0.723169 4:0.564985 
-1 0:-0.421344 1:0.570001 2:-0.079849 3:-0.723169 4:0.56062 
-1 0:-0.521781 1:0.543854 2:-0.0790828 3:-0.745846 4:0.545501 
-1 0:-0.491526 1:0.552646 2:0.0286277 3:-0.742941 4:0.603057 
-1 0:-0.461351 1:0.534473 2:-0.0423957 3:-0.741166 4:0.617867 
-1 0:-0.53833 1:0.535924 2:-0.00904405 3:-0.750017 4:0.617867 
-1 0:-0.461351 1:0.52038 2:-0.105159 3:-0.716145 4:0.630597 
-1 0:-0.519374 1:0.534473 2:0.0286277 3:-0.723169 4:0.603057 
-1 0:-0.53833 1:0.534473 2:-0.0423957 3:-0.742941 4:0.603057 
-1 0:-0.524354 1:0.513862 2:-0.105159 3:-0.723169 4:0.590195 
1 0:-0.560534 1:0.497381 2:-0.0349877 3:-0.731906 4:0.487871 
1 0:-0.528342 1:0.472834 2:-0.17301 3:-0.74779 4:0.597932 
1 0:-0.612637 1:0.54192 2:-0.112322 3:-0.776992 4:0.630597 
1 0:-0.511147 1:0.510779 2:-0.12782 3:-0.74779 4:0.540149 
1 0:-0.565444 1:0.500322 2:-0.0349877 3:-0.773747 4:0.540149 
1 0:-0.576499 1:0.484688 2:-0.0323259 3:-0.771467 4:0.487871 
1 0:-0.612637 1:0.500803 2:-0.0349877 3:-0.74779 4:0.487871 
1 0:-0.589161 1:0.500803 2:-0.0349877 3:-0.74779 4:0.499674 
1 0:-0.612637 1:0.54192 2:-0.122621 3:-0.773747 4:0.55026 
1 0:-0.612637 1:0.497927 2:-0.092779 3:-0.758357 4:0.487871 
1 0:-0.511147 1:0.540694 2:-0.0987898 3:-0.752523 4:0.630597 
1 0:-0.560534 1:0.480111 2:-0.122621 3:-0.725476 4:0.540149 
1 0:-0.511147 1:0.500803 2:-0.12782 3:-0.773747 4:0.499674 
1 0:-0.511147 1:0.500322 2:-0.129005 3:-0.74779 4:0.487871 
1 0:-0.612637 1:0.54192 2:-0.122621 3:-0.773747 4:0.540149 
1 0:-0.560534 1:0.532224 2:-0.129005 3:-0.74779 4:0.499674 
1 0:-0.584913 1:0.500803 2:-0.0999235 3:-0.725476 4:0.494803 
1 0:-0.560534 1:0.500803 2:-0.122621 3:-0.725476 4:0.487871 
1 0:-0.584913 1:0.497381 2:-0.0349877 3:-0.773747 4:0.540149 
-1 0:-0.589161 1:0.500803 2:-0.129005 3:-0.74779 4:0.540149 
1 0:-0.560534 1:0.500803 2:-0.122621 3:-0.758357 4:0.487871 
1 0:-0.612637 1:0.54192 2:-0.12782 3:-0.745688 4:0.630597 
1 0:-0.528342 1:0.500322 2:-0.129005 3:-0.773747 4:0.499674 
1 0:-0.589161 1:0.505067 2:-0.122621 3:-0.725476 4:0.487871 
1 0:-0.560534 1:0.480111 2:-0.0987898 3:-0.731906 4:0.540149 
1 0:-0.620753 1:0.500803 2:-0.122621 3:-0.74779 4:0.487871 
1 0:-0.565444 1:0.51407 2:-0.0323259 3:-0.758357 4:0.494803 
1 0:-0.560534 1:0.540694 2:-0.129005 3:-0.731906 4:0.507096 
1 0:-0.511147 1:0.505067 2:-0.122621 3:-0.731906 4:0.499674 
1 0:-0.589161 1:0.54192 2:-0.17301 3:-0.74779 4:0.527683 
1 0:-0.584061 1:0.484688 2:-0.166491 3:-0.731906 4:0.554751 
1 0:-0.589161 1:0.510779 2:-0.129005 3:-0.773747 4:0.499674 
1 0:-0.612637 1:0.54192 2:-0.0999235 3:-0.725476 4:0.528569 
1 0:-0.584913 1:0.510779 2:-0.129005 3:-0.773747 4:0.540149 
1 0:-0.612637 1:0.497381 2:-0.0349877 3:-0.756125 4:0.540149 
1 0:-0.566371 1:0.54192 2:-0.122621 3:-0.758357 4:0.540149 
1 0:-0.576499 1:0.500322 2:-0.129005 3:-0.773747 4:0.499674 
1 0:-0.560534 1:0.497927 2:-0.122621 3:-0.724545 4:0.55026 
1 0:-0.566371 1:0.480111 2:-0.122621 3:-0.731906 4:0.507096 
1 0:-0.560534 1:0.510779 2:-0.0349877 3:-0.773747 4:0.527683 
1 0:-0.612637 1:0.54192 2:-0.122621 3:-0.757943 4:0.487871 
1 0:-0.633658 1:0.497381 2:-0.0987898 3:-0.771467 4:0.630597 
1 0:-0.612637 1:0.497927 2:-0.0999235 3:-0.725476 4:0.540149 
1 0:-0.589161 1:0.510779 2:-0.0349877 3:-0.731906 4:0.499674 
1 0:-0.589161 1:0.500803 2:-0.0999235 3:-0.725476 4:0.630597 
1 0:-0.612637 1:0.54192 2:-0.0533732 3:-0.773747 4:0.554751 
1 0:-0.566371 1:0.480111 2:-0.122621 3:-0.74779 4:0.487871 
1 0:-0.566371 1:0.54192 2:-0.122621 3:-0.74779 4:0.554751 
1 0:-0.511147 1:0.500803 2:-0.0999235 3:-0.773747 4:0.540149 
1 0:-0.560534 1:0.472834 2:-0.0999235 3:-0.725476 4:0.507096 
1 0:-0.565444 1:0.51407 2:-0.17301 3:-0.725476 4:0.584195 
1 0:-0.511147 1:0.500322 2:-0.0533732 3:-0.773747 4:0.499674 
1 0:-0.612637 1:0.54192 2:-0.0999235 3:-0.74779 4:0.532453 
1 0:-0.584913 1:0.532224 2:-0.0999235 3:-0.758357 4:0.494803 
1 0:-0.612637 1:0.500803 2:-0.0999235 3:-0.773747 4:0.487871 
1 0:-0.576499 1:0.54192 2:-0.182288 3:-0.731906 4:0.499674 
1 0:-0.589161 1:0.54192 2:-0.17301 3:-0.731906 4:0.540149 
1 0:-0.612637 1:0.54192 2:-0.121578 3:-0.758357 4:0.487871 
-1 0:-0.612637 1:0.500803 2:-0.129005 3:-0.74779 4:0.487871 
1 0:-0.511147 1:0.500803 2:-0.129005 3:-0.773747 4:0.487871 
1 0:-0.560534 1:0.497927 2:-0.121578 3:-0.758357 4:0.584195 
-1 0:-0.589161 1:0.500803 2:-0.0999235 3:-0.74779 4:0.499674 
1 0:-0.612637 1:0.510779 2:-0.129005 3:-0.756125 4:0.554751 
1 0:-0.566371 1:0.472834 2:-0.129005 3:-0.725476 4:0.540149 
1 0:-0.560534 1:0.500322 2:-0.129005 3:-0.731906 4:0.499674 
1 0:-0.612637 1:0.54192 2:-0.0349877 3:-0.74779 4:0.499674 
1 0:-0.560534 1:0.497927 2:-0.129005 3:-0.731906 4:0.499674 
1 0:-0.511147 1:0.480111 2:-0.0999235 3:-0.773747 4:0.540149 
1 0:-0.560534 1:0.497381 2:-0.0987898 3:-0.731906 4:0.499674 
1 0:-0.612637 1:0.54192 2:-0.122621 3:-0.758357 4:0.55026 
1 0:-0.612637 1:0.497927 2:-0.129005 3:-0.773747 4:0.487871 
1 0:-0.560534 1:0.54192 2:-0.121578 3:-0.756125 4:0.549413 
-1 0:-0.589161 1:0.505067 2:-0.129005 3:-0.773747 4:0.487871 
1 0:-0.528342 1:0.510779 2:-0.129005 3:-0.773747 4:0.487871 
1 0:-0.511147 1:0.472834 2:-0.129005 3:-0.74779 4:0.499674 
1 0:-0.511147 1:0.505067 2:-0.0349877 3:-0.74779 4:0.487871 
1 0:-0.560534 1:0.497927 2:-0.0349877 3:-0.74779 4:0.487871 
1 0:-0.612637 1:0.54192 2:-0.122621 3:-0.725476 4:0.494803 
1 0:-0.612637 1:0.54192 2:-0.12782 3:-0.773747 4:0.487871 
1 0:-0.584913 1:0.500803 2:-0.0999235 3:-0.758357 4:0.540149 
1 0:-0.584061 1:0.497381 2:-0.0987898 3:-0.773747 4:0.597932 
1 0:-0.528342 1:0.54192 2:-0.0349877 3:-0.74779 4:0.540149 
1 0:-0.560534 1:0.497927 2:-0.0987898 3:-0.731906 4:0.487871 
1 0:-0.612637 1:0.497927 2:-0.121578 3:-0.725476 4:0.540149 
1 0:-0.511147 1:0.510779 2:-0.129005 3:-0.731906 4:0.487871 
1 0:-0.511147 1:0.500803 2:-0.129005 3:-0.731906 4:0.540149 
1 0:-0.511147 1:0.505067 2:-0.12782 3:-0.731906 4:0.499674 
1 0:-0.511147 1:0.505067 2:-0.0987898 3:-0.773747 4:0.527683 
1 0:-0.633658 1:0.497927 2:-0.121578 3:-0.773747 4:0.499674 
1 0:-0.566371 1:0.497927 2:-0.121578 3:-0.756125 4:0.527683 
1 0:-0.511147 1:0.497927 2:-0.0999235 3:-0.758357 4:0.55026 
1 0:-0.612637 1:0.54192 2:-0.166491 3:-0.758357 4:0.597932 
1 0:-0.560534 1:0.497927 2:-0.156557 3:-0.758357 4:0.597932 
1 0:-0.511147 1:0.500322 2:-0.129005 3:-0.773747 4:0.499674 
1 0:-0.560534 1:0.54192 2:-0.122621 3:-0.731906 4:0.507096 
1 0:-0.560534 1:0.497927 2:-0.122621 3:-0.758357 4:0.507096 
1 0:-0.612637 1:0.51407 2:-0.0987898 3:-0.773747 4:0.499674 
1 0:-0.511147 1:0.510779 2:-0.17301 3:-0.74779 4:0.540149 
1 0:-0.612637 1:0.54192 2:-0.121578 3:-0.756125 4:0.527683 
1 0:-0.511147 1:0.510779 2:-0.129005 3:-0.776992 4:0.630597 
1 0:-0.511147 1:0.500803 2:-0.0999235 3:-0.731906 4:0.540149 
1 0:-0.560534 1:0.540694 2:-0.129005 3:-0.773747 4:0.540149 
1 0:-0.560534 1:0.510779 2:-0.122621 3:-0.731906 4:0.499674 
1 0:-0.612637 1:0.500803 2:-0.0349877 3:-0.773747 4:0.554751 
1 0:-0.511147 1:0.472834 2:-0.129005 3:-0.74779 4:0.540149 
1 0:-0.612637 1:0.510779 2:-0.122621 3:-0.758357 4:0.630597 
1 0:-0.584913 1:0.54192 2:-0.0999235 3:-0.758357 4:0.494803 
1 0:-0.511147 1:0.505067 2:-0.0533732 3:-0.773747 4:0.487871 
1 0:-0.511147 1:0.500803 2:-0.0349877 3:-0.758357 4:0.540149 
1 0:-0.633658 1:0.51407 2:-0.166491 3:-0.731906 4:0.540149 
1 0:-0.589161 1:0.472834 2:-0.122621 3:-0.773747 4:0.540149 
1 0:-0.560534 1:0.500322 2:-0.17301 3:-0.74779 4:0.499674 
1 0:-0.560534 1:0.500322 2:-0.129005 3:-0.74779 4:0.499674 
1 0:-0.511147 1:0.510779 2:-0.12782 3:-0.74779 4:0.487871 
1 0:-0.584913 1:0.472834 2:-0.0999235 3:-0.773747 4:0.540149 
1 0:-0.566371 1:0.500322 2:-0.156557 3:-0.773747 4:0.487871 
1 0:-0.560534 1:0.497927 2:-0.121578 3:-0.725476 4:0.494803 
1 0:-0.612637 1:0.472834 2:-0.17301 3:-0.731906 4:0.499674 
-1 0:-0.612637 1:0.497927 2:-0.121578 3:-0.745688 4:0.540149 
1 0:-0.560534 1:0.480111 2:-0.129005 3:-0.74779 4:0.507096 
1 0:-0.560534 1:0.500803 2:-0.122621 3:-0.773747 4:0.487871 
1 0:-0.612637 1:0.54192 2:-0.122621 3:-0.74779 4:0.499674 
1 0:-0.612637 1:0.54192 2:-0.0349877 3:-0.773747 4:0.540149 
1 0:-0.612637 1:0.497927 2:-0.121578 3:-0.756125 4:0.584195 
1 0:-0.589161 1:0.480111 2:-0.122621 3:-0.725476 4:0.540149 
1 0:-0.560534 1:0.497927 2:-0.0999235 3:-0.725476 4:0.499674 
1 0:-0.612637 1:0.54192 2:-0.121578 3:-0.756125 4:0.487871 
1 0:-0.560534 1:0.480111 2:-0.0999235 3:-0.74779 4:0.487871 
1 0:-0.576499 1:0.510779 2:-0.0987898 3:-0.773747 4:0.499674 
1 0:-0.511147 1:0.500322 2:-0.0349877 3:-0.731906 4:0.540149 
1 0:-0.612637 1:0.500803 2:-0.122621 3:-0.74779 4:0.540149 
1 0:-0.612637 1:0.500322 2:-0.129005 3:-0.731906 4:0.499674 
1 0:-0.584061 1:0.510779 2:-0.0349877 3:-0.773747 4:0.487871 
1 0:-0.612637 1:0.532224 2:-0.0987898 3:-0.773747 4:0.487871 
1 0:-0.560534 1:0.54192 2:-0.129005 3:-0.74779 4:0.528569 
1 0:-0.612637 1:0.497927 2:-0.121578 3:-0.758357 4:0.494803 
1 0:-0.511147 1:0.497381 2:-0.12782 3:-0.752523 4:0.630597 
1 0:-0.612637 1:0.497927 2:-0.0999235 3:-0.725476 4:0.630597 
1 0:-0.626078 1:0.500322 2:-0.0349877 3:-0.731906 4:0.540149 
1 0:-0.612637 1:0.480111 2:-0.122621 3:-0.725476 4:0.540149 
1 0:-0.560534 1:0.472834 2:-0.0349877 3:-0.74779 4:0.540149 
1 0:-0.566371 1:0.500803 2:-0.122621 3:-0.725476 4:0.494803 
1 0:-0.560534 1:0.500322 2:-0.0987898 3:-0.773747 4:0.597932 
1 0:-0.589161 1:0.505067 2:-0.0323259 3:-0.74779 4:0.487871 
1 0:-0.560534 1:0.540694 2:-0.129005 3:-0.74779 4:0.540149 
1 0:-0.565444 1:0.500803 2:-0.0999235 3:-0.731906 4:0.494803 
1 0:-0.612637 1:0.51407 2:-0.0987898 3:-0.771467 4:0.630597 
1 0:-0.560534 1:0.54192 2:-0.121578 3:-0.758357 4:0.55026 
1 0:-0.560534 1:0.497927 2:-0.122621 3:-0.74779 4:0.540149 
1 0:-0.560534 1:0.497927 2:-0.121578 3:-0.756125 4:0.599921 
1 0:-0.584061 1:0.497381 2:-0.0349877 3:-0.74779 4:0.487871 
1 0:-0.620753 1:0.54192 2:-0.121578 3:-0.773747 4:0.540149 
1 0:-0.612637 1:0.54192 2:-0.112322 3:-0.74779 4:0.487871 
1 0:-0.560534 1:0.54192 2:-0.129005 3:-0.74779 4:0.507096 
1 0:-0.511147 1:0.480111 2:-0.0999235 3:-0.74779 4:0.540149 
1 0:-0.612637 1:0.532224 2:-0.0987898 3:-0.773747 4:0.499674 
1 0:-0.560534 1:0.54192 2:-0.122621 3:-0.725476 4:0.507096 
1 0:-0.612637 1:0.51407 2:-0.129005 3:-0.773747 4:0.540149 
1 0:-0.584061 1:0.51407 2:-0.166491 3:-0.731906 4:0.507096 
-1 0:-0.555462 1:0.565994 2:-0.0215771 3:-0.745004 4:0.545778 
-1 0:-0.603622 1:0.529335 2:-0.0746996 3:-0.744806 4:0.638966 
-1 0:-0.468457 1:0.522399 2:-0.0908241 3:-0.722075 4:0.55939 
-1 0:-0.558474 1:0.522399 2:-0.205131 3:-0.745004 4:0.574863 
-1 0:-0.533464 1:0.50861 2:0.132987 3:-0.784981 4:0.605198 
-1 0:-0.482065 1:0.618079 2:-0.0902573 3:-0.745004 4:0.57951 
-1 0:-0.468457 1:0.50861 2:-0.0902573 3:-0.722075 4:0.556212 
-1 0:-0.468457 1:0.618079 2:-0.0746996 3:-0.784981 4:0.605198 
-1 0:-0.570217 1:0.546872 2:0.00327249 3:-0.745004 4:0.630597 
-1 0:-0.533464 1:0.50861 2:-0.0215771 3:-0.745004 4:0.605198 
-1 0:-0.603622 1:0.565994 2:-0.104631 3:-0.720786 4:0.605198 
-1 0:-0.570345 1:0.618079 2:-0.0215771 3:-0.712095 4:0.470803 
-1 0:-0.533464 1:0.618079 2:-0.0215771 3:-0.722075 4:0.638966 
-1 0:-0.468457 1:0.50861 2:-0.0746996 3:-0.744806 4:0.630597 
-1 0:-0.502366 1:0.565994 2:-0.0746996 3:-0.712095 4:0.556212 
-1 0:-0.603622 1:0.565994 2:-0.104631 3:-0.739365 4:0.470803 
-1 0:-0.570345 1:0.618079 2:0.00327249 3:-0.734099 4:0.55939 
-1 0:-0.603622 1:0.529335 2:-0.104631 3:-0.784981 4:0.605198 
-1 0:-0.570345 1:0.51693 2:-0.0902573 3:-0.736274 4:0.57951 
-1 0:-0.533464 1:0.50861 2:-0.205131 3:-0.744806 4:0.638966 
-1 0:-0.468457 1:0.522399 2:0.00327249 3:-0.745004 4:0.605198 
-1 0:-0.603622 1:0.529335 2:-0.205131 3:-0.745004 4:0.55939 
-1 0:-0.545764 1:0.529335 2:-0.0215771 3:-0.712095 4:0.605198 
-1 0:-0.468457 1:0.50861 2:-0.0746996 3:-0.712095 4:0.470803 
-1 0:-0.603622 1:0.508537 2:0.00327249 3:-0.745004 4:0.556635 
-1 0:-0.603622 1:0.529335 2:0.132987 3:-0.70627 4:0.545778 
-1 0:-0.545764 1:0.565994 2:-0.0865709 3:-0.784981 4:0.57951 
-1 0:-0.603622 1:0.529335 2:-0.0746996 3:-0.744806 4:0.605198 
-1 0:-0.533464 1:0.50861 2:0.00327249 3:-0.722075 4:0.55939 
-1 0:-0.603622 1:0.508537 2:-0.104631 3:-0.720786 4:0.605198 
-1 0:-0.603622 1:0.565994 2:-0.104631 3:-0.66673 4:0.605198 
-1 0:-0.603622 1:0.529335 2:0.00327249 3:-0.745004 4:0.574863 
-1 0:-0.468457 1:0.50861 2:-0.0746996 3:-0.784981 4:0.57951 
-1 0:-0.502366 1:0.50861 2:-0.0746996 3:-0.722075 4:0.556212 
-1 0:-0.603622 1:0.546872 2:-0.104631 3:-0.739365 4:0.470803 
-1 0:-0.570217 1:0.522399 2:-0.0902573 3:-0.66673 4:0.55939 
-1 0:-0.603622 1:0.46231 2:0.132987 3:-0.744806 4:0.605198 
-1 0:-0.603622 1:0.508537 2:-0.0746996 3:-0.744806 4:0.55939 
-1 0:-0.533464 1:0.50861 2:-0.0215771 3:-0.712095 4:0.723441 
-1 0:-0.570345 1:0.55832 2:-0.0908241 3:-0.784981 4:0.57951 
-1 0:-0.652319 1:0.618079 2:-0.0215771 3:-0.744806 4:0.62652 
-1 0:-0.545764 1:0.529335 2:-0.104631 3:-0.720786 4:0.470803 
-1 0:-0.570345 1:0.529335 2:-0.0902573 3:-0.722075 4:0.55939 
-1 0:-0.603622 1:0.55832 2:-0.104631 3:-0.784981 4:0.545778 
-1 0:-0.533464 1:0.50861 2:0.00327249 3:-0.784981 4:0.55939 
-1 0:-0.603622 1:0.529335 2:-0.0215771 3:-0.722075 4:0.545778 
-1 0:-0.558474 1:0.50861 2:0.00327249 3:-0.722075 4:0.55939 
-1 0:-0.603622 1:0.529335 2:-0.104631 3:-0.739365 4:0.55939 
-1 0:-0.468457 1:0.55832 2:-0.0902573 3:-0.736274 4:0.55939 
